-3.828782836892595243e-01 3.028750393769805149e-01 -5.696103984332235859e-01 3.252686181924238085e-01 -6.904552763956764982e-01 1.477426487838817415e-01 7.904913965833961775e-01 2.797043859677672550e-01 -3.843942518039727418e-01 6.618371851264708006e-02 -2.201223673160939420e-01 -1.035710546466102056e-01 -4.453681498877063993e-01 -2.921743532705730478e-02 -3.182132404912957346e-01 9.286972273813760836e-02 -3.893468450854677410e-01 -5.161175699606100897e-01 -3.507222188961001685e-01 -3.362937279313560346e-01
1.060787304515280027e+00 1.391591800469317575e-02 -2.344826459953020248e-01 -3.028935008866615597e-01 6.992940688166030538e-01 -2.835079678402595560e-01 -5.185944013856234047e-01 -2.805913937333368580e-01 2.956340802280953972e-01 -4.409671226725869753e-01 -1.010702076796519688e-01 -3.382652513695190710e-01 1.781671106109534997e-01 -5.696921510032245672e-01 2.965280912595344986e-01 -9.743643257268536084e-01 -4.935413512503813993e-01 5.519026353452093359e-01 5.193836586427613700e-01 -5.009717836424173454e-01
-5.889916315512574441e-01 -1.881918765229773360e-01 7.684640850454246275e-01 3.538906596664397747e-02 -5.549354394317159711e-01 1.413530891324763783e-01 -5.340412961452152274e-01 2.259847357487334008e-01 3.243864122285531892e-01 1.611166011274941523e-01 5.708780771112884761e-02 5.220329048436957997e-01 3.848806552844252216e-01 5.522436474833055664e-01 2.776412083685774190e-01 8.553323073909938623e-01 9.371476085201881912e-01 2.062237987493762970e-01 -4.623645143444298777e-01 5.158740783177798717e-01
-8.415230954178158640e-02 1.823894563441770533e-01 7.389198548460811089e-02 2.039112747715971508e-01 4.576685069922212246e-01 -3.822779895052353847e-04 5.715641724625198927e-01 9.421329109888675335e-01 3.411324760645063625e-01 -1.044554472944695181e-02 -4.158913852199142558e-01 -2.120694364255900910e-01 -5.181669453098222133e-01 2.284587776553017868e-01 2.416655244220052845e-01 3.726521234376133362e-01 3.235167228599983846e-01 4.536182767698592744e-01 2.156309259606516704e-01 -7.142387136708452378e-01
6.674128028218891950e-01 -2.578765545283415173e-01 -1.455799974481851167e-01 -1.900175290782358806e-01 -6.174427483448923226e-01 1.524101309252462455e-01 -9.684336889469798149e-02 -4.845323972744404184e-01 7.307677818626827637e-01 -6.705991655509444538e-01 -1.445079282475788540e-01 1.664295490339229647e-02 -1.005583790152251439e-01 -4.925282871982572530e-03 1.201312712481352601e-01 -7.702301395394189898e-01 5.454032499346342933e-01 -3.057485646025838097e-02 -7.784540016723432432e-01 3.947138847963748143e-01
-3.324852701369923613e-01 -2.184582805691645813e-01 6.322826732802976080e-02 1.722265091348191834e-01 3.523662920326831594e-01 -4.162573124516217304e-01 -5.468748039848899678e-01 -4.792994266826802185e-01 -1.051468725730033693e+00 1.052861839593058457e+00 3.821112818985308857e-01 1.670923080178996975e-02 4.101319598789440191e-01 -2.731938178006809159e-01 -4.650994839925658431e-01 1.395159466882135157e-01 -9.234107423233032241e-01 -4.801635330331481266e-01 8.163265259450934730e-01 6.890529374099669813e-01
6.517274682353685344e-01 -1.033616174251871689e+00 -1.291386711117878672e-01 -1.000755547624799124e+00 -3.926731928452573128e-01 -8.129631308050802030e-01 1.149437785331376000e-01 1.382875155076318252e-01 -2.047127464541500519e-01 -8.516468515279869422e-02 5.423055986056013467e-01 6.308450919034718218e-01 -2.893306785147449212e-01 4.185911409474351030e-01 -7.230411077682021015e-02 -7.910557425293461842e-01 3.516187088617519496e-01 3.113959336391327604e-01 3.005335523897517125e-01 -3.746962941501694178e-01
2.923549645528525920e-01 4.274971496577936736e-01 2.064514199172562681e-01 9.389433421759019183e-01 1.010282436570765885e+00 2.496678218372153368e-01 4.837147255359156572e-01 4.996070537070265716e-01 1.400293663112773257e-01 9.487929904518983548e-01 -6.406322566955782172e-01 -1.127178651184825853e-01 -1.917777056984455442e-01 -9.879905902317092092e-01 -3.847621943133098799e-01 6.815985976887984910e-01 -6.303469188850188143e-01 2.810778153145437885e-01 -9.682525170778975010e-01 -3.964933487332027995e-01
-9.671080924757243791e-01 6.268413773532177657e-01 -4.451992643125665117e-01 2.275922427290160421e-01 -1.958455469257958936e-01 3.266676048584417624e-01 -4.749235392114807830e-01 -5.341942182169728826e-01 8.160310144779457653e-02 -6.413407570118336842e-01 1.764375411607994881e-01 -1.557999676152198865e-01 3.705745696488127461e-01 3.901124563894541319e-01 7.994531435078405801e-01 5.292822166947271922e-01 4.569243483075200590e-02 -4.038570699054044866e-01 6.361310317891246680e-01 7.600509234954722082e-01
5.272921916475989956e-01 -3.175058931184099875e-01 -6.226784739979189798e-01 -1.040060548653848616e-01 -1.520677190794902101e-01 -9.448192109047610643e-01 -1.999846711944866517e-01 4.426950140036992054e-02 -3.362172708260895756e-03 1.514637414376081848e-01 2.183266829319264468e-01 8.663101873983759804e-03 7.481551077573223019e-01 -4.311548487136789287e-01 -5.047279844918398789e-02 6.711084772366936457e-01 -4.741588012443633815e-01 -2.479774697590888533e-01 -2.432391151170890109e-01 1.935531118571001408e-01
3.195881706590679716e-01 -6.885235548136166006e-01 3.446884018201907818e-01 6.119690191361681908e-01 1.459405691194923527e-01 5.606159365957661400e-01 1.556125085100723560e-01 -9.846522713131891646e-02 -3.296294150901579734e-01 -8.083547350930100350e-01 7.384071195115446962e-01 1.098747583300244274e-01 1.050166977369643845e-01 7.517953787642478458e-01 -1.380674180174885357e-01 5.991152850950743902e-01 2.600661051116982536e-01 2.112023786114344270e-01 4.003603113545812220e-01 1.122950704889670581e-01
-4.221765079393722253e-01 6.296589321651211435e-01 5.479877443782337210e-01 -5.022123628392647365e-01 -7.121837833485936686e-01 4.049475023442801191e-01 1.646846247194061474e-01 3.922583747361735873e-01 7.020859440235204252e-01 7.745964855279490191e-01 -1.082606814321615429e+00 1.291801923167339161e-01 -6.466357511489504439e-01 -8.820893980200390783e-02 -3.164807687925769719e-01 -9.292015214904295606e-01 4.250516895378425586e-02 -1.244064058325517752e-01 3.466564968645366451e-02 -7.733048015757265636e-02
2.374684643536230724e-02 -7.835223491491981607e-01 1.866372262246444036e-01 -3.406774469245757442e-01 -6.352653691749586828e-01 6.581851075595966938e-01 5.040699218976162355e-01 -7.929945181991948644e-01 -4.593991927586805746e-01 -1.831801339562529052e-01 1.055537325194667586e-01 -5.967827133202100454e-01 1.276037080099092780e-01 1.424859460025379096e-02 -4.459352754000584507e-01 -4.055882447886542952e-01 7.306965506336486893e-01 -5.779656413993793374e-01 1.007097747825707046e+00 -2.965455752168682513e-01
4.824335633604400625e-02 1.380809748002735926e-01 -3.427387572407837313e-01 4.137053306713057155e-01 1.713970271119592548e-01 -7.769437685902181867e-01 -5.324448958380877395e-01 2.063443446239765777e-01 -3.913897847973960564e-01 7.423945623686255546e-01 5.260214547400899471e-02 7.539097079030027126e-01 9.559749881707681196e-02 -4.986535605265660087e-01 -6.620139818142090071e-02 6.048754230246224939e-01 -3.521844140915972310e-01 -3.568312712278786658e-01 -5.053980010805153578e-01 5.982974786210518703e-01
-1.316692734882267679e-01 8.480185786374520029e-01 1.028220676139452311e-01 -4.243224074077157071e-01 6.534467548191181807e-01 -5.073632694988797903e-02 5.768914014537030593e-02 5.773105852499884616e-01 8.115313117886507888e-01 -4.047172127038649037e-01 -2.321225448506609723e-01 -1.051466186564553318e-01 -1.262318537206356395e-01 4.422361383410508551e-01 3.250888339637300617e-01 -3.520768717168673012e-01 -2.236464093426974442e-01 6.913975287099040079e-01 -6.572331605520832509e-01 -4.796403491111096984e-01
-6.465373192850945583e-02 7.971998537017932485e-01 2.982495934052712960e-01 9.048418583949895122e-02 -1.379312951696237410e-01 2.650160539195026699e-01 5.316878164263225681e-01 2.727689977626205353e-01 -2.939201457387339289e-01 5.383743738578306015e-01 4.606186576153520340e-01 5.246208512702271731e-02 3.945435670186625554e-01 1.140721425508481740e-01 -7.679942901371956676e-01 -4.523290628998972163e-01 -3.366212126614971378e-01 -2.443195153993602264e-01 -8.684669310865629488e-02 1.120969359315082459e+00
-2.004612028533014068e-01 -1.269195125447858397e-01 -2.060598598820894967e-01 7.045402783792206192e-01 6.393529963488377987e-01 3.175702081163594981e-01 6.410981674271494235e-01 -7.686943832364180329e-01 -2.742846242450186489e-01 -6.337068989337639735e-01 -5.880326212195384761e-01 4.398234786537686403e-01 4.106066850393560452e-01 3.715758682754524145e-01 1.907028676245818566e-01 1.340957217086024833e-01 -1.648440761257012055e-01 1.016666863244524821e+00 8.112432001938123527e-01 -2.634327524564075151e-01
-4.070685910184425327e-02 -5.868356289510585633e-01 -2.703543334911841511e-01 -7.957758939020816991e-01 -6.882360361479222810e-02 -1.033761002383065453e+00 -7.593082444247092333e-01 4.564356247293865909e-01 6.604949859371589405e-01 1.317147821080626169e-01 7.483795232061149494e-03 -4.821744659291632984e-01 -6.461127987784318627e-01 -1.945235144363353930e-01 3.884468386275110596e-01 2.357698408167452075e-01 1.957701297853111366e-01 -5.796690330691828263e-01 -4.449957681759806882e-01 -8.261490987077549919e-01
1.552502739012083244e-01 2.736896048984622798e-01 -1.965502898623606720e-01 8.864796232325988790e-01 -6.565761103609834004e-01 -1.971879040755789292e-01 1.324445593746369498e-01 4.763063548217267851e-01 6.334296169546458355e-01 -6.049511776951560504e-01 1.957605361458023829e-01 -7.067887777489212375e-01 -5.721199526029275839e-01 -8.292381408293143796e-02 -1.193155072347745760e-02 -7.712241536060431002e-02 2.037131003766650961e-01 -6.242168224835828970e-03 -2.059436558497319825e-01 -1.118896871227941375e-01
1.077427007210746412e-01 -4.687934905139031772e-01 -2.614723584585316174e-01 7.773961691459695122e-02 1.062470773072782704e+00 1.002976185210498611e-01 -9.167061558171379909e-01 -4.872203841081290676e-01 -5.449196435833140312e-02 6.982953243483583927e-01 -1.195888002434892933e-01 -5.972477086017684567e-01 7.682404038017723868e-01 7.355409474175058637e-01 -5.345216274765348663e-01 -1.299613755645339652e-01 5.542150173303990977e-04 -2.398347313255653201e-01 -3.946778745997032156e-01 2.423651153884605336e-02
-1.820803301707610844e-01 1.899159766533796423e-01 8.590337715133063989e-01 -9.444628056303114860e-01 -2.865996644311730179e-01 6.284234366261842730e-02 4.227892756966695198e-01 -7.542021244779982536e-02 -5.432580933065562778e-01 1.043134897410868955e-01 -1.439003630359725061e-01 1.146941287243191665e+00 -5.961544755763411585e-01 -4.968330432377872086e-01 3.964089747375746375e-01 2.338282500241973261e-01 -2.760739651128151784e-01 3.494881705268878536e-01 4.428987598628330580e-01 -7.859046970636059115e-02
3.811213768118775769e-01 2.678869874918560767e-01 5.844310088607207465e-01 -8.765159166313567507e-01 -2.182779872318460213e-01 2.035586049004035336e-01 -6.258435770797348141e-01 1.581821405695319482e-01 -9.660194129842288036e-02 2.402688885754510895e-01 -1.738257236602555600e-01 1.353508415782841458e-02 4.837123822570111448e-02 -9.914391392268296910e-01 3.054393772112601879e-01 -3.916378313107061193e-01 -3.346333527234638394e-01 4.294772784429355394e-01 4.910513146694143183e-01 -1.502728993843370775e-01
-8.721146953713553307e-01 -5.360372941779786293e-01 -1.451592638160511747e-02 4.030973233998677574e-01 -4.085090557329206784e-01 -3.098886081064381459e-01 -6.592042248159689366e-02 2.360771147649355362e-01 -7.913124727017953886e-01 6.203524602658768705e-01 -2.401386946992609128e-01 3.542323764993905444e-01 -3.991650287777719908e-01 -5.780934377318065753e-02 2.506120984534185303e-01 6.459854860173570579e-01 4.331074031169417360e-01 -1.125897887916660345e+00 8.754618423880702882e-02 3.654578890092272658e-01
3.666883159227320443e-01 3.823647786096089907e-01 -6.070092548166976520e-01 4.782557837567555370e-01 8.067619463975923555e-01 1.851326828084791931e-01 9.514588984793896920e-01 -1.708040177681543481e-01 6.961420200162135030e-01 -8.097111383340301893e-01 1.721388148540624607e-01 -4.048427904225947449e-01 4.148448309279379465e-01 6.038948695769225106e-01 -4.744516817209865622e-01 -4.760741714214430931e-01 1.765662469862378237e-01 5.121579259095678793e-01 -3.033106243853873618e-01 -1.824842257230781528e-01
6.150587439166580461e-01 2.739070694518954130e-01 3.693175359387845802e-01 1.379063265598882426e-01 3.473948096862362611e-01 -2.650707696892652954e-01 5.445431909780360513e-01 -2.711950956746734809e-01 2.212422220706466158e-01 -1.244848386781242516e-01 4.449145914119618794e-01 7.245173778226781103e-01 9.066958742005928329e-01 7.631229795818797457e-02 8.268375155745116833e-02 -6.893312974778960378e-02 -5.175701413565778619e-01 -5.359841857206496529e-01 6.090739424462441320e-01 7.321684863074384708e-01
-3.010707439626247317e-01 5.621098851750779835e-01 -4.866861986683493901e-01 6.908045539465705875e-01 4.487971716985772463e-01 1.384115439796694824e-01 -3.460754801330746533e-01 5.725132325421921492e-02 -5.484769931913205943e-01 8.772441427482476906e-01 -1.769738431262672107e-01 -4.852086462651230558e-01 -3.410284195721682288e-01 -2.037185023766399095e-01 -4.168047001980993427e-01 -6.819405087720467051e-01 8.662611983726985210e-02 -8.327901761758164101e-01 2.205620665930947966e-01 -1.328948654523940121e-01
-6.512721152964718874e-01 -8.575628024451870113e-01 3.199520423587832729e-01 -1.054691152662818210e+00 4.143336279771363539e-01 -1.786685926653692191e-01 4.233376536684483327e-01 -2.681943070528126638e-01 -2.741696754483935461e-01 -4.171487739064125289e-01 3.406687181332825887e-01 -4.740831776057626845e-01 -8.646596778038759812e-01 1.842751992099652680e-01 -1.774093110153094899e-01 9.055871138388955632e-01 2.615951070461616790e-01 7.385237572404611539e-01 -2.280754604288462994e-01 -1.302739653783454958e-02
-6.324912671151183829e-02 2.245295619494362682e-01 8.061389974748887077e-01 3.108623066549847103e-01 1.727995779799048892e-01 -2.969859077454218288e-01 2.549899385596151591e-01 -4.064824773562755178e-01 2.412644716643058407e-01 -1.371956606575265303e-01 3.825153590321105357e-01 7.541160995262916611e-01 8.875826336394255778e-01 3.047452673275434787e-01 -1.975839577121402957e-01 3.583330325916100345e-01 -6.785207953723629837e-01 -2.145230269442214288e-01 1.634624615995428631e-01 4.516134973866438584e-01
-1.204573581360986190e-01 1.802464042236090747e-01 -3.745200000615968583e-01 1.938329000428453408e-01 2.346289177041996632e-01 7.697122686989027462e-01 1.485104314341127441e-01 -3.721544421043910811e-01 -8.401009981622352685e-01 -4.536378830793415529e-01 8.013105034026458962e-02 -6.977742243223687968e-01 -3.099067174161050375e-01 4.840535629163826847e-01 2.723587488745739527e-01 1.581447168590698615e-01 5.698322941655452611e-01 -4.527933206852851056e-01 -7.226022080932087421e-01 -8.187951439712087831e-01
-5.159619657420282390e-01 2.245569237033548660e-01 -3.784018831014723250e-01 -8.149505204812290682e-01 -5.555724479725966392e-01 -6.607408248373232429e-02 -1.881657192381160359e-01 6.261544019325977484e-01 4.154620495146125747e-01 -4.198273854458545729e-01 -8.366004269937728222e-02 3.681309641362472407e-01 -1.306250011715024729e-02 -6.522816031791281999e-01 5.725166400176132098e-02 2.502877789754529361e-02 2.129654831278614824e-01 8.380009213356808262e-01 -7.991993596365493113e-02 -4.430267649548909614e-01
2.400736092560647184e-01 -4.041208442241514542e-01 -5.309705911314323012e-01 -1.592004622766235444e-01 5.297940655348317707e-01 1.756208904975214702e-01 5.010528716779052427e-01 -6.376451020704180239e-01 -2.065279221914716468e-01 1.163987433915192604e-01 3.185330425089764605e-01 1.166808477542422701e-01 -5.390585460144439178e-01 -9.778456187681150436e-02 3.147934096854331787e-01 -2.392916866509920207e-02 7.099285211761123815e-01 -8.586815950103947603e-01 2.268778269337854980e-01 -8.571055984222535062e-02
-2.860588464974607725e-01 4.159926384100663399e-01 8.964479021952099780e-01 4.029346287661391690e-01 -2.472031870165580514e-01 -6.998937790732182029e-02 -1.507510564569644052e-01 3.648917928694300761e-01 -4.727423809814544908e-01 -8.322251155931746913e-01 3.827156832453592616e-01 -7.299943820067841260e-01 6.521627487236876242e-01 -1.815943447488071461e-01 -2.269990111592090909e-01 3.870430984286010734e-01 -8.320661479827449192e-01 1.512507771624523600e-01 -5.076612837291186731e-01 -1.010485625958281508e+00
8.236252955381660745e-02 2.493212628075836546e-01 4.754371615097205961e-01 -7.290068538110072716e-01 -9.788280625311104322e-01 4.618478375982885686e-01 -6.817272388041988318e-01 1.241107290788286271e-01 6.484213384969276239e-01 9.624865407731686417e-02 -7.011844074068450672e-01 -2.116525416413558847e-01 1.115149426796596260e-01 6.955257347617139763e-01 -6.334908880805558695e-01 -1.273328128582853713e+00 5.200542865723649655e-01 4.837028122809983732e-01 2.983568547591881615e-01 9.649506466477232314e-01
-9.316435610769878695e-01 4.540846294594437227e-01 -4.300096683907952411e-01 -2.066149121591107085e-01 4.480532276956484816e-01 -4.657257227172850733e-01 -4.434743983737097772e-01 -7.598393297557193282e-01 1.560992740369521181e-01 -5.575033490988749729e-02 1.540841935188405065e-01 -5.508655052010817954e-01 -6.020797442071799122e-01 -1.153680112471406338e-01 5.031571276565958151e-01 -3.677376698804272204e-01 -6.210768456747398636e-01 5.469184942841113367e-02 -1.513856588680720927e-01 7.778467435859690582e-01
-4.580942807179830822e-01 1.893846772106882737e-01 -2.135984522157494403e-01 4.786763381714213006e-01 5.064061809567482753e-01 8.887234408625188653e-01 -4.437382993711289081e-01 6.456169396877722289e-01 -1.108708964497585381e+00 5.594468951737133766e-01 2.991728521920147266e-01 -6.591622613642558193e-01 2.253333897399552033e-01 2.950093504881418638e-01 4.067406742540816689e-01 -6.332970650933879286e-02 1.119588153909670813e+00 5.920540208060337539e-01 -8.815614014709854951e-02 -7.827881861838499322e-01
2.949405382463547998e-01 9.962001797018940619e-02 -1.419407090539211713e-01 -9.952912134441274650e-02 3.766785544344682934e-01 -4.167254750898977678e-01 7.232445056942106154e-01 -6.500383293256366546e-01 1.901322110764308015e-01 -7.293823638111028851e-01 -3.527824547049663445e-02 9.190518415976942634e-01 -1.166253810526557272e-01 -6.399433511948124931e-01 3.122025815949054373e-01 -1.572184245725280205e-01 -2.171324419985853904e-01 -5.397343974355496288e-01 -1.850876162090128035e-02 -4.659258360759315210e-01
-2.025289465285753099e-01 -7.522701642642257713e-01 -5.931960217986324002e-01 -1.242399940546659864e-01 -3.485743635046672506e-01 -4.810868501737331493e-01 3.741265187604457809e-01 2.223320902669268526e-05 1.544209495166073698e-01 -1.411621962120953311e-01 3.628636356444073230e-01 -2.035783125546753447e-01 9.228395925285742818e-02 2.444416285169886127e-01 3.950824951841604427e-01 -3.493666565428746873e-01 -5.793667194588851543e-02 5.958712088160108555e-01 3.635280198112062489e-01 1.950934794646628501e-01
-4.559932719713688520e-01 -4.210671529079916819e-01 7.990125431000439926e-01 5.527298165539528130e-01 3.273727980205079491e-02 1.237650094450110982e+00 -7.439413098470114560e-01 -5.067644275709358714e-01 2.204922221872355481e-01 -8.855570925239482083e-01 6.967269036043897135e-01 -2.404027108947562330e-01 -6.477147112170775212e-02 -3.744820677384413932e-01 -1.745335767873348043e-01 7.820757580793402663e-01 -6.970885347598517745e-01 7.867920712820789531e-01 -4.119729937514665097e-01 -8.707552250449817483e-03
6.846565656804169953e-01 8.922973867374075496e-01 1.423203519051459767e-02 3.065594168758018490e-01 -1.043119372161375596e-01 -5.136169721318877279e-01 2.692419652932278584e-01 5.232588005596584546e-01 -3.542232164170938669e-01 5.349521438763011894e-01 -8.584398362714011910e-01 3.122210727038488565e-01 -3.383368316738100123e-01 2.629730352957080353e-01 2.740588181520924871e-01 -1.869047511333870315e-01 4.218809102607357087e-01 -8.676388741237853752e-01 9.796640830440023207e-02 1.986150842914843062e-01
2.208163551002051972e-01 3.426946421852491431e-01 -5.400205583369931117e-02 8.800288486083668316e-01 -3.732234898088163111e-01 7.249945082265691898e-01 -6.589787502942638930e-01 -9.651936994643953854e-03 4.914375006227761356e-02 1.158628087939791995e-01 7.006278235792847697e-01 -7.686205916997559395e-01 2.532307080659699783e-01 3.812310104556032031e-01 1.096875859765513023e-01 -4.376185216759398422e-02 2.970256839340016386e-01 -1.070119150150393023e-01 -6.899631748038085322e-01 -1.154304824480948261e-01
9.826179953032687653e-01 -8.123162724472088314e-01 -7.812243026675519397e-02 -5.778749254163547677e-01 3.219616710765557666e-01 6.558777895437344352e-01 -3.254909470503926094e-01 8.234040602680504639e-01 -7.519162388588947199e-02 -2.378833238133227224e-01 -6.040907342988507400e-01 7.640356398592322851e-01 1.129624282637577658e-02 -2.159577528897522469e-01 2.497854272622719862e-01 -3.769015717112648711e-01 3.887526240190131155e-01 -3.075718604373477993e-01 7.535641579990067784e-01 -3.878090801830633150e-01
-6.204182390732886354e-01 1.635375406889149064e-01 3.818248736868525839e-01 -2.421533922273023665e-01 -8.367210676080776288e-01 -2.502525094301163433e-01 1.293883089877042869e-01 -4.389666692312370055e-01 -1.327158329775905699e-01 6.757203490722082928e-02 7.637573054273986972e-02 1.150488815489306288e-01 -6.282696756135797145e-01 -7.981990576517981051e-01 1.892805103816628254e-01 8.921040503751809236e-01 1.109593552366485020e-01 -5.890573834637205519e-02 -4.750942595678596114e-01 6.026319524422190099e-01
-3.474952008797025926e-01 5.019782593552807315e-01 -3.723365936676207300e-01 5.112458687850546246e-01 4.769461588697279097e-01 1.460085333610696423e-01 5.313414778508698255e-01 -5.958354452608538576e-01 4.540200020823536575e-01 -6.719726389116696952e-01 2.296960325451726237e-01 4.629608532690003275e-01 3.927571339004355955e-01 3.543471201694720681e-03 4.314129988293832207e-01 -3.111000890078765013e-01 1.419076934754213981e-01 -3.874000201801720833e-02 6.183171627203943865e-01 5.312038871288583541e-01
-7.818769703903535317e-01 -8.181293575762572656e-01 -6.274467990943207729e-01 2.400359609822158569e-01 5.252202152793531559e-02 1.402839311568023495e-01 -6.109957199202922240e-01 3.233979494807799338e-01 7.028895032366542228e-01 2.558108413237520154e-02 2.854095571156208266e-01 -3.870264015925391488e-01 8.293399711332352098e-01 -9.187179673220606801e-01 -4.755230892548140825e-02 6.682349835770907687e-01 5.657997392630182976e-01 5.582252937905465284e-01 1.825554618536494311e-02 -3.407749103274946845e-01
7.159286612736480704e-01 5.856255306575001152e-01 -1.023770712045850712e-01 -7.380397755968354234e-01 -8.294011036675126292e-01 -3.202137944029540551e-01 8.089250960335931939e-01 3.307572296667706802e-01 -1.041620921790246568e+00 1.121904463579911221e-01 -2.562614016895445324e-01 3.069649235282722599e-01 -2.700261476609991385e-01 8.180887968966945589e-01 1.614705689521597418e-02 -3.036487641931744919e-01 -5.495518395575709203e-01 -5.744806136212117220e-01 -2.354376155373298640e-01 3.666741031700949116e-01
3.778023437517754601e-01 -4.081698282422374646e-01 -5.785141473130177570e-01 5.729390383300170253e-01 -1.003244465817204056e-01 -7.653874135767628761e-01 -2.637441508227195142e-01 -2.703516649743998787e-02 -1.595516150265155197e-01 1.144158607815028011e-01 3.539736391498510271e-01 4.991269557432905235e-01 3.694371981118220738e-01 6.651981552607251214e-01 5.719586330221319015e-01 5.419366530573231922e-01 5.308188512750149357e-01 5.813518020607569281e-02 -5.459229247616135261e-01 4.618948495941134769e-01
3.229117737994249282e-01 3.478911522848320281e-01 4.937042595998477612e-01 -1.038202242353953864e+00 3.224667498591592130e-02 2.612255465155564615e-01 -3.334298123588091967e-01 -7.579972901421466736e-01 9.188558427334960754e-01 6.666377634467903768e-01 -8.872381549895604069e-02 -2.278987008189582719e-01 2.323061634373741191e-01 1.951410175688074733e-01 -5.187592657898433268e-01 8.313244735022591592e-02 -1.028120896602206624e+00 9.006505422264224348e-02 -3.750589910645363290e-01 -6.271056018925817988e-01
-4.364775597114768368e-01 -3.177889912965780050e-01 1.897268821680981321e-01 4.694904905497115366e-01 -3.572699711562964953e-01 1.570749544753859694e-01 6.157037423055523873e-02 4.172439954624100888e-01 -2.159698030825764337e-01 -9.247705572788103012e-01 -1.598668399794158368e-01 -3.231033045091504241e-01 -7.457328194788747089e-01 1.648452579556255460e-01 -1.610259538847431393e-01 -5.773521719383206685e-02 -5.246670004915024920e-04 3.332149994951403293e-01 3.183605982046737726e-01 1.992813078555673578e-01
5.317550566588361560e-01 3.486794727308987207e-01 3.579411845451108132e-01 7.427828352049954397e-01 6.473744491082533692e-01 -5.720631682241767990e-01 -8.203621162543979495e-02 -5.433848857819352229e-01 6.636745602080751372e-01 -4.255592982887433928e-01 -2.330229770083940277e-01 1.098280353188818004e-01 7.676650194110106185e-01 -5.252026399427940362e-01 6.486860097105177081e-01 1.369122471719063650e-01 1.382431291308812149e-01 3.111068998637742666e-01 -2.818243748263955517e-01 3.279583813609181497e-01
3.803504389499889338e-01 -2.288098762590408397e-01 5.887505642592559540e-02 -8.535086064441110842e-01 -1.018838553764003674e+00 9.994820394825896237e-01 -1.419258484741482695e-01 -3.304151995954394683e-01 5.234843659907844060e-01 3.906475539824254550e-01 1.080794008171308412e-01 7.835278787729030858e-01 -5.407246661003959343e-01 2.082666074279826696e-01 -1.848595080390004475e-01 1.112569666534556634e-01 -6.623384676771184587e-01 -1.974140691554435723e-01 1.451504505618509966e-01 -1.743350623705493541e-01
-6.506082266505374134e-01 -3.022731197158511351e-01 -6.518461883019018854e-01 5.710387397303671175e-01 -4.856119691514593772e-01 -2.612088972819202048e-01 -6.201016161442516328e-01 1.206750893357393606e+00 -8.584176023956766599e-01 -4.589768689054323225e-01 -6.740348253776323739e-01 -9.100044215670982650e-01 2.745150758768046817e-01 1.798759088162851516e-01 -1.050602880440454634e-01 -7.852566668617597667e-01 6.794940260124160414e-01 6.595818746844807068e-01 -2.909868760727052361e-01 -5.615301200325396591e-01
-2.211812107826154616e-01 -3.515208482877169582e-01 -2.055103852680970622e-01 -5.356401825053976884e-01 -2.080004851560130763e-01 -7.732372443693217301e-01 -6.373527283852009617e-01 -4.528187831182032413e-02 2.639606267364935088e-01 -5.685100941458485213e-01 3.076220746563789743e-01 4.911493812766139500e-01 -3.769040363033636654e-01 5.317565888448732014e-01 4.410834540593583375e-02 3.895980526609120198e-01 9.181291414193072375e-01 -2.441993737901743677e-01 3.002142124927418831e-01 5.591811754243466437e-01
5.652567409806045218e-01 -4.008206705717440310e-01 7.028643226660719057e-02 9.043136325872708214e-01 -7.006690889132307642e-01 3.571329337784769353e-01 4.808365092511946576e-02 3.636221479885323737e-01 4.058029193797729195e-01 9.302245169286127435e-01 2.843852512998869542e-01 -9.388342635057482510e-02 3.128876299603754463e-01 -1.248424995777925428e+00 -2.493986479282465085e-01 -5.414219469533959606e-01 3.381953311050514555e-01 5.717322553386247064e-01 -6.883112779282445359e-01 2.679167681529555645e-01
3.329542851106686019e-01 6.059949153693874324e-01 1.658639924110754116e-01 -1.314658523391635803e-01 5.771653279297912498e-01 5.868645544276209630e-02 4.254276606293935226e-01 1.680141073010282260e-01 -3.114107094257944630e-01 7.190355609906522449e-01 -8.533951572651212736e-01 -5.638453071299396324e-01 -5.832937462996170552e-01 4.482139483557683324e-01 4.083585490266559148e-01 1.125770306819801059e-01 -1.070055613324243149e+00 -5.847565758441904959e-01 8.801857825108752031e-01 -2.642753906441108191e-01
-1.807154934196485152e-01 -2.198391947637791388e-01 -5.238274351479412783e-01 6.907494307204188333e-01 -6.221350512128185350e-01 6.445455762914362730e-01 7.330866967284374036e-01 -2.934059583361351975e-01 5.223662556062902418e-01 3.298760756838303720e-01 -2.379950032983082497e-01 3.889884604564156634e-01 4.221288900351707896e-01 4.551570286116043973e-01 4.610391914973507865e-01 2.132734281359783823e-01 6.933463976735418921e-01 9.857097306371751314e-03 -4.208369700054137019e-01 -5.325986170427640110e-01
5.656200875690916563e-01 -2.552675645350413469e-01 -8.058485502380634546e-01 6.129386292499140465e-01 2.815546894348974205e-01 -1.031252831225676569e+00 -8.574676606798928846e-01 2.575827210327014671e-01 -2.399056687692420198e-01 2.646229635923088575e-01 3.817051573097091643e-01 5.055639770709198233e-01 -6.263573853383729295e-01 -9.763071649180020684e-01 -3.476980809870089950e-01 6.777488248255376657e-01 -5.944052375527828502e-01 -4.452426821851836469e-01 6.098707796727225183e-01 3.900510928973098257e-01
-2.758396943231345433e-01 -6.983439915436837064e-02 4.142247357140855790e-01 -6.269775186349056950e-01 5.213673326637178196e-01 -3.080837808740067296e-01 6.149090944697649386e-01 -8.390373059983937537e-03 -2.093991295501879679e-01 3.800248558701430079e-02 -2.518725372695776454e-01 1.499332266186734486e-01 3.546452257196954228e-01 4.077571085388602135e-01 -9.943610873684956275e-02 2.211675821133783915e-01 -1.139088621334211487e-01 3.409594917152133919e-01 -2.255070019672177073e-01 3.394704994064699499e-01
3.155525032841748900e-01 -5.846305233000107515e-01 7.709379266345347537e-01 2.320324430470390442e-01 -3.646326387574592709e-01 1.129893886057309560e+00 3.654190377715507698e-01 9.360727456575621552e-01 3.249878098331979714e-01 -1.018467905878708557e-01 -2.124640577013851006e-01 9.783372744917118169e-02 4.304523499383229868e-01 7.988225469343726015e-01 -1.042352785577988383e+00 -3.605277831143338663e-01 -9.305989441452446054e-02 -9.891968985991032859e-03 -1.688612399847798096e-01 1.752039307702691895e-01
3.465071529789522375e-01 4.905202022291949016e-01 9.018945367850798867e-02 2.631197493720665581e-01 5.762090663410327496e-01 -7.764529205739065798e-01 3.964462091194032589e-01 -4.027380669175568140e-01 7.632055258954888455e-01 -1.999047658516844017e-01 -3.895557476591443580e-01 5.915969634551121459e-01 -4.506047573871738154e-02 4.399139197264486656e-01 2.494034343062188630e-01 -3.030717473257720229e-01 4.286585230244566724e-01 2.641309483171926376e-01 2.693984812850771515e-01 -3.830201179636383291e-01
4.935547460292241673e-01 -3.374874259180630220e-01 -1.340427364292876011e-01 -7.572070830478642156e-01 -6.910700411971125723e-01 -4.638101149095768538e-01 -6.798160203889673792e-01 3.918951947982903250e-01 -3.803812533602154433e-01 5.071601612681922999e-01 3.921177179076636848e-02 -3.024096758070154989e-01 3.069437894964471281e-01 -9.837689847397452780e-01 -5.275439291228288807e-01 9.487708848361525726e-01 -6.012840735975596429e-01 -1.641607780640198244e-01 -1.735367612517060287e-01 5.755129105493833608e-01
-4.671497117471140603e-01 2.384574585275351100e-01 -4.309410899622881930e-01 -1.842586040276304182e-01 7.724296775350014688e-01 -3.558587631847490718e-01 -8.109167954953862001e-01 -1.521149343734820580e-02 -3.568281836391336559e-01 4.613850260224298672e-01 7.931440274521385225e-01 2.120839464595341839e-01 6.345916966339439913e-01 5.355885089302256929e-01 9.210793103698723394e-01 1.213996625886982345e-01 1.658871958240663858e-01 -3.322417135736210891e-01 5.051396007649223696e-01 -3.486445200020771851e-01
5.470834054903523924e-01 -6.308591868709007011e-01 8.984901221140173533e-01 -9.913802367962363249e-01 3.843473283802995577e-01 -4.084287514145641396e-01 5.793105839790373413e-01 1.724826141710484803e-02 4.243590421815677804e-01 2.613147693990351406e-01 -5.256770608783748466e-01 1.485401610138075423e-01 2.195612896435585604e-01 5.363072319355037809e-01 -5.051191204025374804e-01 2.222978528595030701e-01 -1.454980330060866855e-01 -7.689476635169240071e-01 5.022699370050817125e-01 -7.623495544759770759e-01
-2.491798043836380705e-01 5.401600706833576959e-01 -7.559615296334916135e-01 6.162248798755376455e-01 -7.956188238935990586e-01 5.795752014901810467e-01 3.604120926604698072e-01 6.225923485281763953e-02 3.478221824649286309e-01 -4.651163118425109128e-02 -3.317912120818579114e-01 6.851439648968088436e-02 -5.983079653530387620e-01 -7.364681127975463149e-01 -7.628285096495200923e-01 -2.908030355979256409e-01 -1.306999712715135320e-01 6.819884580429255161e-01 -5.409529709947248355e-01 6.517309079924247239e-01
-6.549823323930920038e-01 2.928376395317182079e-01 -3.297002983714241164e-01 -3.766703198128523028e-02 -4.113649080206155939e-01 2.066454670974544328e-01 3.672490532562279753e-01 -3.610404779056266000e-01 9.213672289782460778e-01 -6.720465920038902474e-02 9.636712442550148250e-01 -2.835570949399809360e-01 -7.207545430918340656e-01 9.613252524504782848e-01 -5.113318270315109215e-01 -4.221367259778295300e-01 3.876136410093332096e-01 -1.705452896140725316e-01 1.393083796873703095e-01 -4.930101268349988408e-01
-6.341011709982767863e-01 -4.558510836472871169e-02 -2.176758842046588038e-01 -3.547762433046488389e-02 7.188641541053752970e-01 -6.835820890065879007e-01 5.812520289114263550e-01 2.147202178387308258e-01 -1.604290846140511706e-01 5.630211384958460075e-01 -4.006757564238395131e-01 -6.794941388249660097e-01 4.828916709859197853e-01 -7.526069190943360798e-01 -7.173357804072352240e-01 -1.184397804880825827e-01 1.924421352113371911e-02 8.558353361376180857e-01 2.257511765432431219e-02 -1.747300655488802923e-01
5.609246873748739981e-01 2.161178693267649387e-01 -5.503071103970866990e-02 -9.450469438542373479e-02 3.542985014507341046e-01 -7.188088626472296516e-01 -2.022852615060448667e-01 -4.545900874538693626e-01 -6.431833107152268303e-01 -5.277475264131693544e-01 -7.045787818614523967e-01 8.289960167735712648e-01 8.489670798434203469e-01 3.635453200169879717e-01 7.379580531242661001e-01 -1.875186558819714189e-01 -1.066615760840348592e+00 -5.445466574298845064e-01 5.498674726232830046e-02 3.786180259739118648e-01
3.669845348391083673e-01 4.108824572474222003e-02 4.655465711118609851e-01 -1.603032523242934604e-01 -4.710387715408658749e-01 6.279505022125364544e-01 1.523804491634500949e-02 6.175271045375892165e-02 -6.723012714399023704e-01 2.808380766547384777e-01 -6.730945253438492815e-01 -1.048523236894467692e+00 6.360259003931474364e-01 2.018128915756445818e-01 -2.034804152175591074e-01 1.747989407360540925e-01 -4.869959032692259826e-01 5.073302873394802681e-01 4.718165315376734448e-01 2.652917393891636097e-02
-5.251850380563002352e-01 -9.001594160202743833e-01 5.410248951440099763e-01 -4.654295883182347771e-01 -7.142773851373007687e-02 -5.189757976820839058e-01 -6.116176560614537960e-01 -1.735447836446151193e-01 -2.708774497092801825e-01 -1.209091973205060483e-01 -3.927531892331756480e-01 3.453772479152802943e-01 -6.161949972717211121e-01 -9.569526145390488958e-02 2.384299068951735157e-01 -6.503222863365917261e-01 5.472651169654303427e-01 -1.505720616205665774e-01 -2.845537557095237924e-01 -2.642580046039091912e-01
4.944906428705783674e-01 2.802593292133687686e-01 3.591592960185835959e-01 4.912194482631729864e-01 8.973287810613992388e-01 -1.240212689414531971e-01 3.269520026620458264e-01 3.626079299141936052e-01 7.571572574731535443e-01 2.653507962092116479e-01 1.671492410225837999e-01 2.665587503399901581e-01 -8.296935154297397919e-01 -4.384775355907634120e-01 -4.777002414867219660e-01 2.529761275158293743e-01 9.591278990007329197e-02 -5.198788903210274093e-01 -6.272213659455228019e-01 -2.534915894178969009e-01
-5.779648519169510168e-01 4.230385926627674431e-01 7.816514808991927021e-02 2.671119172470541314e-01 -2.728688069868179245e-01 7.278214119598453991e-01 4.172528423048759150e-01 -2.405563489919573805e-01 -1.866933273362692547e-01 -8.639271492177795775e-01 -4.746994823933209373e-01 -4.361059928046109313e-01 -2.583297371049970703e-01 8.566479125978589959e-01 3.382977198054019086e-01 2.781540255060775957e-01 4.362843268781665396e-01 -5.251491001083118393e-01 -6.859140041666379473e-01 2.017108268225293200e-03
2.520384464881607056e-01 2.311999189192961435e-01 1.625203408791931481e-01 -9.336046498792118786e-01 6.825529042454611117e-01 -8.755745519989124315e-01 -3.004986636437446679e-01 5.921214181642178165e-01 -9.843225625880822061e-02 1.884342269144411164e-01 1.746005930921683824e-01 5.705214285901824001e-01 -2.684258197298566850e-01 -8.731994454008391582e-01 5.256308715679037791e-01 -4.678023086030760336e-01 8.577630717079091083e-01 5.496132894668647184e-01 1.017026500778579701e+00 -1.784318467354574543e-03
-1.597298292938257314e-01 -8.010321890787443222e-02 -6.589023415536117145e-01 9.361291879854316544e-01 1.757770258963441135e-02 5.474026410887813388e-01 1.483991794208515680e-01 7.137195287313581604e-02 -1.858711297503310989e-01 7.821275867905830292e-01 3.812415688770569577e-01 -1.070935226575561866e-01 4.060592210437441452e-01 -9.129037949922726991e-01 -6.461728257292546074e-01 -4.295806348233091043e-01 -8.379094181729725976e-01 -3.721922725751597993e-01 4.656570537705240209e-01 -1.265301261738356825e-03
5.313050400655607852e-01 -5.333605005337677119e-01 -3.704227138096262695e-01 -1.181651872557927252e-01 1.811254253428101202e-01 -4.415160509281880197e-01 -8.337706436486472805e-01 8.698068949041352083e-01 3.090733192915382510e-01 6.977642711209117721e-01 6.317200516561487234e-02 3.167921458074237084e-01 -1.204920068233590429e-02 -4.980734821113193961e-02 2.118419104997736613e-01 3.969302419652479541e-01 -5.651317633049186551e-01 -3.704772877803058084e-01 -5.584581205482093136e-01 -1.009284525973306174e-01
-1.044673323226515300e-02 3.143179273200560342e-01 8.720495877561317277e-01 3.719439030989772355e-01 -4.078733415550561126e-01 6.456537701485364211e-01 6.832858848992610090e-01 -4.409400575540473044e-01 5.938412931462589972e-01 2.929142300461251014e-01 6.153025495908237552e-01 9.511282539977422568e-02 -1.167700328012694216e-01 6.735285753423866373e-01 -7.524236212463271123e-01 -4.870908717434743185e-01 1.749835565030435913e-01 -7.102869192579047697e-02 4.664460944360023786e-01 -2.239861338792036860e-01
-4.500567275239958365e-01 7.177276181196153848e-01 -2.488072206152713572e-01 -7.908212853924988517e-01 5.163405727332534001e-01 -4.344553443053001951e-01 8.073094397419161572e-01 -5.447581243567632958e-01 -6.624531825171929844e-01 -6.243954684104218167e-01 -6.573345375816171121e-02 6.126913239091298646e-02 -4.540257943775123928e-01 -3.061222472198815714e-01 5.620240596386087972e-01 7.275239568430419412e-01 2.076417539223062714e-01 -2.356140128880707396e-01 -6.109619825428022968e-03 2.282090688308715531e-01
-7.674577055358190458e-01 1.150871253769995307e-02 -1.005534018933697649e+00 7.165018507826806382e-02 7.388887096122256359e-01 1.315054541350657857e-01 -5.843392893555032774e-01 7.845378024593967492e-01 -5.649546951459218924e-01 3.138007045603901507e-02 -3.098148051555376647e-01 1.448985654435981096e-01 9.607682333218121595e-01 5.641241096651703479e-01 -4.569945653077432390e-01 -3.690143939144985841e-01 -5.584571518502188248e-01 9.377869179972069258e-01 3.025032188291704727e-01 -8.971187171132822824e-01
-7.729641377817683123e-01 -4.415759787756109445e-01 7.194784276890400232e-01 4.933923305329263043e-02 1.924293684070454702e-01 6.345512366048017272e-01 -6.686127220072846100e-01 -7.046316207291560829e-01 -2.482216503487270076e-01 -2.312815547876332367e-01 1.200054954083875774e-01 -6.570335527971027378e-01 -7.749956243675211187e-01 3.578405344043957270e-01 5.611284823872285665e-01 4.299934449011659221e-01 -1.394826904661552180e-01 8.848501557913984739e-02 -2.335480948029099724e-01 1.702723624706816430e-01
1.073892147859615731e+00 -7.307944856139884926e-02 2.240097022259846526e-01 -1.438144224831430507e-01 -1.656102346017766791e-01 -8.416844246046509825e-01 1.253312754305466514e+00 -6.168280988574783574e-01 2.588212467663945637e-01 -6.561978651905089333e-01 1.407416663420649194e-01 2.415574706512765013e-01 3.320232049135501406e-01 -5.004950409054068627e-01 -3.119566780350224167e-01 -5.598381165628807388e-01 -4.605203921236951381e-02 -7.526030951668478686e-01 -1.677950973839519577e-01 5.490084558876008325e-01
-4.766606972317217750e-01 1.187586779868900599e+00 2.399339342377882212e-01 -5.555576236265102885e-01 -1.674626716992600739e-01 -1.471508323424964605e-02 2.873969746052642549e-01 -6.223093679014357615e-01 -5.625076547904499513e-01 4.650189599777924676e-01 7.920858626986629902e-01 -7.637172139518749736e-01 -8.203353636763852652e-01 -9.720525791664753890e-02 5.859587732814303118e-01 -4.981363015201508149e-01 -9.203832956739814719e-01 8.753391242331529654e-01 6.905690235588447523e-01 -5.088818335768870993e-01
-4.438638013287459216e-01 -3.111029717647048054e-01 1.037453953509423599e+00 5.353591595942928105e-01 -9.230907414159518487e-02 2.523170930519902933e-01 -4.885304389580611417e-01 6.810555591208573567e-01 -1.628882951247987224e-02 -2.288576428160972176e-01 2.977113989901066238e-01 6.081839870882460586e-01 -3.883456448354503654e-01 -9.131324304374554002e-01 -5.754610515975057128e-01 7.280818672406566723e-03 -7.065562985387764672e-02 -3.740750653780792190e-01 -4.636921770958796207e-01 6.333212022862192425e-01
8.174971751502780881e-01 -3.887235902350847372e-01 -7.188944794332652322e-01 -4.625722831452364625e-01 9.750704276400837811e-01 3.067152960418840224e-01 -2.296288609282387538e-01 1.463253611118849181e-03 3.965100888279344260e-01 -6.245802937255662268e-01 -6.311515780851165713e-01 -6.411606714875915936e-01 5.000850036612143334e-01 6.336674516873129770e-01 5.520267086944404822e-01 -3.810833241210687672e-01 3.964448150986555897e-01 -8.477443152233460344e-02 -8.286126473046126484e-02 -2.877510318744467277e-01
-3.895905551636019148e-01 7.271379716916017699e-01 -3.753464321396943193e-01 -3.040814548232900413e-02 -2.948382819102501329e-01 2.201089354518906069e-02 -5.139356017921014042e-01 -5.362124333394642228e-01 3.656083707615112588e-01 2.596244883197860176e-01 4.392775097833745424e-01 1.208172549167725041e-01 -9.871555000653680842e-03 9.842691473481519626e-01 6.623182560471528868e-01 2.892438064694565214e-01 4.753467339433218863e-01 -6.475429902153906347e-01 5.540989968696506951e-01 4.118830515558880578e-01
8.749781596066245892e-02 -2.668558077113785676e-01 -7.201705733653321340e-02 1.751723355494219647e-01 -5.480126821891609934e-01 8.427184044639904892e-01 -6.556751326381166090e-02 -5.916620067554612117e-01 -3.895264453179589359e-01 -6.861126668970761733e-01 -3.595974421700293133e-01 -6.964716777485316923e-01 -6.172070142882208899e-01 -8.688613852585767017e-01 4.270198210010777568e-02 -4.472611665264635827e-01 -8.943263686174177662e-01 -3.113910942140357338e-02 -3.618092472256709269e-01 -2.552291501707853461e-01
-3.350732150694191724e-01 -3.613495769588945250e-01 1.051299053924156790e-01 1.412962544315433666e-01 -8.280989030131467518e-03 -7.812050178878894302e-01 6.744368593885657903e-01 2.617399903342183531e-01 -1.487059885794215497e-01 3.602491663052844739e-01 5.597825438248333896e-01 2.568339258893280186e-01 1.068899100075090536e-01 5.877426464418474689e-02 3.394129019947038639e-01 4.392253354903263296e-01 5.475170271839709946e-01 5.118842000871361986e-01 2.492268986116506213e-01 -2.459961901322587630e-01
1.073266764072497104e+00 3.163063398243283197e-01 -3.890693257454538867e-01 5.654279816786621504e-01 8.231416569236568170e-01 -5.931794014384141889e-01 6.848569073267297691e-01 -2.373637050604881782e-01 -2.511240146544202467e-01 -1.712448089391099132e-02 -3.718803942402555407e-01 -9.504932503141513278e-01 5.610530254583008247e-01 -7.318544718562838280e-01 8.238189576416936610e-01 -2.827146739426919519e-01 7.370512500951049706e-01 -1.527503526527554112e-01 -1.215501533207100637e+00 1.016055010747076492e+00
-5.405169308330505240e-01 5.437176601131542553e-01 2.398371198782152658e-01 1.830361297460354475e-01 -2.079921264713947560e-01 9.690093454060237921e-01 -5.974847306449023732e-01 -5.254020431292262261e-01 -1.120045451948785908e+00 -2.609084910210090480e-01 -7.759659287911524483e-01 3.880764395602728789e-01 -6.802588909583047183e-01 -1.699542384829867692e-01 -1.629721856385953349e-01 1.777842954145797405e-01 -6.578632179975317518e-02 1.048666194342890323e+00 -3.511518687126172211e-02 1.308597461640467578e-02
-6.371351096397760427e-01 -8.506336013174399246e-01 2.315320863341995272e-01 -4.857493824675628846e-01 -8.329956693230248232e-01 -5.030149145427633695e-01 -6.028885931067740761e-02 7.879546539505423164e-01 7.334128650636390079e-01 -1.346173344077522260e-01 9.239620194580473456e-01 3.630406832293494035e-01 2.916737559330895985e-02 2.316655130914647420e-01 -6.602653738588288856e-01 -1.077096659777140586e-01 -1.343989882853633133e-01 -7.971197226042722184e-01 4.902958384599337971e-01 -6.044363902809385403e-01
6.880250690019359405e-01 6.024760160708396706e-01 8.281645792258649497e-01 2.388119363039409582e-01 -5.214066646799760951e-01 8.096585868697571131e-01 5.417559971829593035e-01 6.030317207229548560e-01 9.071697786433220723e-02 -3.777479187756655477e-01 2.965769513064818175e-01 6.418904026025218368e-01 -2.928824953703872969e-01 2.661414048104186400e-02 1.709993493351397442e-01 4.170807789301334556e-01 -9.600581509753022269e-01 5.132000751683220285e-02 4.080255367794288213e-01 4.058436421308272424e-01
-5.257358877397416697e-01 -2.846343051752037168e-01 4.661789447731304881e-01 5.506988214081907085e-01 3.137554565772884274e-01 -7.470971744517101998e-01 -8.062446711050328396e-01 -5.571762659530162809e-01 1.498691844388171934e-01 1.129558409782990935e+00 -2.702931445673652511e-01 -1.735289489867180568e-01 1.002311531473987043e-02 -6.204200997574157439e-01 -2.539757903307726106e-01 -3.428733408656522985e-02 6.519511634737970018e-01 2.228450520857124251e-01 3.593893963449993900e-01 1.489380438593327916e-01
3.789680137863476461e-01 -6.866595457279988102e-01 -4.929979734454867923e-01 -6.031387848966980325e-01 1.146220945400188429e-01 5.809204726375930550e-01 6.507953370646912816e-02 5.082914490317934630e-01 -3.239427373388165110e-01 -6.722788893964382062e-01 -4.139755803674405321e-02 -3.594228642212293212e-01 -4.029487352336296735e-01 5.125007788390448793e-01 3.003734302670454936e-01 3.272521485199388347e-01 5.706384133666345670e-01 1.654269067275568328e-01 -5.424167805514780172e-01 -9.145609854364104840e-02
-5.427619286785619890e-01 6.666484819198903455e-01 -5.122575462911945765e-01 -5.810637487953048685e-01 7.653534799657956134e-01 -1.878539128340882547e-01 4.493215006706439141e-01 1.092456615316255375e+00 -5.687461558694152375e-01 -4.622343129732612299e-01 5.320158666516049406e-01 -4.255630632291951265e-01 -7.357083112661912117e-02 4.844886423598154801e-01 -7.182716033188509819e-01 2.999152872643947032e-01 2.048270270007759297e-01 6.685079275773513352e-01 5.964347552069865221e-01 -5.209814923589057845e-01
5.058668339756126064e-01 8.180725166331972442e-01 -5.986230876010439905e-01 2.374927653515750414e-01 -8.381775422050271596e-01 3.471561240531192971e-01 -4.827106368235758449e-01 -7.457418297191169554e-01 9.273259753936010652e-01 -3.150537156115245097e-01 8.690030337747612910e-01 -5.173761429087662123e-01 9.218171257234296367e-02 6.170170924280864444e-01 4.183192345836986847e-01 4.950272732831281775e-01 -3.941212202097583162e-01 -3.270316641320319406e-01 2.195749028989919527e-01 3.554616046301351528e-01
-7.013943830777402688e-02 -7.813802526959223727e-01 -1.026953905706624731e-01 6.770724426560069675e-01 -2.400814514725932713e-01 -4.165202031986542375e-02 -3.176950410625959398e-01 -6.978468183570811778e-01 -6.635971141115558358e-02 6.662537797740608614e-01 -5.513871569767204717e-01 1.215723892819920327e+00 1.728777274380494389e-01 -3.749589751368221924e-01 4.147328124524286563e-01 -2.089315453940763234e-01 -2.297694376785164860e-01 -4.602975369067259515e-02 -3.174151012963569718e-01 4.900678294214123043e-01
-3.698983214300893274e-01 -8.102950719586327066e-01 -3.235457538128335697e-01 4.162948343496270659e-02 -6.855714667986061162e-02 -2.087998392837733808e-01 -5.114505053283925351e-01 -3.595184945110497798e-01 -2.612084467910390506e-01 -2.176257402744622149e-01 5.093501192436766800e-01 -3.281485505456029350e-01 -2.284190835872655090e-01 7.811850803523570121e-03 -8.474275906651163037e-01 7.987494381769740803e-01 -6.435611563656465917e-01 1.048236251954038911e+00 -1.046358057624505067e+00 4.015225786660492902e-01
6.785506397100422582e-01 3.327505941866387151e-01 9.704285110088185506e-01 4.213675081056717647e-02 1.656282060587930746e-02 -6.097534346715389741e-01 4.302545971647419587e-01 4.426847432252202230e-01 2.570887688321950026e-01 3.831208851190597842e-01 -1.465311658511103399e-01 5.022539725052757031e-01 9.821377283569414640e-01 4.981183693834779214e-01 6.233708576134064927e-01 -1.067387569819837179e+00 3.057931938605499833e-01 -2.658728454531073537e-01 -4.233055184278767258e-01 -5.431785753692704166e-02
1.512356479038688695e-01 8.045687478113600077e-03 1.019723075734606799e-01 -7.046824259956806502e-01 1.380181205414188483e-01 5.075153561690608495e-01 2.930123609656367090e-01 -3.893276370998709490e-01 4.013999035064228504e-01 -1.571943332128045989e-01 -7.902583591847742728e-01 -2.418877013987781877e-01 -4.206867518692452568e-01 -4.923346042149522733e-02 -9.638492539526768987e-03 8.138123280168910734e-01 2.567495329413229874e-02 -6.632781523281469083e-01 7.920631887756938161e-01 -3.917256899862903707e-01
-6.729874287583524628e-02 -3.298498708539134849e-01 2.481384929021795416e-01 6.289675622462618243e-01 -8.828114472741355190e-02 -3.359866410210155530e-01 -1.039219845739995096e-01 -3.972895330289041294e-01 -7.741767154028621201e-02 4.673074274841548803e-01 3.700590817891244999e-01 -2.433142983523239045e-01 2.677617610725193109e-01 6.285687123596856996e-01 -7.033592296422177537e-01 1.991305314145347116e-01 9.289835931940021441e-02 -1.236051129525980383e-02 -2.531869557814038774e-01 7.010666370385461033e-01
6.069141149178213304e-03 2.644360473421365487e-01 -5.107031164736671736e-01 -6.415300830016357203e-01 8.203409268962086331e-01 2.724341703443327600e-01 -1.802651445872623104e-01 8.232436795566320242e-01 -5.617113226960803729e-01 4.687530620262768399e-02 2.345430561621485721e-01 -1.443464184831793895e-01 2.439842897446054815e-01 -1.140930575369746069e+00 6.399846127959802899e-01 4.420645312398806537e-01 1.873942308517728417e-01 6.735820172520290416e-01 5.323341421118327199e-01 -5.540978213381454048e-02
-4.659181433473315592e-01 -4.385743352456726862e-01 1.105800052796552246e-01 4.111393205641437620e-01 -7.597427078991031424e-01 1.806524584901011143e-01 -3.225391708572616228e-02 -6.273220663119438711e-01 -3.660782628487846968e-01 -8.231645412161457953e-01 -7.188972216138447280e-01 -4.319471580513760123e-01 2.931875342831589681e-01 -3.442125285481018038e-02 -2.653293095518163836e-01 -8.216715389289955818e-01 -6.061262876596831134e-03 -4.947806678210035503e-01 3.569257163750065298e-01 -2.352930102613780272e-01
8.694765672372265497e-01 1.010876114870848941e+00 1.746698434080184159e-01 -2.362417793216481099e-01 -6.143038767554210439e-02 -5.413492102722172045e-02 -6.374633351983728380e-01 8.797973132819287834e-01 -4.034540809323084454e-01 5.900517573653018405e-02 -1.935792994555531332e-01 -7.543257689024892576e-01 -3.629701730122413261e-01 1.642948585953451501e-01 -4.567527449192607669e-01 -8.975619069974304365e-01 -8.029530030107400948e-03 -8.784255203431962089e-02 2.412970563351167219e-01 -5.182744171561862734e-01
2.538800438884944999e-01 3.967067848822049547e-01 5.998616653532060639e-01 2.571652770878968264e-01 2.588114238937788136e-01 -5.183766164981827851e-01 -2.087390221020202774e-01 -8.428938632025484434e-01 1.015975350009716394e+00 -5.319614835151553756e-01 3.808179106667085034e-01 8.238042851459924654e-01 -7.477672946754959638e-01 -6.370526084987069293e-01 2.702102943000127544e-01 6.079383287045360129e-01 6.068696395085373396e-01 2.937128208032075416e-01 1.134023727473273679e-01 5.362319167539667530e-01
-7.227354402213482798e-01 -6.430329332164583800e-01 -6.999887472946677569e-01 1.606425210419067107e-01 -7.340747260460739332e-01 8.700454319460454444e-01 9.512419804582213922e-01 2.504393038699894714e-01 -1.004518471507594574e-01 7.431963192405626195e-01 6.047199287493226771e-02 6.256821094478780543e-01 7.229368666097434337e-01 1.874119664449337419e-01 -2.816698918480476932e-01 6.661805222399618254e-01 6.355709637332935813e-01 -3.241820650859933983e-01 -5.493062068363889772e-01 1.275201975542046007e-01
2.250893709397043807e-01 4.596415582680802442e-02 -2.594473052624033174e-02 4.022347363163161771e-01 -3.694923552442210823e-01 -2.069719645513586614e-01 2.158641525175682141e-01 -2.678830528486023099e-01 4.004541338263227224e-01 9.029981485418497877e-01 -2.179254884699153572e-01 6.475431017590355109e-02 4.151000761551920659e-01 -5.668644726631516528e-01 2.152230398538815814e-01 -4.174422852855598776e-01 2.522635609800311096e-01 4.402266195208763833e-01 -6.529136636104789781e-01 -4.250861225683609801e-01
-1.106746187482076094e+00 2.638583785638231594e-01 -5.173364438402953125e-01 6.558403911773582617e-01 -2.909181300310379470e-01 5.858308964654372897e-01 -4.412154612782264729e-01 1.271147128537007398e-01 -1.546838717620735437e-01 -3.800729127971820276e-01 -2.067307364325458308e-01 1.377019550909119872e-01 5.573252252962322961e-01 5.557484992804661017e-01 -1.095406158154360376e+00 3.803152488177567458e-01 3.995443049452869211e-01 3.414577249691315153e-01 -5.703949237302502473e-01 -1.784463701854082374e-01
5.749799360113762026e-01 -1.903600861446586023e-02 4.133779662750567407e-01 -9.188862648234157326e-01 -3.309211942316759858e-01 -6.414403893738043205e-01 4.891881968066936204e-01 1.779748215056047300e-01 1.534804339382817018e-01 -4.823183919851766754e-01 -1.614840372741584706e-01 5.430421431959342460e-01 4.714475769728739829e-01 8.644190787599016490e-01 3.120947786082146624e-01 6.766799311841175113e-01 3.502159081027788057e-01 -1.028221922822254886e+00 8.293853604974043003e-01 4.456553805904241994e-01
3.116442433975350271e-02 1.375884975140065913e-01 -8.649723425132317678e-02 8.919559765146750641e-01 1.044130029054790354e+00 3.871761123326999399e-01 -6.304176116637981719e-01 4.586952862629189442e-01 -2.411372074499160481e-02 -5.281035217231815349e-01 -3.960965944397734084e-01 -2.364321997722797775e-01 -2.178628799033107133e-01 -5.672942365806903260e-03 7.529794964660238010e-01 2.570914252107581871e-03 -4.362499679159078658e-01 -3.708495540214858943e-01 -1.181957501254865317e+00 4.346539975267074002e-02
-3.783937295428148051e-01 -4.912646378872554398e-01 2.934000774630701192e-01 -8.293445186626707821e-01 -7.123652011967696041e-01 -5.936066321350997460e-02 2.332479462138600801e-01 -4.755670500327789374e-01 -5.987317714945780134e-01 1.348784843140649614e-01 -4.278450507532998159e-01 6.254891050209483438e-01 -2.105810926986352305e-01 -2.839619146828551433e-01 -8.386326704939374155e-01 -7.339649756111201739e-01 -5.806848384829600002e-02 7.380926632115727415e-01 3.256829258804352367e-01 -2.457331281420631341e-02
3.217277000521223673e-01 2.236570814273179386e-01 -3.213800916343853564e-01 3.639318504406700849e-02 6.409224033374285590e-01 -4.072637328085139674e-01 1.703141574107753242e-01 5.099596834108935939e-01 3.184011162929098471e-01 2.709323279419972863e-01 4.185523417356471487e-01 -1.236717642755391366e-01 6.142866773421818971e-01 5.222357993163925100e-02 -6.067564740220591224e-01 1.634477551354617531e-01 6.129482711502615144e-01 -2.941227657420344421e-01 4.182310442152324947e-01 -6.130566363546804398e-01
1.271249193619618800e-01 5.032184252705707017e-01 -6.237779531202130023e-01 6.059179758466630705e-01 7.356917957802978636e-01 1.457753211591445330e+00 9.946087704820312236e-01 -6.724808164839473079e-01 -9.456137923508307619e-01 9.922693449546978739e-01 4.960415363683586820e-01 -5.674311455851216435e-01 -1.863012185689041089e-01 4.996035766159871994e-01 3.089323784018184749e-01 -5.732665807492848264e-01 2.196979525028527058e-01 -1.809456162800978374e-01 2.133070723844264216e-01 -2.689318688119863784e-02
-4.172458891698749839e-01 -6.421507329066140635e-01 -1.441068950836905393e-01 -5.437598489682167191e-01 -2.385773236766301486e-01 -4.584633605869272710e-01 -3.961297722896923168e-01 -2.624739224122084602e-01 7.193175265421019038e-01 -5.978820097740361605e-01 5.819102422926166751e-01 3.989194492182905338e-01 -4.620181037177116812e-01 -8.213254492959426445e-01 -3.077190273651965735e-01 4.484889621193889342e-01 -6.363944818773524803e-01 3.689837369458252025e-01 3.640227665749043995e-01 -7.053199911809630851e-02
7.896499997148458405e-01 1.031288388662959798e-01 7.711804245234972210e-01 -8.221855424299022441e-02 -4.344949122950901854e-01 -5.095452825389975571e-01 -7.223130961434700570e-01 6.593953985883698188e-01 7.731517629890851673e-01 -3.614016334836061550e-01 -8.599998545223076496e-01 4.717393184126750932e-02 9.172513386187827189e-01 7.043180851140834475e-01 4.178676683579409246e-01 1.117938063930035142e-01 -6.544196345342598309e-02 -2.371509965981002666e-01 1.342088852611988958e-01 -3.393634244645875042e-01
-7.793054371462748708e-01 9.260128167334126248e-01 4.120443805642742263e-01 1.056460201603234839e-01 -3.690669644476715638e-01 1.210189111415800600e-01 -9.577746682632409803e-01 4.672518386850244565e-01 2.477334978695776846e-01 8.710979957831585518e-02 3.388282715780405185e-01 4.619364272714772124e-01 -4.666676354370067475e-02 4.765948489509415076e-01 3.797835444184141096e-01 -6.830692276749473768e-01 9.346943514669221742e-02 -2.257611205103663421e-01 1.727334672089523293e-01 6.896543568060223839e-01
4.262070199587875696e-01 -4.801428184059490789e-01 -6.899765694711877950e-01 5.441320267290612467e-01 5.656521452553293638e-01 -5.943267502018371659e-03 5.286526226896791636e-01 -1.613407960190628987e-01 -6.982131538710287799e-01 -6.498199523890224594e-02 -4.281438243552699863e-01 2.188249050801082396e-01 -3.625640426215782641e-01 -2.069531777004109674e-01 3.460597666083478630e-02 9.332816287537608335e-02 -3.517118095301106639e-01 -4.738046688480878066e-01 -4.584119905029990227e-01 4.394765743828060733e-02
-2.483693703660984353e-02 -2.527938582613816765e-01 -6.997237404673412042e-01 -5.320553600828479279e-01 -3.790106720696450604e-01 -2.424159060865991797e-02 3.191440125494147129e-01 -4.556517399541655799e-01 6.242882883245535197e-01 -1.413737002342843330e-01 4.914087063547109557e-03 -5.729085240483469121e-01 8.747499897882818898e-01 -6.704310241074029619e-01 -1.649421717746849814e-01 3.789479339411211956e-01 3.431072965795988750e-01 -9.436623053147361051e-02 4.860507788455833283e-02 -9.377611296843296751e-01
-5.318699717749866274e-01 7.105516788228367908e-02 -2.471011562317058097e-01 6.193217738287117857e-01 1.063010603788339781e+00 6.261044128571430223e-01 3.415469928306906489e-02 8.692182806782595694e-01 4.366349391056422169e-01 -4.797007414119580648e-01 4.282627667238999014e-01 -5.731923170982510252e-01 6.689922600106535944e-01 -8.395777184978402419e-01 7.875576161842089418e-01 -4.427404074673924050e-01 -6.530949434280468591e-01 9.505764561776256505e-01 -6.331213968305411388e-01 -1.418464364127252630e-01
3.061797224235551229e-01 -4.243788668724652324e-01 4.238697498031480104e-01 -1.955155867608070197e-01 -6.006280770115769441e-01 -2.710637985804166261e-01 7.994501071787220026e-01 -7.486436297226894965e-01 -6.532808182315870127e-01 4.635175439574447109e-01 -6.630114300753673362e-01 -1.394557511567332819e-01 -6.003692852069891783e-01 9.057297015386195360e-01 -4.594603308814717568e-01 -5.080826717161782691e-01 8.125845053352120928e-01 -5.324637733405727102e-01 -2.756497317769521227e-01 9.754400788809736156e-02
-3.364946246074942277e-02 -2.759268598356713897e-01 3.529425712574532636e-01 -7.133919294983945836e-01 -4.148431569887788828e-01 -4.306748907851319919e-01 -3.919689847427901830e-01 7.686219001125754735e-02 1.661883554371359484e-01 -3.012572782245920289e-01 -2.505383551874671919e-02 8.098178076226908439e-01 2.007412346065472752e-01 -8.048187445495874615e-01 2.840776038908184864e-01 2.211507962189413756e-01 7.936595980798465122e-02 -5.656452292885923994e-01 5.139636137401319971e-01 -1.720252673786945019e-01
-4.116875103625911581e-01 -8.593653354129392463e-01 4.262667431468859514e-01 2.478088612396861234e-01 -6.063845935226880313e-01 -5.308131441673422657e-01 -1.049308049714494928e-01 2.501156211622844738e-01 -5.140802692165619137e-01 -7.102475004610285803e-01 1.080637051880951327e-01 2.864725411554508439e-01 -7.051391529876787079e-01 5.055479815234179553e-01 -2.502530609813765072e-01 -5.514533404278353368e-01 1.490971903665209430e-01 3.371407264128083170e-02 9.310024470810847330e-02 -3.523507012968202234e-01
6.666195105533723186e-01 6.513874631282948746e-01 -7.786525330442378712e-01 1.970300365713827107e-01 -5.408720008877710983e-01 6.078580521303569295e-01 -5.854797477858363353e-01 1.620608034156636179e-01 -1.283090323273759215e-01 5.578865579000965580e-01 2.217233388529019633e-01 4.557421830613805902e-01 2.370824056120308942e-01 -3.072395919237217443e-01 -1.324786255753806763e-01 -5.821368684814723915e-01 -3.116689118446973675e-02 -4.192549248515766158e-01 4.446316818691434802e-01 2.104150566303182313e-01
-7.279278051571571595e-01 4.570803004608877118e-01 -7.356339448721059826e-01 3.450566107980663211e-01 4.204125980730760159e-01 7.152693694027735527e-02 2.508033697048614452e-01 -1.539950262231339073e-01 4.102048909368459784e-01 -2.520947220874389938e-01 2.930394410522401197e-02 -8.617930404231923802e-01 8.402597113591267486e-02 -3.366662660366261939e-01 4.150716760158020824e-01 7.749722785490019694e-01 3.742360148913542184e-01 1.821448930900699537e-01 -9.227573421582034585e-02 3.086775526595729735e-01
5.876697697866019032e-01 3.494065876202878673e-01 3.341316506231373773e-01 -1.142120231213541032e-01 1.374431872601841464e-01 2.561263216316697622e-01 4.744877142904604939e-01 -5.367858838207631433e-02 1.143583278336097075e+00 8.693403575365098446e-01 -6.626437633940462923e-01 5.217820373827907199e-01 1.847805909973503080e-01 6.804471412041995793e-01 3.846448893419380233e-01 -6.128480326433471959e-01 9.564449255630281740e-03 6.375242754223552355e-01 1.661430878331070504e-01 1.078896091453178940e-01
3.558119178386743298e-01 5.145588069485315108e-01 -1.623815381922959211e-01 4.061504166526313520e-01 3.091462073036665981e-01 -1.998962279980713574e-01 -9.548181915286864108e-01 9.892520137833997751e-01 7.576390775063310823e-01 -8.560357431977015930e-01 -6.003399324343663412e-01 8.225812751033115822e-01 -1.001641335939651212e+00 -2.249915958700979268e-01 -7.390872446133783802e-01 5.696530211299206670e-01 -3.906216724934246098e-01 5.132752459795758559e-01 2.852558359575029234e-01 -9.812945310056453430e-02
-1.005585745471996723e-01 -5.211008038878920390e-01 -1.716833248670688039e-01 -3.802199991379672794e-01 -1.283786232025923291e-01 -2.945729424037626942e-01 4.923709420423016403e-01 -5.864733967438384710e-01 -5.548993563999979894e-01 1.404119017332770003e-01 7.275200932826422218e-01 -3.366533564425995273e-01 1.775657984707608786e-02 2.782301159327040807e-01 6.688965411885480217e-01 -5.009661057225057723e-01 -1.003286536221166259e-01 -7.373482899347695296e-01 -1.197178745833273439e+00 -4.084015650139737885e-01
3.574250174331047303e-01 -1.176846204450747058e+00 -5.053369169915584713e-01 -7.364257036387102939e-01 -2.671651408637565339e-01 -7.707978405237145836e-01 -4.995916168797643886e-01 6.337856977045444040e-01 -1.039450102418630006e+00 -4.599627668870977515e-01 -3.762464146182749047e-01 -3.237600066851307745e-01 -3.536479355403461811e-01 3.586593665203214321e-01 -1.593350093461889938e-01 6.274548639191875887e-01 -2.115035853423093970e-01 -8.921490028996291455e-02 5.669078778527979479e-01 -1.566423186043835319e-02
-3.983076777668435042e-01 4.147351024259572361e-01 4.959602131570398087e-01 -1.866688846297275550e-01 5.801708189751734190e-01 -5.758441407299978998e-01 7.029769589927346018e-01 -8.692419062307616962e-01 -1.711488897484892413e-01 -2.744975740278765008e-01 -3.607996736103603608e-01 -2.661723234077418287e-01 1.023613862000403163e+00 4.625207046653322107e-02 6.380052289950833844e-01 -9.728768463377247544e-01 -7.801572439412202131e-01 2.096283500948705469e-01 -5.683765976185680691e-01 -5.481715077426357885e-01
-4.338843228491368054e-01 4.050627910465788295e-01 2.081199043218383005e-01 5.389319502170277776e-01 -3.628593783982007048e-01 8.706468546836483302e-01 -4.565825901627686978e-01 1.746961686682036996e-01 7.949401191127650756e-01 8.651133518827552882e-01 7.590529526504438129e-01 -2.636023512397080437e-01 -3.235542514369707523e-01 -2.851351180507684657e-01 6.681345584597971898e-01 6.773760486501060329e-01 -4.724712416657653180e-01 -1.302207808935656741e-01 1.732769452507157693e-01 1.098229145716248835e-02
3.890804386400838893e-02 3.769723815880244005e-03 5.361584458768320349e-01 -5.759269571955603212e-02 -5.801775545325132954e-01 2.149605388521038940e-01 4.319612028291336947e-01 -3.691728088065252683e-02 -6.608590600341320842e-01 1.482610385034615619e-01 -7.822968260873796043e-01 -6.812214761583367251e-01 -3.635833043845873025e-01 -7.948681530553217689e-01 -2.291818828458737356e-01 5.147961218783472098e-02 2.244495322078763136e-02 -3.416214376637141670e-01 2.011984326399897660e-01 -1.204068544060563350e-01
5.626080835399298596e-01 -7.842689020548212486e-01 4.511258201767911480e-01 -3.031517932457353237e-01 1.277468183279628633e+00 6.005538436384938450e-01 -5.572131780879191476e-01 -2.516400584189317780e-01 -1.676758703682761920e-01 -2.154672751941062447e-01 5.258927739417943448e-01 3.374618377177842077e-01 -7.957013220907439566e-01 4.618547536598603953e-01 6.073646056524368841e-01 -3.587436797838042257e-01 7.002826658205348054e-02 7.687003702774802827e-02 1.422795343511665256e-01 -6.123543775836419734e-01
4.719826961205683680e-01 -5.092119010305478088e-01 -1.097221996511188458e+00 7.359473655517347890e-01 -5.881245384468073434e-01 -8.610584391262552373e-01 7.985504279782626447e-02 1.246668100325759587e-01 2.359756465967660088e-01 1.624997176247972019e-01 6.346982847634411451e-01 -3.461292212515009736e-01 -7.049191590761360038e-01 -6.461822742326724933e-01 -1.653144024072792095e-01 -3.914510120078758953e-02 -8.083004499093623396e-01 1.902857419912880876e-01 2.949750827497817363e-01 9.895498647241083301e-01
-6.485136441742073155e-01 -2.275792495185380571e-01 8.711697135119169655e-01 6.825554981424791778e-01 -1.938047480957981183e-01 6.831930045236981330e-01 -7.166883669072188212e-02 5.036454252214256355e-01 2.879161634353956112e-01 2.491572107989924456e-01 1.040520336946740176e+00 -4.096186434355838513e-01 9.768072328062034071e-01 -6.975293714912729204e-01 9.622379691331930385e-01 1.428035383916835821e-01 -1.430569210199630348e-01 -2.914866737462353252e-01 8.114974658657989059e-02 7.778126997395320430e-01
4.609498264900426245e-01 5.282325364068729545e-01 -7.899431065069200120e-01 -3.813073838739486909e-01 -5.401788974854156988e-01 -4.099398398142873878e-01 -4.104297096612679052e-01 -1.115472812378995648e+00 2.071570996245948315e-01 2.943005226783481643e-01 -4.769425891928266714e-01 -1.212945046212069063e-02 -1.497864998705139006e-01 3.786273044051135517e-01 -1.008610292840674827e+00 4.356706656153556123e-01 -4.444423302538849097e-01 -7.217381553194797128e-01 -2.838826518439856450e-01 4.302242316422431601e-01
4.658377552536315247e-01 2.856531889163250182e-01 3.696664543088683252e-02 -7.140480081528558509e-01 7.562081024022874187e-01 -3.047879733151668269e-01 8.000757617915101871e-01 4.415285939781073976e-01 4.752974554413939845e-02 -2.048948370378319006e-01 -4.730111903897347703e-01 3.878749684329422243e-01 -3.950513372795956268e-01 1.835872542603389779e-01 4.502845042911786111e-01 -1.554338859546647855e-01 2.852437049137198644e-01 1.163903305082978346e+00 6.303329502806013229e-01 -2.355681377219020767e-01
-1.164652954339389229e-01 1.682789765977428520e-01 1.494981598043159353e-02 6.342079962776696334e-02 7.091890718398977111e-02 -4.839744168124873180e-01 1.182472750523645422e-01 2.124089315669304978e-01 -5.254306725137627421e-01 -4.797098085995322309e-02 5.804447584144492023e-01 5.175941745704378816e-01 -1.534883315941310000e-01 -6.897730711527795266e-01 8.103272429996583037e-02 2.640380950613819278e-01 -1.118362437593799774e-01 6.847132304933657432e-01 -4.812302041353703763e-01 -4.809493430279032089e-01
-3.852188531977883135e-01 5.841494509648637035e-01 7.842135305393028721e-01 2.893565018496502272e-01 1.696231969968695352e-01 2.959254520888382478e-01 -4.077574059818199204e-01 -7.877362973068492702e-02 7.184771794899675879e-01 9.143040039577868816e-01 -4.667702118316251897e-02 3.722453514576562483e-01 -8.476539387485799715e-01 1.209575095608255380e+00 -3.069149387348762970e-01 8.769182290464226648e-02 4.456425136762143246e-01 7.130510474457441017e-02 5.401950271967775191e-02 5.397462263392571735e-01
-1.955036780626034365e-01 -6.474323456807213883e-01 -7.299827548815541745e-01 -2.758506393794413203e-01 -4.081379943295502799e-01 -5.603183607717554526e-01 2.928693917744026876e-01 3.135268584802164971e-01 -2.237009359101864714e-01 -5.379726744754488310e-01 -4.844215981828059459e-01 -4.258416904487097865e-01 2.648275819980380752e-01 -4.913981955567922610e-02 -3.729485370838688807e-01 2.018304515493863360e-01 -3.792545035852372681e-01 -3.086598337882903720e-01 1.149450894075950136e-01 2.878404566481556626e-01
3.872690833149128875e-01 4.266378861776925491e-01 -4.089947259093288379e-01 -9.692079560052772047e-01 1.127184046239601278e-01 6.977024952538815605e-02 1.685024619134209978e-01 2.591054498014411789e-01 1.646149411049736000e-01 -2.389310695193188061e-01 4.559731157739098095e-01 -7.763798233211863242e-02 9.077809462569208510e-02 9.462350762169548235e-02 1.318787767606428851e-01 -4.321585999728392302e-01 -5.450625683406639110e-01 4.040255848070186673e-01 -4.958901818054000654e-01 9.563546538542558317e-02
-4.747932710437048898e-01 -5.189562868303223553e-01 2.802540716239726448e-01 -1.494221480922775513e-01 -9.676903112569755772e-01 -8.651733758628772364e-01 5.800339816528606030e-02 -3.860275204298298513e-01 2.486658978649177176e-01 -2.577828169622245480e-01 -1.232161237039843260e-01 -3.807018720231291620e-01 -6.570586091574772691e-01 6.530452751542259460e-01 2.217323890914267015e-01 7.300864443710438634e-01 -2.336704383483298175e-01 4.276706238725059839e-01 4.520247713889377628e-01 -5.274744587267828910e-01
3.510801904614292979e-01 -1.096943724176654422e-01 8.155260331440663535e-01 7.585342477833793007e-01 7.238766804601627358e-01 2.996049242418665215e-01 1.601885109228100013e-01 -5.217140132346231862e-02 -7.049971311463488766e-01 5.102298680651814466e-01 -2.748003934416347049e-01 3.774701879239587554e-01 2.567688443508822638e-01 -2.459935941429794992e-01 -8.497969903985266305e-01 -5.632041196998248678e-01 5.959037249776176770e-01 -1.591544457097648357e-01 1.435651621776349307e-01 3.377239269366701380e-01
-5.821534647911509319e-01 -3.362933298900904755e-01 4.040877801463491625e-01 4.135749699987747996e-01 -7.558453592182083902e-01 -3.504689679693487325e-01 2.537743897345672017e-02 2.450553635450755663e-01 -4.281963133715529501e-01 -4.267169831693010673e-01 2.616591393969784352e-01 -4.888081547587612707e-01 3.553700597604817490e-01 7.699379071792343820e-01 -5.909543537026122895e-01 3.378565702591573294e-01 -5.688486567717450371e-02 -3.480652727513705580e-01 2.997769597194688274e-02 -8.243706747786632150e-01
7.747567492892745711e-02 1.235687196640461671e+00 -6.375292137561321404e-01 3.166887817269894989e-02 7.712292216949843127e-01 9.703857348421522921e-01 7.429951214450066788e-01 -1.608896869123259132e-01 2.456360152941654551e-01 4.125520084803779852e-01 -5.253765343434079194e-01 -2.434350191128004381e-01 3.281364492311810155e-01 1.298124832072507229e-02 -5.698396158152787550e-01 1.551549368581439658e-01 -3.267647654308285521e-01 7.110357005549774456e-01 -9.141602153659192376e-02 4.130767844894178142e-01
1.093015207660926968e+00 -4.024758017639735175e-01 5.607127930460154008e-01 -3.214666009295009119e-01 3.527018133489075447e-01 -6.757208437183257477e-01 -7.835634621762269658e-01 -1.054320525263254815e-01 -1.101703786553361042e-02 4.320669093538801464e-01 -4.129283464080721333e-01 6.536202295101657678e-02 -1.066942779386444995e+00 -4.155003811260645774e-01 -2.905213141220536199e-01 2.894067910811041755e-01 6.762749889399619629e-01 -6.130859374941952655e-01 3.441833103276769612e-01 6.166430392862627397e-01
2.106390947529199753e-01 -9.797855251358136841e-02 8.796346575015464575e-01 5.473665983853703842e-01 5.367273674861454680e-01 1.120069403953306564e-01 8.668897850249734915e-02 1.423865870317794491e-01 1.093717394909615281e+00 -5.296803932915850055e-01 -5.261260550446454909e-01 6.484752656669283688e-01 -4.255041880843742769e-03 -7.550326041346949735e-01 3.687111666546521449e-01 5.311370386840325031e-01 -8.203871095542981662e-01 -7.755636582113925037e-01 -6.138886242826850637e-02 2.617892546719380875e-01
-2.945909655545178030e-01 3.145181551678425391e-01 -5.081062901047482816e-01 2.192793553206678122e-03 3.719675229258996296e-01 6.645405304938930557e-01 -4.794179304984431678e-01 1.464550797220424104e-02 -2.853864129417588713e-01 5.333278651770265860e-02 2.035217508207162740e-01 -6.441446578056870820e-01 5.654375226448521419e-01 9.061917698831297718e-01 6.874453061434884216e-01 -5.101297580558988159e-02 -7.790085653055301984e-01 6.891017325441219921e-01 -7.768926154779988158e-01 -1.344654367252119120e-01
3.422490087647338530e-01 -2.710148973240796844e-01 6.304518798350008391e-01 -1.156012596509988999e+00 4.112026520558853537e-01 -7.873007214485133742e-01 6.792397775222974721e-01 -4.608697830099938164e-01 -5.012690472890087845e-01 1.112851012850490928e+00 2.438613534711501774e-01 3.392979497038546288e-01 -5.043011046066384617e-01 -1.657569947953839717e-01 -8.746757633182167258e-01 -3.835398191457631834e-01 8.214838673885153097e-01 3.879990869792439012e-01 8.080841230305199074e-01 -3.201830066700342425e-01
-4.535332774714376236e-01 -1.164402599305018604e-01 -3.415680598313707850e-01 -2.995637426008871187e-02 7.182372463290747078e-01 -3.285721475918553791e-01 -7.689392400346597989e-02 -1.045259374605849390e+00 -3.729975427870315108e-01 -2.293661241480787760e-01 3.703456074153093636e-01 -4.990536279005482467e-01 -3.544833371034662728e-02 -4.582402576914989534e-01 -2.790116620131083969e-01 1.027329233417873855e+00 7.266246391182550335e-01 -2.307061390639080778e-01 5.382491341958278719e-01 -2.361388335897049162e-01
1.683053640127309958e-01 1.470087648972026040e-01 -1.185995900746004278e-01 3.919722846532576743e-01 -7.636189890892250975e-01 6.827950008446622698e-01 -6.724676082336299432e-01 6.660606885106896691e-01 -1.641066817722442450e-01 2.747561037052150268e-01 7.391602445882339278e-01 2.700589495620887570e-01 1.283522028866788123e-01 -2.253258946642847371e-01 -1.837885132793259935e-01 -6.579222821381611741e-01 -2.884153322163678368e-01 -3.436338874524379281e-03 -4.563008020659027886e-01 4.139609735952817227e-01
-4.937900050474633429e-01 -5.294510200543195433e-02 6.787653958143499144e-01 -4.653834752372037475e-01 -4.427189542555676205e-01 -2.027063834770207740e-01 8.789377810086594911e-01 9.494670910790556015e-03 -7.011715673379400604e-01 -2.094425800179832708e-01 -3.548849215755129349e-01 -5.961929329472022143e-01 5.692909711212349455e-01 2.646555685476314687e-02 1.863159563664402163e-01 4.748313222534036315e-01 4.434857519614626015e-02 -4.125394885921964128e-01 4.942025730628394897e-01 -3.897639899954388754e-02
2.504101357266041439e-01 6.844011529249290071e-02 -8.495143061663592565e-01 3.547513329730181408e-01 -1.266911936099506530e-01 2.562905556283409658e-02 4.245575983649278462e-01 -9.220474248569954234e-01 -9.500170916275387789e-01 -5.238803108705433198e-01 -2.793466756433432563e-01 5.676383366391907215e-01 -2.328683997707168274e-01 4.080160368577724350e-01 -2.434513458365721861e-01 -4.657151168241528416e-01 1.468563408274465437e-02 -1.612973161762272234e-01 4.985175636968035562e-01 1.115305737595668090e+00
2.782847617179992072e-01 -7.742800629921353650e-01 -1.187420807819813823e-01 8.370494334803441072e-02 -1.424031643272593295e-01 -2.729415967623043948e-01 3.291455640296092056e-01 3.712650688614536620e-01 7.246323301332622258e-01 5.443071939872253795e-01 2.065025013532347520e-01 6.245243200851841037e-01 1.421263832167729002e-01 -3.499398739492051158e-01 -3.790957759237902347e-01 1.222201139096914663e-01 7.904703783508972847e-01 6.679314203833361940e-01 -6.823784790405462708e-01 1.571827145651271684e-01
1.096723804814471875e-01 6.411830614755997804e-01 7.336287105120675722e-01 1.175166279156462934e-01 6.220114308682110904e-01 6.137482822216097089e-01 -5.554721583554252939e-01 5.510431806057023429e-01 3.976319825973038680e-01 -4.090968086276027815e-01 -2.417703816573870401e-01 -6.267473835397235904e-01 -2.834497538557251284e-01 4.600155323716113853e-02 -6.611821810855310622e-01 -3.866091326856310739e-01 3.949556860971570327e-01 -3.079913935582381801e-01 1.885707966826423998e-01 -6.273022244312153051e-01
-3.572103884049733225e-01 7.379448685427782151e-02 2.531037033071928399e-01 3.231059134558499357e-01 3.115869814479930167e-01 -4.004707099525670055e-01 1.173518837836692308e+00 5.296863121968024002e-01 9.615678319819588593e-02 -3.452829522012068608e-01 8.901679447249741806e-01 7.904609967840965645e-02 5.898661578919854875e-01 -4.395247480683755481e-01 2.233284611372141071e-01 -7.184463820871224149e-01 3.940204215221406181e-01 9.476360499620935240e-02 -5.574352182242310327e-01 8.942204765639835129e-01
-8.253800614856070528e-01 8.805581128469237573e-01 2.019644713997602870e-01 -2.960899301994210919e-01 3.706401245327211047e-01 9.740728184934277500e-02 -6.542216266371856381e-01 -1.739189278900065971e-01 -3.391747176569973599e-01 -5.552404772538339639e-01 -4.001431587632321984e-01 5.022716173839488762e-01 5.889034359448064304e-01 3.031453581593290258e-01 3.985758356656699530e-01 4.851861811128189705e-01 7.616420928382262590e-01 -2.275360606354056014e-01 2.659719147109401716e-01 -6.891106452940042315e-01
-7.692084968447182591e-02 7.067491703430746064e-01 -2.981626513840486825e-01 -4.865785520562907474e-01 -7.560185319283102556e-02 4.873872084095854373e-01 -6.366849109140804153e-01 -2.801692070508050580e-01 8.270231962727092601e-01 7.942540579120602739e-01 -5.918761944099877326e-01 1.000383927950612289e-01 5.575956507826498321e-01 8.598534030146010032e-01 -5.148335392766025809e-01 4.693619262993794505e-01 -8.092530615163701091e-01 5.562475509535169671e-01 -2.863022971405498884e-01 -5.405089525334930700e-01
-4.457502956090595436e-01 -2.647736180549677409e-01 3.304482196905920155e-01 2.425857762257660477e-01 -3.691828198242763093e-01 5.947341206095135835e-01 -5.623995450926669998e-02 -1.874011886726213161e-01 -5.859273693505069325e-01 -3.633100894334953535e-01 6.886263644059712474e-01 -3.801967479912002346e-01 -4.492792957641097984e-01 2.696594274062533714e-01 -5.429744364056223738e-01 -1.722287683708045580e-01 -7.400738675609228601e-01 5.371921990658874713e-02 2.067907866540356354e-01 -6.611391665499422032e-01
1.897561607478723544e-01 -6.660625666772775899e-01 -1.077091575854639410e-01 1.278441100353923110e-01 -4.192786599761741395e-01 3.362125960148393822e-01 -4.852244264441601396e-01 4.940885806208034081e-01 -2.318524023579040250e-01 2.687169551768557318e-01 -6.222080289481986617e-03 -4.961602840407934312e-01 -2.862907732568976613e-02 5.172025305838423570e-01 2.702670395494032873e-01 3.144711685221208142e-01 1.061613000700149800e-01 1.978928002957246468e-01 -7.663799518565019842e-01 2.951652083817061234e-01
1.687419288636491099e-01 2.791362977196729100e-01 -1.883945113493568357e-01 2.263987650187999079e-01 -2.590087236430657636e-01 -8.630084866754699213e-01 1.203222297059437645e-01 -2.245564771963837469e-01 3.108359733050078955e-01 -2.928752637727531360e-01 -5.632175419063035759e-01 7.413652940801995772e-01 -3.276912276464777896e-01 -3.017244868765266430e-01 4.657098614303389894e-02 -3.530872495784457832e-01 9.832271929366445118e-01 -4.566895120314007905e-01 3.328947547031603227e-01 -6.783238793693815438e-01
-6.117441403277689149e-01 -2.117772651889523183e-01 -7.814998447081923372e-01 -2.906584058301874829e-01 9.548282129097225290e-01 7.711651659855331409e-02 9.066192071288206589e-02 2.641454121900351781e-01 9.871238882851544050e-01 -7.154079717330550370e-01 3.032892569817967621e-01 6.681684978549372600e-01 6.271393607181934005e-02 -5.874677823664763432e-01 2.427266654668939205e-01 -4.244358708680844861e-01 4.136753948393085967e-01 -9.233928725860125475e-01 -9.491110711493999652e-01 -2.448558392340126899e-01
9.316810468479129748e-01 8.166753584452794978e-01 5.941029485062360171e-01 -6.367778820508689375e-01 -4.733440341177718169e-01 7.947051500987489803e-02 -1.389806010325136121e-01 -3.366183030669878118e-01 -6.671238698921156951e-01 2.798015740099487059e-01 -1.152781770701529984e+00 -4.205112820638219895e-01 4.205652281044964802e-01 -7.994693283597388289e-01 -2.604346067725007430e-01 -9.618364994379595412e-02 4.218055929303790030e-01 -7.228501373353590775e-01 6.120649942993354742e-01 2.457115773782471424e-01
2.648988865462466591e-01 -6.790741673662790134e-01 -1.384446739825584693e-01 7.506673233674594492e-01 -3.610451531683196436e-01 6.447124975090287036e-01 1.748018794166594503e-01 -3.635548736611328158e-01 -6.405753476167989069e-01 -1.948452292649617557e-02 6.118997559454046886e-01 -5.848394685560885931e-01 4.252562170118103779e-01 3.122765333091719331e-01 4.894669377909572905e-01 -1.950801673933395541e-01 -3.459791048126812374e-01 9.401842356427942970e-01 3.881749293916885168e-01 -1.895639884744479697e-01
-2.504316005127421030e-01 3.358704793884656481e-01 -5.226664759072963129e-01 5.692356552901943756e-01 8.571518577372152503e-01 -4.466674334364934551e-01 -7.902245302971031560e-01 1.361630618454741197e-02 4.333013698195249952e-01 6.870953759780740189e-01 1.870737750118909026e-01 -2.601479930831493426e-01 -7.118018475786377364e-01 -2.355622900928832641e-01 8.869175596069422962e-02 8.955791228183633823e-01 1.568823664597403522e-01 3.816731597775684937e-01 -6.224671954863180146e-01 -3.903085354935392770e-01
6.662607439706029755e-01 -4.215247561790564368e-01 -5.701117384000244925e-01 -6.568217308772094087e-01 -6.137377573492448501e-01 4.364335979322438441e-01 1.739515899267295440e-01 -8.462584968872105540e-02 -3.595020432708607161e-01 -8.804523976548137565e-01 -9.130117457622458632e-01 -5.964941433702751761e-01 9.905201167148603991e-01 4.125747516991400410e-01 -3.838063622431707733e-01 -4.969130775878385364e-01 -8.420281470874985130e-01 4.640189939104932132e-02 3.314781036415689330e-01 3.624825871825017032e-01
-4.465160894740894948e-01 4.275989358339248869e-01 8.344270028590070609e-01 5.092378484604843658e-01 2.356451540275622258e-01 4.963372601273222107e-01 2.567585996954203642e-01 2.505768854740862972e-01 3.318415280331322159e-01 9.815671034805696638e-02 7.929717407107149674e-01 8.053583118418080611e-01 -2.342930980701637689e-01 -4.420344793424485497e-01 6.888495262092505511e-01 -2.173892294399739494e-02 8.012128042642562287e-01 -5.870884884338450904e-01 2.598711058624555426e-01 3.398364804202554934e-01
-3.449414343710590636e-01 -7.994567343024086004e-01 7.031783008304783034e-02 4.226434091288471806e-01 -5.948623599636952974e-01 -6.297719862614113984e-01 7.439058306268444554e-01 -1.097190914696840047e-01 1.968690404114455672e-01 1.472145031714851005e-01 6.792385956285356130e-01 7.681202475381387895e-02 -6.207371039983488048e-01 4.190011932922090704e-02 9.674742843441921369e-01 -5.318816755358279913e-01 2.468754555743975232e-02 -1.175242429002901906e-01 -2.747956972019209299e-01 2.534036218352399561e-01
-2.759835749894422596e-01 -7.348839644737941157e-01 -9.902973276674389425e-01 1.908982164339063647e-01 7.676843315789019795e-02 -1.734678347455533010e-01 -9.125967311244067570e-01 3.112261775384856377e-01 3.350435109457452348e-02 -3.281130788152548661e-01 3.167606845626855794e-01 4.046742195271787468e-01 3.156198614629630167e-02 -2.629276837919707899e-01 -1.491327430071694715e-01 -3.464468641671697990e-01 -8.248376906511868389e-01 5.016295049168488784e-01 2.336710244628619759e-01 -9.227028808124682069e-01
-8.670443721145469629e-02 1.007466791834927600e+00 1.632185143695777108e-01 -5.101894313646831991e-01 -1.764313554396393022e-02 1.035364357807069036e+00 -9.002390014760633385e-02 -2.579870393408967844e-01 1.915879097054911384e-01 -1.868466507472913429e-01 -4.406983695104566695e-02 4.896275086392501974e-01 7.610280511001153991e-01 1.113803726735047572e-01 6.619599631207431223e-01 3.795903159002261273e-01 1.485003592063778577e-01 -6.851553461839833548e-02 1.376027175260064461e-01 5.147886653630933118e-01
3.506589906377515220e-01 3.098794422233273060e-01 -3.686222079268319796e-01 6.889572864531532392e-01 -5.325377744823062143e-01 -9.332131108450661405e-02 5.863274116708722117e-01 2.505176787171422559e-01 4.989879400304025880e-02 -2.456367749823393787e-01 8.210511012821429810e-01 -3.398833684597197813e-01 -1.308735227124831202e-02 -8.966565595646046605e-01 1.386599885328526072e-01 -2.853915030853648033e-02 -6.060815329996339235e-02 5.320648498900595325e-01 5.822796292682668184e-01 1.206313212518852707e+00
-9.438553738787190950e-01 8.050423849656690445e-01 -3.368329122894953009e-01 2.537470812421852573e-01 -6.491275669543923599e-02 8.976474621374436191e-01 -1.534967052001170451e-01 -1.453114718008357009e-01 3.376486195817556824e-01 -1.550231491904434100e-01 -8.934160869343449329e-01 -3.566951179858419696e-01 5.232249390092000851e-01 4.496485379107122982e-01 6.043121712495147513e-01 -7.552958846044053320e-01 3.626247452333336563e-01 -4.958122527308748972e-02 -4.340064167874910228e-01 -4.586653732205928646e-01
5.395358269375963856e-01 -1.112119385040897246e+00 -1.027888782981326889e-02 -5.840316254531554563e-01 -6.023769086644700232e-01 -9.224420107274545755e-01 -5.035496585231352684e-01 -3.065189775777378903e-02 -6.349781676601495839e-01 -2.671256944407831013e-01 -1.042262178500184683e-01 1.982169133190617161e-01 -4.495581230761608316e-01 3.837305478834928674e-01 -1.087781707313934865e+00 6.902102816434376731e-01 5.413078050438229205e-01 -8.647043335321957791e-01 -3.216384665486939354e-01 -5.921986158285179602e-01
-2.355243166299047231e-01 5.753018483018296214e-01 6.879874420267325652e-01 8.916951331123353563e-04 4.909162618988753279e-01 -1.028042511892798549e-01 -5.661362709810150440e-01 4.245775645201690374e-01 9.461037010120721957e-01 1.667535676450249971e-01 -1.494048767461237381e-01 -9.313523510792705018e-01 2.235321639827162477e-01 -2.860741950105613052e-01 2.748446255148132567e-01 3.888176240824196134e-02 -5.368328862624357489e-01 -2.061254953618787966e-01 -5.085520813531011486e-01 -2.440911317288634308e-01
9.448955384236499278e-01 4.989366907640278154e-02 -5.784575816881852850e-01 5.440781336278819325e-01 -6.609519545923412398e-01 -2.251421390096150499e-01 4.718590686596993433e-01 1.945890781618236087e-01 -4.166080137918287130e-01 7.350404890105346478e-01 1.609658459324552204e-01 8.343614191521664392e-01 -3.198472077136944036e-01 5.312518880471427396e-01 -6.204379887532655014e-01 6.249779571838374181e-01 -2.527497574311133310e-01 2.685367774206823266e-01 -3.416186168248897537e-01 -9.626390943257343014e-02
-3.426886542968612392e-01 -6.232316847318432051e-01 -2.017952442805970581e-01 -4.269358685622240968e-01 4.113170190946938143e-01 2.555903524358333900e-01 1.137150380720150337e-02 -4.662971632035550762e-01 -1.271058688761962374e-01 -9.249916092873247120e-01 -3.795555451665880708e-01 4.089621974254192827e-01 -1.615245673428518103e-01 5.260554247870918854e-03 4.281533172530695985e-01 -1.043254003697653642e+00 5.729280151600336657e-01 2.471212554517444038e-01 6.516602210431942099e-01 3.053560006633431745e-01
1.040348002929440407e-01 1.918551659567384604e-01 -6.202847122995062135e-01 6.883314817276217079e-01 6.265196956717011822e-02 5.016619908084953838e-01 8.515217068748029972e-01 -2.278414222240000286e-01 4.080210582987671697e-01 1.339979059602066092e-01 7.111670897155500937e-01 1.911473202387234671e-01 1.716873862779277338e-01 6.653537168309796579e-01 -9.653363427105485228e-02 3.795828745526568793e-01 -1.149173083763620207e-02 -1.902415296106996223e-02 -5.983445279475398115e-02 -1.440250388933558556e-01
3.868671113448188259e-01 -1.058911876295704491e-01 -1.100289573984470359e-01 -6.213587239029511045e-01 -3.952470730650246011e-01 -5.665859884963571069e-01 -2.133341096347810550e-01 -2.923496124535333029e-01 -6.279713463950897800e-01 3.007980791662426268e-01 -3.719582701118273049e-01 -1.115582372400628491e-01 3.662731324837724678e-01 -4.373083058004664792e-01 7.153556956709498094e-01 1.031750824739983002e-01 -6.324018494033537552e-01 3.859469512710368422e-01 1.261305668089386656e-01 5.653543075298551185e-02
-6.973554303292068823e-01 4.736927932872415231e-02 8.443040676011627221e-01 -3.247228328291928423e-01 1.064597118884778593e-01 -3.675071755845230742e-02 -7.567748978270415483e-01 5.364483084182328776e-01 1.599993936450082865e-01 -3.202806504834359580e-01 -1.904154614014291480e-01 -2.105728121091102467e-01 -3.864641169620700589e-01 -2.791061002441020400e-01 -6.821407425099945687e-02 -5.245635132208914531e-02 1.891711134697330043e-01 -4.331368299451729964e-01 -1.730988771115949676e-01 -2.717570183414535490e-01
-6.765944253314612467e-02 7.922003178849239546e-01 6.109937291132720993e-01 7.540468313082707708e-01 3.767270201385486961e-01 -8.054357794169257900e-01 4.493230911786042503e-01 8.341933322785850813e-02 -3.809671738966126098e-01 5.664467426753114904e-03 -1.063668904310758112e+00 2.047018407184977018e-01 -8.771367463191556135e-01 -5.484649696552941212e-01 3.965866454598823143e-01 4.769854567769608589e-01 8.480545824637011343e-01 3.585646835175806402e-01 2.659267205277329738e-03 -4.658555761942452245e-01
4.564877098414958922e-01 -5.532773567226740852e-01 -6.896426801868735801e-01 -7.683602965717165612e-01 -1.129923035003202347e+00 2.864971720203687289e-01 -4.393361833305718944e-01 -1.818252058464761012e-01 6.981208360587050354e-02 -6.198819234605441181e-02 1.898390550656688380e-01 4.168994634003807542e-01 -5.159668276175429780e-01 9.224523545633960264e-01 -9.596523922074242652e-01 -2.132459577435091014e-01 -3.194956645529219430e-01 -6.919453379413528227e-01 6.335184285928560644e-02 6.639409694882038027e-01
2.936158087462056310e-01 -9.777840825786883183e-01 4.292038724701110336e-02 2.590664074575410036e-01 3.341896815471128712e-01 4.825991117503274364e-01 -7.391191010131791320e-03 3.854910789231796864e-02 4.278711997128153283e-02 6.439126142048841317e-03 8.802896525066684630e-01 -8.734286649505508260e-01 6.878708940767753743e-01 -6.542575711767919522e-01 4.812903865345123933e-01 -2.877539856434435106e-01 -5.605686113239998214e-01 1.549168383903197777e-01 1.779186721373955671e-01 -7.946827439520652570e-02
-4.298480653858141043e-01 2.723488235232451316e-01 6.663925081326921296e-01 -5.461160226392399730e-01 4.424767943908740064e-01 1.347751900631418420e-01 4.685313035494201861e-01 1.540955768534607306e-01 -4.741069689096500950e-01 4.257055365584656026e-01 -8.256400484559518471e-01 3.302602944957407916e-01 3.078267697425603466e-01 -7.844417548182485156e-01 -5.610260448163776337e-01 -4.971885583643058104e-01 -7.154658960202089357e-01 8.129322732384496319e-01 -5.287322471659847700e-01 -3.734300529811566682e-01
1.559952579667065742e-01 -4.342625636349783241e-02 -2.994113006564053103e-01 -5.192452900349856515e-01 4.737387629700596237e-01 3.936401429409500108e-01 5.781488422910358201e-03 -1.120464919567788070e-01 2.982311938730449752e-01 -7.016412733771215660e-01 1.662760047767589400e-01 -4.083737886266544138e-03 3.058663232083596584e-01 7.651024012481640046e-02 -3.161678968080753882e-01 3.029273806003753289e-01 4.551273745825692441e-01 3.795459496720193227e-01 1.213316995887492727e-01 3.871132107443305270e-01
3.285785456502238189e-01 1.265775702576210360e-01 -4.311021574969279291e-01 8.305341906548074915e-01 -3.476612382623018305e-01 -5.230607353354609357e-01 -3.607026806554567422e-01 -4.484438748974620137e-02 3.899449354297592762e-01 4.401371685977180648e-01 6.076207060164933171e-01 -1.981139058831394573e-01 -2.112338142388821560e-01 4.484159336189619260e-01 9.341672460294964120e-01 2.378519449117916240e-01 1.469571347561565156e-01 -1.061129887219313117e+00 5.234985491601271690e-01 3.798422736879952244e-01
1.164049208610437453e-01 9.373337262336386422e-01 2.148601152199762498e-01 -7.762090254075306728e-01 -3.046215337621605013e-01 -7.853112088885129127e-01 -3.897739067850754940e-02 5.189321890304993135e-01 -2.674029347270559520e-01 -9.970991677920079677e-02 5.800813718457331625e-01 3.366936505670273805e-01 2.774646094138005226e-01 2.715749842318360696e-01 -1.312326165722189630e-01 -5.475121807534224505e-01 7.935275478460768195e-01 7.929466237209334412e-02 1.306113858462576438e-01 -6.329834118087231953e-01
9.951241867756153991e-02 -5.351585092480958261e-01 1.497330812877706030e-01 5.573638452191049808e-01 -1.742216136308601671e-01 7.184585289873687275e-01 -2.584478742589116362e-01 -2.251323828719270503e-01 9.382845145905406581e-02 2.094384958183692913e-01 -1.438182840125475648e-01 5.125571368093702063e-01 -1.845701364572298331e-01 9.226042942235601618e-02 -5.457085128019617537e-01 -4.689094875839661808e-02 -8.242637050131729204e-01 5.069976401967573043e-01 -6.565217011504572708e-01 -2.074500277888261662e-02
-3.863288762541990384e-01 -3.530839452068365025e-01 -2.452293596966789446e-01 3.144328117603530370e-01 4.039435741931187707e-01 -2.328286972333112048e-01 1.758002440494676466e-01 -1.409777040914519941e-01 3.498503555444684721e-01 1.740825278499894685e-03 -2.306832038244648053e-01 -7.087486902314237280e-01 -5.628269517692466861e-01 2.143408941290494418e-01 4.449037132440527564e-01 8.843127397795753630e-01 -2.041763821600293682e-01 -2.164074157237864393e-01 5.423636652824074256e-01 6.959300316122838392e-01
-3.767116073887306071e-01 4.033609114617964231e-01 -1.297159989648521139e-01 -6.937968631246809181e-01 5.128752489690854288e-01 5.260536612549413515e-01 5.282632443217821772e-01 -4.207158330416430614e-01 -6.554815362783759092e-01 3.273957302577421569e-01 -3.242399890906854654e-01 8.524278412034502761e-01 6.498567651463213468e-02 1.448438570426118510e-01 1.233984760508342743e-01 -9.123450024289954385e-02 1.378684038285253599e-01 -1.778918821907702896e-01 -9.270056313462464725e-01 -7.931739531419830236e-01
-4.219167550582181847e-01 -6.096306797917785958e-02 -1.113383823922790006e-01 -7.821808514354081088e-02 -3.967587505741175802e-01 -1.988581787472852025e-01 -9.167615289023302028e-01 7.838676588159337877e-01 4.874528557060266998e-01 -3.536278358337220373e-01 5.645369292476384304e-01 -4.997893113604615078e-02 2.046523261302962970e-01 -7.206238793269560405e-01 -3.189990342588484851e-02 4.330724094713073874e-02 -3.074999450991839356e-01 1.541313338663618526e-01 4.916288624458015066e-01 5.677401596337723344e-01
7.722584302887981478e-01 -4.805080086764391689e-01 2.092786335493336536e-01 6.055738298741668579e-01 -3.999651963211318106e-01 -4.850678975378042712e-01 5.564585896914223673e-01 -4.652844264159188281e-01 -2.094301930493302696e-02 4.313020450780911258e-02 -2.905674707767373355e-01 -7.178250159203527492e-01 -3.001947822938973442e-01 6.271422472496891443e-01 -3.110895696485794226e-01 -1.786210355818143580e-01 1.018560337753717931e-01 -8.094605018394495505e-03 5.036028120375111161e-01 1.038799392841555785e-01
3.837251213632257296e-01 -1.853296765424646275e-01 1.596163803133041903e-01 1.359624538509423830e-01 6.423974367184992484e-01 -1.029951560202392757e+00 1.407170436202666020e-01 9.968694478035733386e-01 4.574294055624273381e-01 -8.565790636731247520e-01 -3.281975616477064706e-01 -3.289075163768178101e-01 8.999948518882309179e-01 -6.291896198978159660e-01 -6.658452070378183540e-01 -1.123783751606296066e+00 3.831996370080604786e-01 -2.343624277210324403e-01 5.715380011293982321e-01 -3.094576984660982188e-01
-8.551737599604640749e-01 -6.578299176919915059e-01 -3.835530832081943120e-01 -4.176339508665631306e-01 -1.125417074805768580e+00 5.159331627638533702e-01 4.702402790768911434e-01 -6.163610521611795345e-01 6.130553266171120397e-01 1.774270836949749242e-01 2.463531152070580210e-01 5.031186645675422842e-01 -8.125001500188308023e-01 9.298731775908273267e-01 -9.682837265252303149e-02 4.194391474275406262e-01 -2.243932245181148311e-01 -6.800558355174193270e-01 -7.533621822596192619e-01 1.352945373623427594e-01
7.776933121734801446e-01 1.048211827075984148e+00 6.086496902409614940e-01 2.280006426023693800e-01 7.585186360581428477e-01 4.106554360333400933e-01 -4.411723719428553014e-01 -4.473991874938385571e-01 -1.237987678364470767e+00 7.743542393169042803e-01 -3.347239302575967801e-01 -6.173047976971653972e-01 -1.517628536426559871e-01 -3.366757645808528543e-01 4.683457885026532513e-02 8.320663523118790872e-01 1.902445992993588297e-01 7.247534480430781745e-01 1.252666164924826631e-01 2.285801549635763097e-01
1.178580948064543304e-01 -1.855676142946499629e-01 3.672057419496297381e-01 2.542079874614900509e-02 -6.476095000768968823e-01 -4.604687348686942183e-01 -5.147999407860723298e-02 -3.284284776792618099e-01 4.080665022763277361e-02 2.468894830031499454e-01 3.367383827913484895e-01 3.262478666985424991e-01 3.380374023750742918e-01 -7.481237950915514689e-02 1.530045356909472409e-01 1.123148905201625664e-01 4.191322473010693495e-01 1.546417393445485844e-01 2.918625214728681194e-01 7.644154502287098252e-01
-3.656599653475511164e-02 8.802034476185323086e-01 4.751775147378914932e-01 7.551399805343181337e-02 4.862668049671133308e-01 6.147742938320770872e-02 -5.772476677916549281e-01 4.542840072811917262e-01 -1.625646883024866041e-01 6.109100301861358773e-02 1.578873825621784077e-01 6.246547267620751187e-01 -4.332900881070816945e-01 1.524321312565547759e-01 -1.724662152967814110e-01 3.235269700876503007e-01 -6.146621854715178523e-01 -3.461606747314149857e-01 -4.736097888696406133e-01 2.658692581451395642e-01
-1.210720204872888089e-01 -6.589674209753020317e-01 -6.342826857639711768e-01 -1.962704023047699142e-01 6.402870912870757270e-01 4.703554898491884018e-01 5.725427691645863515e-01 -2.658397338761668283e-01 2.802739867756079972e-01 -4.335610855355268023e-02 -3.858981639297017763e-01 -7.179674877078231487e-01 -1.587498064338969950e-02 -6.956563793638770310e-02 1.325922186255207857e-01 -4.469303578117628239e-01 -1.894925198580190429e-01 3.162170009631739553e-01 2.859845997597197376e-01 -1.111759593715241135e+00
