-4.936941308563123632e-01 2.466796918199698485e-01 -7.087232712995477080e-01 -3.008720581004813988e-01 -5.629160138377597294e-02 -5.397351824728785497e-01 2.796965338561585579e-01 2.752556716625977895e-01 -4.036209331216091267e-01 5.801209324641987131e-01 8.548704479014075652e-02 -1.237691500680487486e-02 -8.626877579353284808e-01 -5.398063354735543884e-01 -6.824239691226909876e-01 -3.472895822480069339e-01 -4.791431701555122769e-01 -1.955529358671053430e-01 -3.894861867618560902e-01 -3.587331613897932758e-01 -7.450516331066917575e-01 -1.015149946472483633e-01 -4.661234032441365360e-01 2.036744839542001528e-01 3.277476292860002638e-01 -3.100673812771276294e-01 -6.667991045061371080e-01 -9.795911151920259907e-02 -4.107760939270620471e-01 -5.189892850103360322e-01 1.691183562717648858e-01 -6.113656737572257249e-01 -1.145159692470891222e-01 -2.820641744609568291e-01 -5.231971179996146581e-01 3.166652395468600445e-01 -4.496455865792223228e-01 -1.170779079003711365e+00 1.970364037888459319e-01 -4.587029269462017389e-01 1.919320156643644082e-01 -7.344980831403432608e-01 -4.019666690776362850e-01 -8.436476475660729113e-01 3.367411957079736312e-02 9.885508868392430329e-04 -1.777751027327575117e-01 -6.761013003193553361e-01 5.154051086196108633e-01 1.158921691454146835e-01 -4.779936921084397272e-01 1.362627790484580992e-01 3.141752059734026492e-01 6.356845024344288664e-01 -1.499635022463113032e-01 3.479323285284870448e-01 -1.292208455007289036e-01 -8.529301877310202507e-02 2.921455623576791338e-01 1.075214879507775667e-01 -4.117137720148626445e-01 2.715750195724953020e-01 -4.452759746779730854e-01 -5.943649748290923407e-01 -4.339534969919972007e-01 2.596942003900174489e-01 -1.272314613334347144e-01 -5.481759694596568533e-01 2.683477327846252591e-01 -8.502695223872980268e-01 -2.861247528011555685e-01 -5.897157085773114815e-01 8.027829376784825222e-01 2.132683506157469489e-01 2.529535525521105499e-01 -6.590068246762209592e-01 -7.749763805905013347e-01 6.430027723888812607e-01 -4.673044579398007436e-01 -4.116414762868592647e-01 6.663611199492786019e-01 -4.543711516953397034e-01 -6.435813361943718558e-01 -5.268581886189660501e-01 7.941741915653183215e-01 -8.677749175304341200e-01 -4.353212306653135300e-01 2.070472700439668079e-01 -2.779929730212771233e-01 7.569168513715582303e-02 -3.399843126738986698e-01 2.877012468118277932e-01 -6.937849333200870813e-03 -8.081335823028120702e-01 1.504592301593463410e-01 -1.139974290524360251e-01 1.048632703906783037e-01 1.085679269542125791e-01 -2.569310567345642338e-01 3.224268255844435216e-01 1.826881176458509393e-01 -3.425722826766570694e-01 3.536125931799724009e-01 -5.873988791107267460e-01 8.558980939199738458e-01 4.398779488962168555e-02 -5.015894829173769276e-01 2.855237399197376180e-01 1.257687613834722329e-01 -1.733120490227851584e-01 6.580454152776179511e-01 -2.022253838875161247e-01 6.009104806077915084e-01 2.763516763422078637e-01 -2.843566214356699762e-01 1.905716407170839621e-01 2.849411689831556505e-03 -5.990730998020982190e-01 1.302053755506634158e-01 -3.395599832557468778e-01 6.006656757275724567e-01 2.327349900275863803e-01 -5.443431857141429325e-02 4.914382187509913624e-01 1.427872155324658998e-01 3.913396832484820204e-02 7.380589668318215946e-02 2.669770804706775302e-01 5.974738533341575897e-01 -1.598272796348364222e-01 6.083295020096933792e-01 5.992537465533396279e-01 -3.235552432696057190e-01 -1.757969061910892028e-01 3.851385178515581015e-02 4.369887515176125725e-01 -3.856461389076232954e-02 3.160932829085810192e-01 -5.354781124724012908e-01 1.542193977303794594e-01 6.879055891880199169e-01 4.946801676074578102e-01 -1.499637302577234155e-01 2.745997367546555989e-01 -2.071437147802394907e-01 -1.410454141475916967e-01 -1.851717165960997669e-01 5.655681165062778071e-01 5.890889542847984606e-01 3.247430067815842425e-01 6.688772704994093432e-02 -4.319297457980204036e-01 9.189666578359573235e-02 -5.115114422361908275e-01 1.306909732510987965e-01 3.240786414461202525e-01 -7.623241839110377061e-02 4.848883183697190180e-01 -1.549905790779642079e-01 -3.665752441163615954e-02 3.754679483574503429e-01 -2.243835641908479839e-01 -2.052725760407085320e-01 -4.438307041731051061e-01 -2.019933699908535996e-01 1.624185499371994246e-01 -5.587087984495930915e-01 8.844588099650323165e-02 3.483411658380561882e-01 7.920557839514462684e-01 1.526139741702333408e-01 3.659540638071477336e-01 4.329495477715928353e-01 -2.262508914596455811e-01 6.900919836554275655e-01 8.725617996175298874e-01 7.368973471614933546e-01 1.177127177883040450e-02 4.639152738652657648e-01 8.450775345387997461e-01 1.483900955622201312e-01 4.476876722327624569e-02 3.608587797257962748e-01 -4.089612212418571868e-01 -3.423286564897888851e-01 4.050467524584139278e-01 4.289076209727606948e-01 -3.994238674270226275e-01 1.949035760829797292e-01 -2.144362722980464042e-01 -3.381398051285884332e-01 -2.723857216690391270e-01
7.334785303265317635e-01 4.249386729759479508e-01 3.316454043431699694e-01 7.523827167184186926e-02 -9.198595641702692061e-02 -5.343686638871246973e-03 -3.944794289508916640e-01 7.360315335468252673e-01 5.822215136018208392e-01 -9.122071645587286060e-02 -4.104024367642491455e-01 8.967105050503916264e-01 -1.382708068849340388e-01 2.870894732560414497e-01 7.339961523139919564e-01 6.805389805146405680e-01 -4.778984578143558593e-01 -5.293752129153632691e-01 4.563024206238130431e-01 1.334862757111622555e-01 5.099462541130236337e-01 2.196504364174342583e-01 -4.005225786201554450e-01 7.888535088794107475e-02 3.646655462149046567e-01 6.621236625883776261e-01 -3.895358802071392512e-01 6.144681698309392148e-01 5.821041162207484243e-01 5.769696476630034043e-01 2.494046995084958362e-01 5.602673519684469028e-01 8.503185123900572906e-01 7.277515376676049197e-01 4.979718759199667222e-01 3.200587241470543298e-01 -5.500310047008238890e-01 -3.529849347421838979e-01 5.920198608851005018e-01 1.763588419482423064e-01 -5.777771084934392176e-01 8.121472038269592075e-02 1.776769199297275892e-01 -6.390832401026448339e-01 4.689407815190730910e-01 -5.193458949873654973e-01 3.752721627417637817e-01 -3.519654193421031807e-01 3.557459847845115264e-02 2.165803785714966526e-02 -4.023466912781279992e-01 -6.194641059848544906e-02 3.322655471117276216e-01 8.904883573819070142e-01 -2.203719738848501086e-01 -3.626129455396766010e-01 -4.028964089267552534e-02 -3.835778339425803540e-02 2.261451417682851517e-01 4.375120273765111673e-02 6.946459530165896568e-02 -2.344059951026448430e-01 5.160327701775372367e-01 4.778325507589005205e-01 2.915864927363275849e-01 2.114624401012922539e-01 2.294538993201501731e-01 -5.581076154864734740e-01 3.252343007795562846e-01 5.601175808737922646e-01 4.264129573961563668e-01 4.556459517389884195e-01 -9.840670792456823746e-02 5.601965484197953815e-01 5.690789515216259087e-01 -3.555227651812189471e-01 -3.995893279386606989e-01 -1.232159613472822574e-01 6.215287567533207547e-01 -3.175621864344190248e-01 -5.163672968160282206e-01 2.695455986769442203e-01 -2.258486485601228777e-01 -4.834641948416393276e-01 4.705015483013521571e-01 3.968096190519571076e-01 -3.778691881964479915e-01 6.167646234340383726e-01 -1.124577161057960240e-02 -2.978752450894263104e-01 4.251397020909270519e-01 6.078175819528619517e-01 -3.784133134590432768e-01 -2.722178496513121826e-01 6.139914266322425984e-01 3.895297299822194637e-01 1.211353335382072127e-01 4.519669701327321265e-01 -6.107313616261595551e-02 7.594995488339731926e-01 1.245952482318131160e-01 -2.212964951144356096e-01 1.932127722678680104e-01 8.193721016812656466e-02 1.601599676709072884e-02 1.064991086327228276e-01 -1.643214925025221762e-01 1.778557515374182552e-01 8.253910477343854302e-01 -2.897235192168888807e-01 1.685491501021223471e-01 3.960373965118202944e-01 -5.578819211079759643e-01 -4.191419917522553606e-01 -2.900255045616123017e-01 -4.719901150454083871e-01 -5.929669570238355059e-01 -7.178505756199904386e-01 5.255947749975775629e-01 2.475093930521028718e-01 5.758946759451821773e-01 2.422010058478864525e-01 -4.239450407916989932e-02 -6.342398223123495438e-01 5.030947703860561004e-01 7.003562196149792918e-01 2.792355014715701689e-01 -4.243662676732956052e-01 -1.971200517335711944e-01 5.310086300116177993e-01 8.298857480239412165e-01 5.621134937997019909e-01 3.339385596616251117e-01 8.746193998850918527e-01 -8.263746424354365128e-02 4.140471919505636089e-01 -4.901343252474970602e-01 9.944628995940914262e-02 -8.309343040190536600e-01 5.081542860334723466e-01 -6.175959602347166344e-01 -1.315703549042638310e-01 1.125589194168201135e-01 -9.197369323832947641e-02 -1.598154816049192628e-01 3.210569528591170063e-01 9.650410080565230420e-02 1.991657338490135931e-01 -1.960560877937660706e-01 7.033232998630609689e-01 2.183155160802456307e-01 3.413785634780542866e-01 5.453001641087008577e-01 1.459947983455878451e-01 -2.165544361782432981e-02 2.764798083010436835e-01 5.836838696726610876e-02 9.168791671711231661e-01 -2.686096953398357523e-01 5.761020855019520770e-01 2.586842115212056314e-01 8.293668516279988356e-01 -6.952832873283014692e-01 -9.428045095033035228e-01 4.745495033481287872e-01 2.853950604775817856e-01 5.490054625521224585e-01 -8.295847777400709999e-01 7.483192140962379169e-01 2.301060432314033233e-01 -2.213025810338234145e-01 2.307879319967779674e-01 5.078573613218997224e-02 1.857596080476348888e-01 2.665960473981133783e-01 -2.546339489509522047e-01 -5.159425580448055992e-01 7.228592472854500350e-01 3.316059137349089969e-01 4.360035380904389024e-01 1.975166529458977638e-01 -5.875383461046089772e-01 -5.145395272518410446e-01 5.346039954337473699e-01 1.802110796125026004e-01 -6.710804402017041259e-02 -2.365394551895470820e-01 -3.149301549016003121e-01 6.978894096046652784e-01 1.089196454696828992e-01 7.862154536783291237e-01 -1.743224564868066373e-01
-2.205285415757960721e-01 -1.688534243076948993e-01 6.590795638925698308e-01 3.282804766156152687e-01 2.103699987633825264e-01 -2.148208475087124564e-02 -4.191176689517722154e-01 -2.381889883691539755e-01 -1.667580848717391262e-01 -8.391423841720507815e-01 1.043996290408662556e-02 4.241633014278725078e-01 4.128673507062559089e-01 -2.078622794811584851e-01 2.949272626690520038e-01 -4.712215757504906732e-01 -6.233927509788617094e-01 -8.914002305802010140e-01 2.755033793920431615e-02 -3.991270420693023846e-01 6.196637582690502910e-01 -3.052851118257371432e-02 -3.111602325800214008e-01 -6.504783079276549307e-01 5.144889860509889168e-01 -8.934081143567147720e-02 3.349122752010070814e-01 7.509269322873655117e-01 -6.994114189242435498e-02 1.297823018459649258e-01 -2.966153039174023731e-01 1.651476533721909223e-01 4.406165517061412240e-01 -7.237733630903026016e-01 -8.324965039031455571e-01 -5.190464364934544994e-01 -5.382254938927812926e-01 3.124013387057957836e-01 -1.625651795147256828e-01 -6.569238113966906489e-01 -5.049994851040049415e-01 -2.551887677737698645e-01 1.132176669259716550e-01 -3.223344800574514113e-01 -1.935354708884202690e-01 -5.712183265525683229e-01 1.514365499658994751e-01 1.589783722555478396e-01 2.933034312215163641e-01 3.473976186091279894e-01 -5.221837313812844883e-01 2.055283450106100973e-01 1.829527204883542035e-01 3.347434284850100972e-01 -2.502401441565142437e-01 -7.707666302158003857e-01 -1.764261895241079139e-02 2.701297645743339637e-01 -6.792416530192822710e-02 -6.475068631533915653e-01 -4.174102059683941768e-01 4.426057110828204855e-01 -3.062102046300522740e-01 -3.314295928220932219e-01 -7.568388282749602958e-01 -6.083915428539071746e-01 3.624887510498863569e-02 1.961802455386416622e-01 1.664336434447210300e-01 -2.353717097128132929e-02 -1.441225915742186670e-01 -6.447164671805037939e-01 -5.059976799009291426e-01 6.651299341081859939e-01 -2.226755028225336497e-01 -6.399014646584962884e-01 6.416279355124869799e-01 2.634784316213514832e-01 2.097790633593304283e-02 5.810535158027368974e-01 -5.350000075388821053e-01 -9.839027394353334899e-02 -1.889048053295306895e-01 -1.416315814000110584e-01 -4.425846794652256166e-01 2.290456736951047567e-01 2.955655922731874607e-01 5.186826175635217417e-01 7.163916678606359334e-02 -5.224266361669014369e-01 -8.354955580178422547e-01 -5.529622055662540836e-01 -4.173571934556943308e-01 -7.801469922342266772e-01 1.987060023505377304e-01 3.241384366651381410e-02 6.483726181886956264e-02 -3.628452815094552197e-01 1.968037355825098811e-01 2.249697305517325552e-01 9.292504127125508218e-01 -1.752225592020773600e-03 -1.288559957317031990e-01 -3.251798297620410727e-01 3.312944000300335201e-01 -4.307374093578975605e-01 -1.481599983508744278e-01 -5.689240766858044696e-01 -6.592640222822649942e-01 -2.975561703940273195e-01 1.483869120606780556e-01 1.579056342805752189e-01 -8.502693830282729293e-01 -7.217902675318977890e-01 -2.895759823406924283e-01 1.116461639229607977e-01 2.074842384297883313e-01 1.801641188959633710e-01 -4.216670194428837060e-01 -3.405052496901904147e-01 9.152184077612719459e-01 5.595940031299393436e-01 1.072351486557619055e-01 -3.062074202179398408e-01 3.655157617586429208e-01 6.369388384834685501e-01 5.054784050737780587e-01 4.417276310451220822e-01 -4.687996508604183599e-01 5.143361310771620287e-01 -6.061578191853281838e-01 -2.346898228103837247e-02 -6.237874305282659071e-01 3.234076975714153535e-01 -9.299020054133267932e-01 -3.830435990665582713e-01 1.881307289787035320e-01 3.490078783257848927e-01 2.238762101148342454e-01 -1.472042952357869583e-01 4.152017919082677810e-01 6.140776361201250033e-01 -6.529270546219536620e-01 5.927465285394332289e-02 1.365420621865977291e-01 2.753241924650881578e-01 7.460561972688650734e-01 -2.919793436150090460e-01 4.553891003161794626e-02 6.526280358649504398e-01 5.059875572035479330e-01 5.812927318918544861e-01 2.193540674412365610e-01 2.157841816791004896e-01 -1.308774395878759267e-01 1.401153899270528580e-01 -5.537116623788470582e-01 3.410265842490320387e-02 -4.726006122100039342e-01 -4.377901201903663941e-01 -4.560004899842216575e-01 7.868321861177172138e-01 2.208507491649716048e-01 -5.934070815495930962e-01 4.340954346034906486e-01 -6.132402807638851483e-01 -4.614547595140196523e-01 -7.955165640383997649e-01 4.584435513395418993e-01 -4.239982546815153075e-01 1.721290619695874935e-01 -3.191195962783982543e-01 -3.741889672610684281e-01 4.629777778864317406e-01 5.072199532301446823e-01 -2.166970392999828798e-01 -1.592776401757469568e-02 1.791698518483218483e-01 -1.316594781874967091e-01 -1.455673683210411129e-01 -4.397669269923273339e-01 -3.847290929927196235e-01 -4.212771974127139107e-01 -6.001504357506205478e-01 -4.157248928203240990e-01 -3.384780025553647542e-01 -1.326299413085458819e-03 4.874954685933407389e-02 7.542019289459804543e-02 1.259762763335919578e-01 1.139010157280490459e-01 -4.708498911258907627e-01
2.383241936245745485e-01 -2.743212200759279629e-01 1.526279583880510264e-02 3.649019688693948549e-01 1.088760253971452208e-01 5.361078229054736521e-01 -8.193113796541238170e-01 9.228066874864833125e-01 5.388475687728966346e-02 3.125546422565114169e-01 6.864761926821010274e-01 2.251213793331348356e-02 -3.238421733939989555e-01 2.801247989441638664e-01 -3.930489225858413982e-01 1.814702116965156153e-01 1.629189662212758849e-01 -5.714200506728728257e-01 6.953129535614764878e-01 4.140370449276309373e-01 -7.338672697849650817e-01 -4.035439853886606532e-01 5.822949119608185065e-01 4.774120263830924915e-01 6.972405255037773808e-02 6.907026881937288199e-01 -6.866345872326699018e-01 1.512199891031411059e-01 2.569516398664968837e-01 -7.305042937015154836e-01 8.841424001270152544e-02 4.552404973063708948e-01 -3.689240335453488062e-01 2.581259952520625900e-01 8.639666609624144789e-01 -1.930491348976864224e-03 1.998776942050403335e-02 4.799418245769622171e-01 2.881094590891638552e-01 7.670699235603321009e-01 -5.249085378532770685e-01 -2.175659647605490410e-01 2.868288652677494222e-01 3.271881403350639927e-01 -4.230581671032723756e-01 6.455420228264364679e-01 -4.590545480835236392e-01 4.859443868774545594e-01 5.754349757856193071e-01 -6.351231833346974165e-01 5.727411330073637341e-01 -4.750071431295800339e-01 1.069911699854408038e+00 1.480754176042692327e-01 9.806630640894128392e-01 8.223269287720489373e-01 1.377725465894532320e-01 5.472704872666802611e-01 1.815051094486585248e-01 -1.303295825934795982e-01 2.030079131541618342e-01 -4.432602329959234311e-01 6.994819061591337483e-01 -3.604062010284836415e-02 2.487539507074802980e-01 -6.488681685438944802e-02 1.825649445950918229e-02 -3.480712788951307868e-01 3.793146577010469978e-01 2.380755525266133876e-01 -7.282132398095730874e-01 8.857571069489430515e-01 -8.880990963821511208e-02 1.941032487908506132e-02 -8.394492936824419216e-01 3.790353550608629996e-01 5.773614452964508370e-01 2.537774785750300244e-01 -2.420007296725746465e-02 8.210276761286313674e-01 1.078257334267586076e-01 1.930299138336972753e-01 5.390951486119465175e-01 4.144505630110665861e-01 1.187847809490935491e+00 3.195349780650307281e-01 -7.591540303952167001e-02 3.857987663406525214e-01 7.859540109841883782e-01 -1.829213873005262891e-02 -3.764780133631725478e-01 1.996833470193732085e-01 6.578123422355164340e-01 4.624194036721165219e-02 1.100494710993857594e-01 -6.896359089186970825e-01 3.572326179165802862e-01 -5.625938785439489331e-01 1.633887955200146727e-03 2.309032920165356162e-01 2.525034103692618825e-01 6.318272052650617532e-01 5.103881194572007507e-01 4.193487777252354332e-01 -7.568528903915885397e-01 1.083274475501157630e+00 -5.104022711168557658e-01 2.108079314349579625e-01 6.400447655349196241e-01 -7.149088655756556943e-01 -2.851034646354816959e-01 2.549127739979268337e-01 6.807168997708912261e-01 -2.254423543909455097e-01 9.926560917011711949e-01 1.536088167406824134e-01 -4.486299655074622583e-01 3.715952587344314439e-01 4.500539543931768027e-01 6.619050835783716336e-01 -2.467981692235105551e-01 -3.171466013795951611e-01 -1.422424892468688307e-01 -4.580530078353124979e-01 1.053746551728544090e-01 6.723165542551517992e-01 2.979494858056664364e-01 6.077752450041488952e-02 8.176412193755927538e-01 1.250331073006117011e+00 -6.803917833633808809e-02 -3.020551567658239511e-01 -2.186856119159343581e-01 -1.992418885182471039e-02 -3.948147392967146230e-01 -5.689537284882446588e-01 -2.837459494998956777e-01 6.928911221702813705e-01 3.205621434498676647e-01 1.829010770759269267e-01 -1.223172331106706784e-01 5.471946220806488403e-01 4.275193888098493544e-01 -6.753364007098094923e-01 -1.422214477630807591e-02 5.524664763704748571e-01 -1.452879648499693088e-01 6.227035858059856710e-02 1.124618653304046284e-01 5.890242326585985039e-02 7.343458847578201443e-01 -2.240131726925916889e-01 -1.732620078036694877e-01 5.593493598287071489e-01 7.562577481787970957e-01 2.207845267077395424e-01 -1.858843689427429891e-01 -4.755939929935021349e-01 6.367118512865563851e-01 5.981441979534488640e-01 -3.215168545238867859e-01 5.359751083134534078e-01 4.553043689656218196e-01 -2.239827443307895044e-02 -4.232174385841646624e-01 5.329806197441377957e-01 2.267940188241673316e-01 -5.918916702478591585e-01 5.060764050377302148e-01 5.332266129770173446e-01 -1.537053233273628361e-01 3.434205211028398264e-01 -4.961851948842762594e-01 -3.047014910590696846e-01 4.256462550858635674e-01 -5.861823768054732486e-01 6.056678101746136855e-01 -2.646105351148973495e-01 -4.405120246214964119e-01 6.510678933927941392e-01 -8.483066572488133783e-01 3.130010771413528348e-01 1.924445679035033385e-01 -5.145698422767057689e-01 -1.093175042008951159e-01 3.845577372988708831e-01 1.777446870431619863e-01 -1.837640419481892939e-01 4.069888125246752808e-01 -3.164932786204719892e-03 4.108354546672352003e-02 -4.925345843952480540e-02
-4.543227711527660362e-01 6.089224400790890224e-01 -3.442498380127702595e-01 6.580066459853058936e-01 -1.287524654972438953e-01 5.167785162145934752e-01 -2.704384008822467711e-02 8.753762058134233470e-01 -1.303736278419947436e-01 -1.138460802484892037e-01 3.058360522907785373e-01 -3.715375189578846160e-01 -6.048149630486804318e-01 -1.555820282299376078e-01 1.574509901025173131e-01 -1.439345644647622158e-01 5.002553982613531236e-01 -2.036016768809932320e-01 -6.205290863123047451e-01 6.273864201634179460e-01 -3.381610071420507735e-01 -1.057293278561107913e-01 -3.651653070807772683e-01 5.739230397649870419e-01 7.255996915768687661e-01 8.957277833552541590e-01 7.101133912021638794e-01 3.921691484993566346e-01 5.378995743444411337e-01 -3.106127773257443339e-02 7.797233910040504146e-01 3.956962263239537092e-02 -2.121575774791812918e-01 4.135664738011278763e-01 8.410692537150323833e-01 4.648034934306846111e-01 -3.533138915506967570e-01 -5.619135684419165194e-02 -1.786282290642595971e-01 -1.611390836824555806e-01 4.342430030185961409e-01 -7.424829769942075108e-01 2.447466325793494768e-01 -8.496933068565513426e-04 -6.437701024518442949e-01 -8.032849071215139580e-02 -6.133798254290541083e-03 -2.917772347727501381e-01 7.688292562096888938e-01 -8.394524518543310110e-02 9.498906185155957249e-02 -7.599743110832213322e-02 -1.709150721402016015e-01 5.397144212797981844e-01 5.069738197579075345e-02 5.984201562268010033e-01 6.000128035633549572e-01 -1.308751828014412533e-01 3.660162719568512690e-01 -5.784787017175213597e-01 5.291563290247180973e-01 2.217606497634008744e-01 -4.685151369580633496e-01 -2.885253750295351804e-01 3.449818198591124707e-01 4.856936285550699645e-02 -1.889839537935300295e-01 -3.864412422716454604e-02 7.138641049928043936e-01 -9.132684642999769342e-02 7.191291016460434893e-01 3.485369473699300724e-01 3.643983647993261910e-01 4.600747731125943291e-02 3.114482246603905713e-01 6.672257172805472480e-01 1.297163540029719064e-01 -2.255140098661718717e-01 -1.624629573761147971e-01 -1.612252001396272394e-01 6.527600658259348210e-01 -6.108923889692222664e-01 -7.948192178339447134e-01 -4.198972506450945885e-01 2.388817258114820929e-01 -1.828573163302180671e-01 -7.909577722813020406e-01 -5.673672552787422108e-01 -8.800427450936788853e-02 -1.704728530454970026e-01 5.330193150734432450e-01 -5.299628343458373525e-01 -6.673811905587136162e-02 3.004992056417675195e-01 3.502972789384471430e-01 4.559591898470524707e-01 6.725503168414319333e-02 7.312928545169803396e-01 -4.797861315012563743e-01 1.183320563964535416e-01 2.088300427952395899e-01 -3.576215574267585517e-01 -6.589282337554688285e-01 -6.463965383287628708e-01 -8.229315103517954588e-01 2.365127599354409638e-01 -8.467170481475045918e-01 6.947403543556504579e-02 4.507753750700426720e-01 -5.204498484356935295e-01 -6.352509494760504305e-01 -5.524061189960476348e-01 1.301005070986935852e-01 -5.990258897831537421e-01 6.575865392330918491e-01 -4.288692430931568822e-01 -4.022497722466246706e-01 -5.027514267716164109e-02 2.204092152652686043e-01 5.308278063484130893e-01 3.541796825821851291e-01 4.029620450182921365e-01 -1.333914683240340626e-01 -1.353377825403012658e-01 2.238252715685749294e-01 -8.445841670827905490e-02 -8.284210661945062837e-01 6.929181300572425650e-01 -7.482254043505940366e-01 -7.613008408700785434e-01 -9.613146480586780562e-01 5.680270593252786937e-02 -3.599963222442610911e-01 -1.606761234119717108e-01 -8.333714824843648783e-01 1.309954181010628341e-02 -7.932119368404951798e-01 5.746717251705439899e-01 -5.893428636140939370e-01 6.371242439621584985e-01 3.079613854726636069e-01 6.091225258722846592e-01 6.457389865254234973e-01 7.509336513776575517e-01 3.446756277257336798e-01 -4.338699830620780240e-01 -5.673143563381645160e-01 -7.089466342639191843e-02 -1.995828217669109658e-02 4.338615489632083322e-01 -1.993339891244522433e-01 -8.604728275410054861e-02 -1.928034786960005353e-01 -6.851233006687493798e-01 -7.111973294069459106e-01 -6.810642914508315826e-01 1.939277750366397712e-01 -6.814496019011399008e-01 -3.762571848920614470e-01 6.283971299202414373e-01 -4.387024544223112610e-01 1.820454554560331784e-01 -4.122997154877446890e-01 2.281038890816337594e-01 4.540668060346062657e-02 -4.398256495109415520e-01 -1.747495958119145432e-01 -5.329902192028549424e-01 2.651254016916769207e-01 -1.375230060685348754e-01 3.844831389702777491e-01 1.716615801552347775e-01 -3.159442021916469834e-01 -5.153049837079775458e-02 1.570707387278822698e-01 -7.044100582740060457e-01 2.262987685450459918e-01 1.833306834923986162e-01 2.652260605644661262e-01 -3.002856458192452171e-01 -3.071422774153220181e-01 -3.027254279281187815e-02 1.091291150691701406e-01 1.730490321874890158e-01 -5.093478473433249443e-01 -4.037637011968245315e-01 4.832408331418945879e-01 -6.282454793305063401e-01 8.107058589710858243e-01 -6.267583161015137794e-01 1.344519570323895463e-01 3.351393272969284687e-01
-6.860008079589995367e-01 -1.026364552770731686e+00 -6.185990152570058909e-01 -4.730115180758390769e-01 -8.081530880140538331e-01 -7.741339240921084608e-01 -8.042670940017935255e-01 1.807920227243381417e-01 4.031450673587405054e-01 -8.282080568555394429e-01 1.439903160705812979e-01 -1.763659181980783974e-01 5.875049596076770651e-03 -5.938982016242145834e-01 -3.832709907771815472e-02 8.407266816317224278e-02 4.980102045930508980e-01 -8.155432495874851417e-01 -5.172402453158593261e-01 -2.632122310531249676e-01 -1.789627912795780929e-01 -3.081091486277884872e-01 -4.263086404346171920e-01 -1.665514315086238928e-01 -5.899229720668253130e-01 -5.187512585035342072e-01 -7.709670917201140172e-01 -1.217188735870323724e-01 3.293785324608553555e-01 -3.270528382879493434e-01 3.465202406472048940e-02 5.194630980948634624e-01 5.744045218321389146e-02 -3.989210224241040437e-01 5.195721673031321597e-01 -2.462652781383252998e-01 -6.724766278282555687e-01 4.987338116884040828e-01 -4.696811430497301321e-01 2.825020386148717200e-01 1.629390128729558962e-01 -2.692992617084983831e-01 2.068702888301968967e-01 -6.561822489848996576e-02 -2.577687002224114399e-01 -5.485481379663509349e-01 -1.249243391204577086e-01 1.590659817461109781e-03 -6.480377806531686380e-01 -3.748009578906721373e-01 -5.431081169746331261e-01 -9.960158380124043420e-01 -6.582371149850748671e-01 -2.829182393292915543e-01 3.415046446271087777e-01 -7.916124731865959996e-01 -1.657002816599728243e-02 3.637012027030974148e-01 -4.526753993244267971e-01 -7.057664130427275806e-01 -7.514560649698580341e-02 -3.396424246763318222e-01 -8.433141496960958050e-02 -2.146833866401205715e-02 -2.272484733054400963e-01 8.380920632629201839e-02 6.012443449305920895e-01 -1.258137750203901228e-01 1.146966249070653990e-02 8.910248050404862008e-01 -3.173102383204007837e-01 4.172995354798590961e-01 -1.112596645562618392e+00 -4.268042748807405751e-01 -6.892269810156705923e-01 -2.011546864856664056e-03 1.234575394808018131e-02 -9.839640292018345669e-01 -4.546280975597077889e-02 4.782221568366039344e-02 7.558287133677882297e-02 -9.160553136069199409e-02 2.261661886061735738e-01 -4.938518232339276781e-01 -4.075750178389317413e-01 6.427211189286393678e-01 -4.983665994918980990e-01 6.412349875515516162e-01 -3.370216283021496562e-01 3.125866821980319288e-01 3.816412454794460563e-01 3.047861912314646093e-01 2.132950995659984861e-01 -9.492632827636895976e-02 5.164872527313968398e-02 4.442626401402394176e-01 -7.416624460617365910e-01 -2.752843555046437518e-01 -2.415840945936671980e-01 -5.165543302078031696e-01 -7.904480180990327565e-01 -3.182465394531342612e-02 -4.033264045667094289e-01 3.587884379139909541e-01 -4.204838732940625601e-01 2.733104188823927694e-01 -3.787630396580144443e-01 -4.087140925714788930e-01 6.413574334171115998e-01 -5.681504692315351157e-01 -1.892587423265747193e-01 1.210263388285588992e-01 -6.419352961116601974e-02 -1.764304546069394297e-01 6.475562044952294372e-01 -2.443616124832982406e-01 -1.448988256415588705e-01 -2.429155030565083029e-01 1.232342657527733393e-01 1.523018688595250969e-01 -3.120616141610591532e-01 -4.588758046711697292e-01 -5.373922505195882771e-01 -6.881178493580543121e-01 -9.110666544099397385e-03 2.009182508233877118e-01 9.284685019010055496e-02 2.649392494654202457e-01 -9.435601863126994449e-01 5.360718888062548926e-01 -4.351246776985898679e-01 -7.478088679126582150e-02 -1.358020654502584135e-01 1.112700099827481498e-01 -3.026229043335089686e-01 -4.783669388833604319e-02 -4.376657426634807391e-01 2.643353034396162538e-01 2.540711023260995224e-02 5.458868151850775341e-01 -7.576945625354699621e-01 1.130569291368886398e-01 4.257227102551835451e-01 -8.418655079291572640e-01 -2.318292338891759785e-01 4.430603812440884332e-02 5.318317997711996536e-02 9.959103733977071882e-02 -3.619075035449199618e-01 5.416393205321362592e-01 2.622097410771797588e-01 9.755813922774254632e-01 6.750729009952790571e-01 5.970549116695232916e-01 2.579449434402318886e-01 -2.014530784331007573e-01 4.003343256913523551e-01 3.872340898577886215e-01 6.877691322211746394e-01 4.545425408298795628e-02 5.601129929600026092e-01 7.279543094785163593e-01 -3.862154853495209927e-01 -1.865068911054077946e-02 8.825088280981113753e-01 -3.556270030847609176e-01 6.968023609297738785e-01 -8.092995818589675538e-01 9.950382022864313891e-02 -3.066756464787300240e-01 1.773139767732673788e-01 5.625220405230692000e-01 1.475246030795335575e-02 4.148686744001093829e-01 8.986257477787951142e-02 -1.138449435139643751e-01 3.756733239556602211e-01 3.837404208538330863e-01 2.673525351192404531e-01 -2.772301335522743826e-01 -1.842329363005278386e-01 4.300114994263250501e-01 -2.265633702410793995e-03 7.598577275069866577e-01 5.027734916304759522e-02 -1.674258224844992204e-01 -2.896317732723352467e-01 1.561298567630419465e-01 5.014780607545609170e-01 -2.679813440218645204e-01 2.958206104820070292e-01 3.039227556091669835e-01
4.381055129668258719e-01 -4.294307100889491191e-01 -6.568138665975965518e-01 7.081646325151744747e-01 1.931678553933119935e-01 -3.135516106214364940e-01 3.121929348059225839e-01 5.897202568343506979e-01 -3.167361247952847902e-01 7.931803442058756037e-02 4.564892017960827664e-01 3.327025904571694892e-01 2.834430885078477735e-01 -5.879746936580740879e-01 1.778352452068068107e-02 3.826980766419043611e-01 4.307448902706370597e-01 -5.428624151688301591e-01 3.975162735591932783e-01 -5.977125110417668141e-01 4.505576295066685555e-01 -6.852797192437658502e-01 -5.312782358919883041e-01 4.829946826259517989e-01 2.363973209070703574e-01 -3.718078121288063698e-01 1.259962324308963599e-01 4.289911562173536197e-01 5.302751247280343971e-01 1.639403126957270640e-01 2.712320575404594258e-01 1.691048858624207840e-01 -5.575441644093700466e-01 -3.974181645445457600e-01 -1.055501278411488386e-01 6.578243864552324460e-01 1.433110772286288470e-01 -4.737166247534272401e-01 2.137998002918425344e-01 -3.875743504464198019e-01 -2.779006606261185675e-01 -4.583916701050740755e-02 3.814410245710989078e-01 -4.507619212799822694e-01 7.726144279127589165e-01 -3.173624853193813822e-01 -2.596363329141704313e-01 3.094640710237313297e-02 -4.158712800624829176e-01 -4.743587590765596662e-01 -7.063104531488925142e-01 -6.152437811784808863e-01 2.909160078468238028e-02 2.386345704128844114e-01 6.214319617159717035e-01 -5.053079124788821819e-01 5.012705577280759384e-01 5.406074020509175071e-01 5.062387677629586191e-01 -3.080119678252131177e-01 -5.052294589176428152e-01 5.917302222134581680e-01 4.155088252886771083e-01 5.758637872269218860e-01 6.237207891575428098e-01 7.325382667055990726e-02 6.470856460449533887e-02 -5.311951181705316660e-01 2.988094529778712038e-01 3.022168032116802072e-01 -2.607117814794650545e-01 4.073970113637735008e-02 -7.655226252886934146e-01 4.775974255823642878e-01 4.120414334120126032e-01 -7.243667717282753493e-01 -8.415286135769824982e-01 6.694738400352620022e-01 7.424642847747479069e-01 8.024047198200442987e-02 2.448871346388748482e-01 -2.911922825334656295e-01 2.511993094589033970e-01 6.487303273532796233e-01 5.563026564644779626e-01 -3.062893804528000752e-01 2.855438285694539280e-02 8.981805093793665540e-01 -3.556997315643560809e-01 4.529715887900642168e-01 4.169047316885750587e-01 -3.213566918801463723e-01 -4.739119943203116692e-01 -6.942767821566115938e-01 8.444269930386720524e-02 -1.274384525988065398e-01 7.948840473517014560e-02 7.242312714986888500e-02 2.072262998487179320e-01 -3.801202434957063336e-01 -3.742277485536433246e-01 2.942936256489855351e-01 4.383971830263874159e-01 -3.697138103294057149e-02 5.752702772903823814e-01 -6.079516069103410025e-01 -4.553499939845380429e-02 2.689472493174539444e-02 5.394258821185353714e-01 -5.229487342340310985e-01 -5.992159041235963768e-01 -2.958518532779443322e-01 7.947435896201050509e-01 6.958635216213852059e-01 1.323247780793325723e-01 6.745429463724567087e-01 -2.157106128369189746e-01 -2.521136102306288929e-01 -6.278576670829184581e-01 -1.794398144994480138e-01 4.438158787140502048e-01 -3.926121868197520182e-01 5.482087596601584734e-01 -4.425026149349811644e-01 4.489759320368251205e-01 -4.456390395066984200e-01 2.123187380308614591e-01 -5.102880102779308036e-01 -1.849539017822294240e-01 -5.250185760238007537e-01 -7.225900752211226186e-01 2.210886897318684319e-01 7.427782680477407196e-02 -5.061820794255128542e-01 8.363421339600436970e-04 6.303626831154018895e-01 4.883068361597976970e-01 6.044836324500881819e-01 2.640607906316234654e-01 6.024322548499331242e-01 -4.782680169517504742e-01 1.284681707435139930e-01 -2.195271422572523945e-01 6.224146103303951350e-01 -1.204290067410869192e-01 -4.253245879389177531e-01 6.009869816608002235e-01 1.219986416270960605e-01 8.603866606256785343e-02 -2.859388203745562018e-01 4.083832471378577855e-01 -8.450358980498871020e-01 -8.870597953902514821e-01 -3.340619943248422929e-01 -8.096555083803033126e-01 -3.027578746729291392e-01 -4.656053512210069772e-02 1.927309260796067781e-03 2.014304869131981757e-01 -3.715822216455650917e-01 3.544216834541119021e-01 3.747009915356581122e-01 5.080455961562941880e-01 -5.690935300485842063e-01 -4.572595819705423115e-02 4.154663857219905165e-01 -1.709753736542846403e-01 -2.728280074976416336e-01 -2.914094810370150834e-01 5.186686984429429437e-01 -4.141227450911708768e-02 3.570565131320019847e-01 -4.534579600630794793e-01 -7.809805106242382333e-01 -8.628376008759144900e-02 -8.744647810345349548e-01 -5.002508847311331053e-01 -2.593901284283280373e-01 -6.300598905868078914e-01 -9.362378575247658485e-01 -6.340756271297778857e-02 -4.144897641918772191e-01 -3.059278879442346999e-01 3.826605985244870278e-01 -7.052849977437899431e-01 4.632491986574899245e-01 3.461485863377197214e-01 2.896557806739504248e-01 -4.562006204343176802e-02 -5.525063640625599293e-01 -8.004172366769688463e-01 -5.059310199416996306e-02
4.565598272491533938e-01 1.419119630993764813e-01 1.174188559321373004e-01 3.310166714859547610e-01 -4.433282649721165813e-01 -5.784889429257931148e-01 2.708194070478622817e-01 4.534471693383069768e-01 -2.532629123336280208e-01 1.915753722944805726e-01 2.335759832398603963e-01 5.059744528829244192e-01 -1.600869184769656561e-01 2.341428737759256029e-01 4.613112890100505292e-01 5.748621912237595888e-01 -9.395860774909539637e-02 5.152247291184235412e-01 2.545720550521000103e-01 -6.156467423297433683e-01 -2.825327800429995317e-01 4.370971468288155637e-01 4.229580205928872849e-01 4.621581849126294994e-01 -2.256695297946324508e-01 4.929764576547909088e-02 -4.273987621252220426e-01 -3.258643059188523483e-01 -2.954622077833757299e-01 3.583420297742559990e-01 -2.987355346259625843e-01 1.758056060431608114e-01 3.079504367228194650e-02 -5.325336526804760329e-01 3.041362028131326944e-01 -1.842059209870010039e-01 2.623008993231146224e-01 1.814472349489849867e-02 6.232381924126678685e-01 1.826271595441691098e-01 8.029733917995590664e-01 -1.380505810445488424e-01 2.954002483927629930e-02 4.341511136673473215e-01 3.239539205967933433e-01 1.286049823105125771e-02 -3.918817444582651244e-01 5.367887400241581064e-01 -5.340578889541196528e-01 -3.900260284541690603e-01 5.293902267778562987e-01 1.779006838439522176e-01 5.298812906676316770e-01 1.694520457451908213e-01 -3.680808590125048685e-01 1.776171507081736600e-01 -3.115369300186902612e-01 4.460600762302597277e-01 -3.590274828705415922e-01 -7.241193232322234996e-02 -1.570591438533434081e-01 -3.272248611449499883e-02 2.608169297444193901e-01 -1.276067616039407993e-01 5.623172591554569111e-02 -5.113079803846664051e-01 8.593149726589320581e-02 9.118661546008582919e-02 6.536572882651294769e-01 5.913810211521483735e-03 6.474628763254569597e-01 4.859960555406238614e-01 1.008763853906226582e-01 -3.712021821330590554e-01 -6.483280597379931232e-01 5.606960581690366707e-01 -5.117987386290620000e-01 -4.709259478825113254e-02 -6.187350090188840079e-01 4.077965646139369849e-01 -2.453922185659352107e-01 -6.687669799271435123e-01 -5.023191237195573366e-01 -1.562042363219687258e-01 -4.220675066996070757e-01 -5.376287948483995383e-01 4.271334773035433408e-01 4.482130251633409945e-01 -3.395611209920176288e-01 2.516962370181013431e-01 6.405059764006791889e-01 -5.926915382134193555e-01 -6.203185246941445019e-01 -1.717629620908729393e-01 3.065644186744133082e-01 -8.729616572506838923e-02 -6.330786102905391344e-01 1.344924230485924077e-01 -5.910666565682144435e-01 6.838844256566219970e-01 -3.221002544006291157e-01 1.472543153260413296e-01 -3.789199064551786456e-01 -2.053595046692542614e-02 -1.661147066996065125e-01 4.441705696904560408e-01 1.935750717540834359e-02 6.945827477205833711e-01 -4.361428693966330483e-01 -9.805335216724891945e-02 1.512969548467586189e-01 4.931221209262758864e-01 1.885179244177215552e-01 1.292413964672801951e-02 3.859589799196556648e-01 -6.450396501798235649e-01 -4.729362199775181269e-02 1.700374368724336949e-01 1.912338013189379404e-01 -1.938223718576597976e-01 -2.510555639696233077e-01 7.270489008361233907e-01 -5.869265749086176598e-01 3.308737110783114277e-01 -5.815953722895528255e-01 9.398216920808497021e-02 -1.999371557900041230e-01 -3.544245723078952026e-01 2.985576103424598081e-03 5.184783322028051478e-01 -3.419236740386446538e-01 5.591286429889963383e-01 1.444732052998882188e-01 -1.507608877823377602e-01 1.642325118926238059e-01 -3.119244627014865559e-02 -5.583734128894733972e-01 -2.254438075546121370e-02 5.181161939514476039e-02 -1.457011246955794426e-01 -1.189255271646260242e-01 -4.198408587793189817e-01 -8.544326798469046302e-01 -7.758816472977133616e-01 -4.621563365544828494e-01 5.767707540502345909e-01 -4.445539086077576751e-02 -2.335901965667616098e-01 4.370734256820211772e-01 7.077864258469037662e-01 2.744677591498492220e-01 -3.099744437646337336e-01 -5.235020961923119165e-01 2.445581378036319753e-01 3.227684595608631413e-01 3.321585222242341984e-01 2.442612901031307737e-01 -3.240032591743299828e-01 -4.377037103774303883e-01 -4.640719148265178284e-01 -5.023940751655567860e-01 -1.229256723880088886e-01 -3.952465544071095960e-01 2.754944385802497731e-02 -5.347513087817914457e-01 -4.948630003775947861e-01 -9.638172794211062877e-01 -7.918161323447150401e-01 2.082880559819478006e-01 1.948589649230827170e-01 -1.007008858998610368e-01 -1.590375406649271739e-01 -5.110796428958129800e-01 2.322050202888412684e-01 -1.349876634317107860e-01 -2.460716221704211948e-01 -1.971500011416361109e-01 2.946837866510478299e-01 2.319902047040553195e-01 1.560697261632085220e-01 4.392702124266797958e-01 -8.052127013860724269e-02 -1.594617146927893858e-01 -5.654020769436093330e-01 2.953144530184654282e-01 -5.206635394276064588e-01 4.566590404721206919e-01 -9.056270092167033603e-01 -8.825289641315089417e-01 -1.087484743815822164e+00 -5.604774117610404893e-01 -9.493012462367393933e-01
-6.164276377746200630e-01 2.074834278540407528e-01 -2.994024823913774003e-02 -1.519108765689720364e-01 2.683518823636257822e-01 -8.897339731433820953e-01 1.806398213335190239e-01 3.287257086963715769e-01 -7.704418150986240554e-02 2.541119568412087970e-01 -1.167108863686870113e-01 3.771595186142561729e-01 -1.384253037571898659e-01 1.482805076509016370e-02 8.654363355659303592e-01 -9.296620593789262088e-02 -3.369942849519065864e-01 5.295348878880529186e-01 6.742983419805002043e-01 3.761903451853454983e-01 -1.373079117556611980e-02 4.721066729465635547e-01 -4.273072048942968548e-01 7.406859482170873310e-01 -1.931539534855118978e-01 -9.531043444775815221e-01 -6.848354684828514838e-01 1.347156776069767803e-01 -6.956158396340268446e-01 2.632395634897231190e-03 -2.030858563014746043e-01 3.178763021258961818e-01 4.980642343535134353e-01 2.624007737495929193e-01 -3.798204013915855159e-01 4.399338804640713918e-01 4.405285813702989883e-01 6.508315442826321240e-01 2.152973997768354575e-01 2.056143459229700932e-01 -8.209655459778529563e-02 -1.184164953063317621e-01 4.888413465887231912e-01 7.213933225626140144e-01 -4.482806887154906078e-02 1.774274748152870895e-01 1.062275191377156203e+00 -4.268423535469877822e-02 3.287010900256652213e-01 -9.997974128614105227e-02 -8.163573636255666566e-01 -7.011659063290553995e-02 3.040752992918467346e-01 -3.190383906445066198e-01 -1.565614129864106071e-04 -3.799591399921834478e-01 -1.461594377459530247e-01 6.689759962479998601e-01 8.840850914633803237e-01 3.638950982820554070e-01 1.482792131129598012e-01 7.894514947408020067e-01 2.591058667311244013e-01 9.803981253702155618e-02 -3.247320534230760392e-01 -4.135460010386797225e-01 1.648094837731423346e-01 2.753060822792203211e-01 8.963480733055719796e-01 4.728647447935877685e-02 2.638659214318308521e-01 1.781230140919839305e-02 3.606330393851483324e-02 9.726469508978577427e-02 -7.704590826218812305e-01 -6.282433203125447063e-01 -3.957450092499552596e-01 2.079602202688845825e-01 -3.226679762959414055e-01 -4.897112565741448820e-02 1.947175511042538443e-01 1.569344974821388905e-01 -5.188187531258097590e-02 7.493786942084793012e-02 3.265798072952365017e-01 -6.369278872313658413e-01 6.413446512524795251e-01 -1.351397490786438449e-01 -2.076497485303852031e-01 -5.073414290907440893e-01 -2.261425270936222032e-01 7.304959071767022083e-01 2.954927783264109376e-02 4.595091460359010949e-01 1.172891917053139110e+00 5.972822815874970770e-01 -4.725538303930668649e-01 -8.516480273167834625e-01 -7.415793633978998711e-01 -1.722990752247535728e-01 3.671918069702851395e-01 -5.887424963116466570e-01 4.812724032234347304e-01 -2.149928138131780297e-01 2.329456375890612274e-01 1.846783905423202699e-01 -2.857234798287151545e-01 3.673222093686664413e-01 -4.835905349756143279e-01 6.438227964575025108e-01 1.112808475629149640e+00 3.932313633112361484e-01 -2.322198775935410409e-01 6.916183092766704510e-01 6.689418669046588439e-01 -9.714648046470017451e-02 4.445704378963895032e-01 1.761504161726195339e-01 2.974612695433344611e-01 4.767557213716123177e-01 3.672693000862675139e-01 -3.574574536139610292e-02 -3.969778209596755425e-01 -7.673231012329966294e-01 1.683930310591722490e-01 2.303887031056130741e-01 -3.806055413529733089e-01 -3.093762789616082837e-02 -3.320763654810519883e-02 2.366770795299462660e-01 -2.748356368430297444e-02 -6.414446914041599390e-02 -1.341095582484756743e-01 2.666748130990275190e-01 -2.136090080999491492e-01 8.280329776377315376e-01 6.686188346994230702e-01 2.061028547616786943e-01 2.957729358961714294e-01 3.639287475446053022e-01 4.415751224904439498e-01 9.802841820558302333e-01 2.375360520070671777e-01 6.703150850816111395e-02 -8.606454655943410748e-01 -4.982236413404786401e-01 -8.098527439762511770e-01 -1.016698694337276887e+00 2.836393723808997014e-01 1.920097697588845909e-01 1.970408349623420374e-01 -2.379345215614513398e-01 4.953066702432172841e-01 -4.415371929159258579e-01 -2.053334380457379482e-01 -3.396826264768051246e-02 3.063804508066340637e-01 -3.459874823324857740e-01 -4.414435255661310897e-01 3.468910695243033193e-01 3.590490826014486325e-02 2.777484228906624830e-01 5.254924653542834001e-01 3.773542641001897402e-01 5.026946733409398682e-01 1.573870514866602954e-01 2.639256420969642858e-01 -5.417985902750711152e-02 1.846917413254924867e-01 -9.270257905858556580e-01 -9.517591484017277059e-01 -2.538401410367893130e-01 -5.119809844889419148e-01 -1.576760513304804323e-01 -1.748587647973709192e-01 -6.601604883793509015e-02 3.105649897510261437e-01 2.454600634016322891e-01 4.414054443631652558e-01 4.743708731152359581e-01 2.032174278862397820e-01 1.464266429014902948e-01 1.119141628714821757e-02 -6.918170757326276288e-01 -4.437925897532184888e-02 -2.696398460039047817e-01 8.424338836876231751e-01 3.557889297785599703e-01 -2.246063688445628370e-01 6.072757761145614053e-01 5.200150325122444572e-01 5.751635361052972462e-01
-3.939621308334996241e-01 -5.399024688740982070e-01 -5.233514736027605752e-01 -1.079208461801412222e-01 -6.570025883572457870e-01 3.269568374141263445e-01 -3.692272332914451893e-01 4.631425001198680724e-01 -4.836196748312726612e-01 1.051504760023357354e-01 -3.741116903109348302e-01 4.175701803864073636e-01 -3.943168514028086435e-01 3.462640037419659200e-01 -3.408083266591516169e-01 -6.172941073277219554e-02 -2.217471522814710994e-01 -2.009405134339970755e-01 -3.460666575607569406e-01 1.895349010356648656e-01 -1.540083309002823198e-01 -1.296361228274195976e-01 1.202838698665855688e-01 -4.328841592100599600e-01 -5.087687190960640260e-01 2.506847629082660789e-01 -8.144315625447993146e-01 -3.492927878123702756e-01 -4.683760193419059803e-01 -5.351706667377338356e-01 -4.492480824271819634e-02 -5.857369511182020094e-01 -2.096224294216930129e-01 -6.939100303832364258e-02 2.214732987441610235e-01 -2.820523217832258678e-01 -3.517779406468956593e-01 -6.930047214085421903e-01 3.939016367774633154e-01 -2.612762906089595161e-01 -4.854909411899677174e-01 -3.140496774829023563e-01 -5.820392583484415017e-01 -4.786570543454355953e-01 -4.175687977950000573e-01 4.525450034441134278e-02 1.806703950983446494e-01 -5.073158141255721398e-01 -4.815161185444550296e-01 -4.305528572680703547e-01 -6.503020414979815422e-01 -4.913840873063703429e-01 7.054303637244072056e-02 2.297009494402444674e-01 7.469421473970414005e-02 3.904238503961709461e-01 -1.984393089788507036e-01 -3.650543611097303298e-01 2.315692995568617574e-01 4.446224589693306001e-02 5.945827649187406250e-01 3.756860952060103731e-01 4.486222001934777603e-01 -1.065169094656427118e-01 2.309748675036642773e-01 -2.762278488515007568e-01 -2.171716984061990985e-01 -3.659643448095661888e-01 6.742038250010086442e-02 -6.563446935924800441e-01 2.832908828901080887e-03 2.093499634903107087e-01 -1.157584095575874862e-02 -1.020556409578547846e-01 -4.913510371289903089e-01 -2.219510055797548065e-01 -5.939632969278884067e-01 -7.298544164732699846e-01 3.609165116782076660e-02 -4.932357742785143384e-01 -6.174677502792008665e-01 3.103900879849534888e-01 -3.339515284488995817e-01 2.464170939926147441e-01 3.970485963132756035e-01 5.639569781201863030e-01 9.613032371466095904e-02 -3.769724589566903483e-01 6.799542820704492785e-01 -6.634559626198653914e-01 -3.273819892153266298e-01 -2.833691662146450851e-01 1.880392700367100045e-01 -6.059088507518073374e-01 -3.709397987103661420e-01 -4.401542334180049698e-01 4.858975122620177306e-02 -2.444439319978998215e-01 -5.876195232528717005e-01 8.397500392630394273e-02 -7.467466728513028063e-02 -3.509487964496080248e-02 3.753835621803616740e-01 -1.479847697848620525e-01 -4.498242649798544490e-01 -1.588312193027604236e-01 1.054463839861368019e-01 3.446160400798856105e-01 5.609472273749989135e-01 -2.662496311320891595e-01 -1.096450351145073776e-01 -4.899348272001479709e-01 -4.403384397442158815e-01 -6.483501689099605558e-01 -8.594033881879030723e-01 -1.299191996742110611e-01 -6.002677417841750795e-01 -7.225113914510670199e-01 7.468212011117161993e-03 -4.415897846383582404e-01 6.319276912607649233e-02 -3.493616476802182125e-01 -6.510734339089920830e-01 -5.165233570344295311e-01 -4.449666310196557784e-01 9.118106458456332053e-02 6.423510656474847036e-02 -1.341509326030408122e-01 1.510732960134099911e-01 -3.067365123176548636e-01 4.671195152385990701e-01 8.036347575209923377e-02 -6.775272321940180309e-02 4.976589631544092729e-01 -5.002708031922754595e-01 -8.705631294748922278e-01 -6.035439825176197592e-01 -1.602362868652715544e-01 -6.437178930198437232e-01 -5.307402668873088120e-02 -1.615093031472693546e-03 -4.313464205886677338e-01 -3.069309759461620879e-01 4.772104137477306551e-01 -4.885656633909477575e-01 -6.533063585005737250e-01 -9.170656681968629709e-01 -5.106306969496920978e-01 -2.942474866857220372e-01 -5.325088912872434355e-01 -7.507101719786111182e-01 -3.365711604698592430e-01 2.294741742655383443e-01 -1.933734247557535590e-01 -5.811373779684611551e-02 2.867050277260487778e-01 -8.872689150796042590e-01 -1.308166815954660278e-01 -5.147871502435426017e-01 3.448527266757515086e-01 -9.691488049434743290e-01 -3.354190665916686465e-01 -5.335359881227090817e-01 -4.547434455971808842e-01 -5.796702557808530720e-01 -3.130681638266137323e-01 -2.256987125756861612e-01 -2.202856074677061460e-01 -3.885766967225368629e-01 2.099687379792270769e-01 -8.790990189835369284e-01 -4.078132125466294999e-01 -4.448662736328790612e-01 -7.605156158247003972e-01 -7.559548469870666643e-02 -7.451004901163883476e-01 -9.456850541060330961e-01 2.676004926014415308e-01 -2.750080357414174115e-01 4.310789052462027926e-01 -6.723653678829953906e-01 -6.071634647314438915e-01 -6.744604856592745223e-01 -1.268287749425345279e-01 -5.800018451707105172e-01 -1.128692956258865315e-01 -4.997838251824053279e-01 -3.057463598274229866e-01 5.623956541730347203e-01 -5.032389856555395669e-02 2.586620147291238472e-02 -1.806201009854985218e-01
-2.826740306199955199e-01 -2.446436408546151520e-01 -1.943257960636813608e-01 8.050470087440404765e-02 2.059833849487615470e-02 2.977780450951188485e-01 4.732927295446205940e-01 -2.446053480096119503e-01 5.646112020354616678e-01 2.837225639536271049e-01 6.685123531846323131e-01 -4.474275453516149970e-01 3.284996373978681938e-01 1.813233961453208642e-01 1.284993486979200406e-01 2.873739919622895211e-01 -1.946350471043087060e-01 1.643761292545682373e-01 4.917066730455350171e-02 -5.744167863101021787e-01 -4.930998593978733191e-01 -9.627128446113983884e-01 -8.333109029741331275e-01 -5.704610306054574975e-01 -9.691143720165501518e-02 -3.751753245230131095e-01 4.187159142414651619e-02 9.428214242089820452e-02 -5.152025498184577973e-02 1.386397301161681897e-03 5.522594390010754362e-01 4.879770298990436794e-01 -7.822551008541368811e-02 6.658628006938359656e-01 4.960617699883803078e-01 3.421797627128074226e-01 4.805632270164424957e-01 4.886787196076886608e-01 -3.759660592102545551e-01 2.384963787555857972e-01 -5.058092277886816479e-01 5.294514686174341123e-02 -2.162233341542730003e-01 -2.267927818418235264e-01 -8.451790919401360735e-01 -5.128434956407100787e-01 -1.030339211481722916e+00 -5.053520234025825619e-01 -2.658062450612576066e-01 -3.534237430674502800e-01 -4.025487848642756439e-01 4.823796570552108531e-01 1.576281897002490273e-01 -3.471879716870311383e-01 7.574388300357554060e-02 6.892169408080138782e-01 1.373196325715159427e-01 7.833229819467640159e-03 1.138468357348690341e-01 2.163504554577546923e-01 2.895854594453182718e-01 -5.593610075207561261e-01 -2.133113165276197543e-01 4.251692555562566200e-01 -3.696569297290535627e-01 -8.443054672619501044e-01 -1.134756019836393071e+00 -8.996205570973100363e-01 -5.419664404289590287e-01 -4.667015307227115883e-01 6.481305762739193559e-03 -6.505387257147399183e-02 -1.219988724046641992e-01 2.815250966001512922e-01 1.109381980716436095e-01 8.181857019855905133e-02 4.407833196679518672e-01 4.123160024186449113e-01 6.752442139238036267e-01 3.626714913702144272e-01 -1.973604828997023719e-01 6.345087347650150145e-01 7.012198887320604535e-02 7.221839077599189194e-01 -3.345919122788850730e-01 -6.964885254904013001e-01 4.409695533275772572e-01 -2.335488179801440412e-01 -4.514532845406086237e-01 -3.703049298015641533e-01 1.476169771811302600e-01 1.629297839271561799e-01 -9.094535163101910014e-01 2.651612800618992627e-01 -3.051590921479902518e-01 -3.717466621383122005e-01 -5.814861780796691526e-02 -1.853207062372093112e-03 -5.992321122446726545e-01 2.142374555745431633e-02 5.453608623716380555e-01 4.114126117685916462e-02 -3.538274072115447089e-01 -1.891783796894654091e-01 -9.457634375069880195e-02 -8.899971008646199999e-02 -2.006104189018316775e-01 4.423129558948653561e-01 1.085087121773884167e-01 4.319229557359483551e-01 -6.365224285736821308e-01 2.111432929038868297e-02 -5.178287695938185164e-01 -2.202958806208442921e-01 3.047528056023115703e-02 -8.056086682228904561e-01 -3.296074114890045759e-01 8.467713718314444360e-02 -7.174609520593461243e-02 2.451390375306380653e-01 -7.088326185931661527e-01 -3.367306625043597346e-01 2.773094169116827046e-02 -2.522463653432722719e-01 -5.104695273161822255e-01 3.116081668824973172e-01 -5.031435261661222347e-01 8.727472459667302840e-02 5.425466817945782116e-01 6.583062241997503783e-01 -3.841035112678264363e-01 -1.600351304851873879e-01 3.904885070914912437e-01 8.315137677122269588e-02 -9.122296939985737041e-03 3.878817913044015908e-01 3.095091183414911962e-01 -7.123676985303774301e-02 1.202815064306540366e-01 -3.767614180027790138e-01 -2.283876417397659175e-01 -4.928449119167547243e-01 -2.830375684348364063e-01 -1.672588783926970413e-01 3.680748968942910704e-01 2.427330727863503956e-01 -1.560787786463485594e-01 -4.382253111891997732e-01 -2.838432176359271808e-01 -4.116658134192049401e-01 4.974551059921838436e-01 -4.000987471970638976e-01 -7.652630948831801172e-01 3.538402040192769604e-01 -9.936283383619876064e-02 -2.374990600171551225e-01 4.416002956459967321e-01 -5.532353959607341221e-01 5.007713855626906296e-01 4.839358499475524544e-01 -2.931024365685451216e-01 8.384088282303824302e-01 7.128352632457013449e-01 3.769908401917223539e-01 7.355171959600924347e-02 7.102205916587540635e-01 -5.929593237252185345e-01 -2.099976249337825174e-01 -4.588627186848200368e-01 -5.185551269824649756e-01 -4.861812483460334344e-01 -6.533034696126986673e-02 -7.815599719503818488e-01 -4.843719896578994599e-01 -3.683661345871191428e-01 7.078662817737119139e-02 5.601178267650696041e-01 -4.916881552779633346e-01 3.715403861802454299e-01 6.912448142853373501e-01 6.121601812456505254e-01 6.303892736844750322e-03 5.064821830489306675e-01 -5.830195113401044349e-01 4.658044103182084616e-01 -1.364504727757692992e-01 -5.796241225460407875e-02 -3.230117361155608602e-02 -4.076836785109442252e-01 1.582683336428741816e-01 -5.271807175866571188e-02 -2.349994780928178484e-01
-5.436999983494245070e-01 -3.692144354626048508e-01 -8.083132857776428870e-02 1.215926234948825485e-01 3.700135130623843915e-01 3.102033823631231146e-01 7.598865762190445405e-01 2.059969089482387994e-01 -9.892305852104014974e-02 5.422731209419727749e-01 5.055810074033250112e-01 1.067220485139046993e+00 1.856642694897269463e-01 8.354317802615578437e-01 4.478804668989020410e-01 4.718573501759475153e-02 6.313087051633989311e-02 -1.016867674814791317e-01 -7.682386878009258568e-01 -4.403659844480463659e-01 7.356169910797636380e-01 1.145193408277742630e-01 -2.468259927948097260e-02 -7.423817006404742624e-01 2.447025268402376885e-01 -2.216397438951864807e-01 -8.725727043216430223e-02 2.867282196776156922e-01 -3.671665756285014126e-01 3.986611217941897767e-01 3.042795767912640503e-01 -4.221926593758707491e-01 3.749593983001542896e-01 1.132609557035951786e-01 2.086823641987192376e-02 7.631238299465731290e-01 4.681052374582108655e-01 3.881935624122139217e-01 8.022864544637228201e-01 -3.964846664273791732e-01 9.538324621170503059e-01 3.365393101915542529e-01 2.314642020456619820e-01 -9.676028527284281922e-02 3.989062436634285280e-01 -1.943267405127404035e-01 -3.028611122194354022e-01 -4.405875995559890845e-01 6.746857794943700304e-02 6.373712611137478667e-01 -3.142297695131624491e-01 4.391796274510760267e-01 2.659391923473803376e-01 -2.962716203022924821e-02 3.680485988614493609e-01 5.643452506283512804e-01 5.880973763988377456e-01 3.358159323459692369e-01 4.265914953440017032e-01 2.099808322099596669e-01 6.057987102818835901e-01 7.758813600146101663e-01 5.818091851518499835e-01 -2.944677512565235245e-01 -1.490565356833138955e-01 5.415906700553001496e-01 -3.794633064483969309e-01 6.626434203523988709e-01 2.495400221201416191e-01 -6.983359315374584320e-01 3.368352518636600901e-01 -4.821654211699012982e-01 4.338579632077619874e-01 6.379482573145599245e-02 2.242196774229704148e-01 3.133866349861790801e-01 8.288648766165328252e-02 3.981745711959375211e-01 4.977651229365858375e-03 8.790654878548034290e-01 1.221667037948197254e-01 -7.705600974311273277e-02 -1.504798550880435126e-01 1.234694021567316058e-01 -6.826513082638917262e-02 7.004400295537821508e-01 4.382515940606369620e-01 4.527237862607211838e-01 2.367784680702117173e-01 1.344519118129029189e-01 -6.863738779279607849e-01 -1.053518973586184959e+00 4.342301708748240174e-01 -5.644879504175656093e-01 4.581516437959894106e-02 -4.167761060937392736e-01 -1.034706266355652493e-01 3.186564000824905207e-01 -6.798816643678579075e-02 -1.719880906113261110e-01 4.735637330316167515e-01 3.152342961656913189e-01 1.449915396729742345e-01 -1.312125243443328371e-01 2.715497038902957572e-01 -4.452723735517472026e-02 6.681358711644852511e-01 -2.087014378669547476e-01 -4.594479155310730867e-02 5.012256477280746525e-01 2.574009550001262747e-01 5.772405604857104855e-01 4.107947810874157391e-01 -1.695863337274618465e-01 -3.938110742580276935e-01 -8.206995368603658969e-02 4.224421434845251899e-01 -1.629766367848780803e-02 1.867492092372447995e-02 -8.520541839109101456e-01 5.381583471989747069e-01 5.084433517654094459e-01 2.917997829422794981e-02 -3.839941168410945238e-01 -4.185961291596579370e-01 -5.809714407027769534e-01 -1.056176637232459498e-01 5.104763882767426875e-01 -2.570265394787251689e-01 -9.361404567064413040e-02 -6.072206601097863976e-02 5.116648882409030596e-01 6.991008609079908398e-01 6.440003509179709207e-01 1.659610341370366948e-01 1.732537357374511477e-01 -2.688456154525907249e-01 4.819839209427352333e-01 -5.159211076464729206e-01 -1.521320997397514752e-01 3.906420376250175353e-01 2.357012130593685029e-01 -5.247006479985564242e-01 3.797283754332664851e-01 -5.097042564262639353e-01 1.098493323780812131e-01 -3.983593234193053556e-01 1.545880482716778526e-01 3.312687352620947712e-01 -3.351865923683433057e-01 3.848863200399304518e-01 5.041479288505472667e-01 2.488018581487737302e-01 -2.225268822989591444e-02 8.555096579880637486e-02 6.099196341697610269e-01 6.792355668081176967e-01 2.644144170079343881e-01 -1.999091055240137804e-01 -3.030066237145532804e-01 -3.353583918271081377e-01 4.008801965883196927e-01 2.205860149372942391e-01 3.178711530563748666e-01 4.167087965909224145e-01 -5.477799079925943504e-01 -4.225780523990458337e-01 -1.293399690351962061e-01 -2.927342384662390828e-01 3.357259441699275149e-01 6.335537052419553117e-01 1.352054597614109621e-01 5.180750682938671803e-01 5.169495152251747383e-01 4.363014570511653534e-01 5.324731669450908367e-01 -1.031450131148628074e-01 8.279591363354454892e-01 2.935594876168997058e-01 -7.956693908542158966e-02 2.136427320212301861e-01 3.423701245169479268e-01 -4.186618113977012001e-01 7.958262448104604925e-01 1.807983774918489606e-01 -3.286162278211653409e-01 1.176192724985870575e-01 4.044301200165375532e-01 1.340745112128548938e-02 1.744067227112829077e-01 3.637068451575332650e-01 -3.037539029131455792e-01
-1.365082398500588046e-01 3.811107310159921879e-01 2.128968270369278326e-01 -5.312910379750572787e-01 5.669249708155617296e-02 -1.766188345114129074e-02 -1.176402162424227404e-01 9.576447267814210129e-02 6.136581959619189508e-01 4.982597523547367402e-01 1.809138431577865802e-01 -8.690247427142490377e-02 -2.232900349879702595e-01 -6.194398340426180427e-01 -5.765048549049103244e-01 3.452253210707683095e-01 4.058845560110716510e-01 -4.308192796753689824e-01 -3.049925709622753889e-01 3.907348226661262469e-01 -7.221095222264970470e-01 1.571036662164273789e-01 -3.150255896839912473e-01 5.734977884564594897e-01 6.624432507447356455e-01 -1.867130286092499522e-02 -5.561481889432473569e-01 4.512523429551569265e-01 -2.408237886791979032e-01 1.445069553127971071e-02 -4.969206476641053333e-02 5.551434675604505209e-01 7.120453785745062270e-01 -1.583920380069641365e-01 5.895578050756730693e-02 4.398914724872112630e-02 -3.518535076200438039e-02 4.164963408969114128e-02 -4.043694794961363304e-01 4.235497635747891843e-01 3.280589420365424003e-01 -2.513044101716035428e-01 5.097599255133583585e-01 7.411351371657899367e-01 -2.507931845524604131e-01 -3.443755936951042318e-01 -1.441820431223422572e-01 -6.592234180786418207e-01 8.255642338726949525e-01 1.091847540161631630e-01 5.158913474463834303e-01 -3.581390652331474800e-01 2.281432083431516322e-01 -4.719026773724014912e-01 4.382157795744497375e-01 -2.593316616682711517e-01 2.187056080207242792e-01 8.791400595003631135e-01 3.372994246729429380e-01 5.704253656790569948e-01 1.761620682063624321e-01 1.396743480660299630e-01 7.709915593401783784e-02 -1.981220519454299500e-01 4.159027533723788084e-01 5.646274394285860643e-01 4.549539404536822595e-01 -5.037087055269847680e-01 -5.424353908537570268e-01 -5.141077999808015830e-01 -8.143672317080786760e-01 -1.528089232549784647e-02 2.072946418259924428e-01 3.561988717556348605e-01 -9.952872300503995406e-02 5.162507565447157498e-01 -4.946490494895012802e-01 2.623739877287111222e-01 -6.032539916952349701e-01 -9.675940616899252056e-02 5.966722556369516983e-01 4.903257668625442545e-01 4.470115793619249267e-01 2.644174305761137767e-01 2.503673006756766406e-01 -4.736880448708088998e-01 -1.390442477949034861e-01 -4.774697231523962193e-01 -3.647527200521245017e-01 -5.550276638155877684e-01 -3.692601216063222114e-01 8.831394666759528889e-02 -6.365360278694581764e-02 -3.540971841044551205e-01 1.661655601995545017e-01 -2.834175433731087601e-01 6.109086900567608502e-01 5.238799999729514267e-01 9.318186792241471839e-01 -2.589892846093247991e-01 -4.945333140805360239e-01 3.443114133967973278e-01 3.506404023531853320e-01 6.186441123525081576e-01 3.209165301732655462e-01 1.756709638195167456e-01 1.440021046400338789e-01 5.621040105206477344e-01 -3.283872720322769667e-01 -3.936403839591567921e-01 3.625998373734423685e-01 -4.660638538220969185e-01 -6.483345929146119291e-01 2.370887083866326794e-01 2.400006797062557151e-01 -7.027279832680177751e-01 -1.933058923425482467e-01 -7.809019573922745261e-01 3.664274158273293780e-02 -8.345640698793480028e-02 2.714936656326406572e-01 -3.129534430347845064e-01 -1.467678947692374336e-01 -3.859453834893988855e-01 4.217625657324333144e-01 -2.436801674181160171e-01 -2.125997630087889390e-01 -6.705463352084394257e-01 -3.476250943805088145e-01 3.416918596163311950e-01 -1.496109913161552396e-01 -6.072312851856560556e-01 -6.195255153482683852e-01 -7.843492870761332725e-01 5.150197390929180108e-02 -2.957198043151110234e-01 -8.547639225178540467e-01 -1.842529195658182684e-01 -9.817582982610929820e-02 2.370376917790222304e-01 -8.364824505724985926e-01 -4.183751147132792059e-01 -3.020263694235574281e-01 -1.179012228779014126e+00 -6.262728434953018786e-02 1.343718897770000698e-01 2.201826141783272406e-01 -1.130094383481857340e-01 -8.933550110567432812e-02 -1.112456411828381675e-01 3.876108902196797601e-01 3.352601877024758426e-01 5.347994012282195619e-01 -6.234973013838022160e-01 -4.099086163094355917e-01 -5.696179086992398943e-01 2.538684663654158791e-02 2.494046906091408611e-01 1.168556021242877496e-01 -7.939414764583617723e-01 7.268763464831416998e-01 -4.778407747132560335e-01 -7.497904363329026545e-01 -1.519298975926107187e-01 3.135730219384104123e-01 -4.579417911051407164e-01 -7.959014835580115188e-02 -1.023916110911825994e+00 3.270602299238638544e-01 -2.508149916192539131e-01 2.250546947361300731e-01 -3.909055021382640965e-02 -7.226467680253420567e-02 -3.889338132106501256e-01 -7.061212263497994579e-01 -6.728957718187135451e-02 5.306747878180571032e-01 1.485793229205371324e-01 3.823126607486150852e-01 -1.468825085739507708e-01 -5.239819072924841725e-01 -4.065457181907015660e-01 -6.489404227436590400e-01 -6.018705722911672495e-01 -1.542085318111647008e-01 -5.137506727634590931e-01 3.436088034703937422e-01 -8.155521781387883307e-01 -6.301940903215027534e-01 -2.025554293031484043e-01 -7.316515266240052329e-01 -1.906579829760100819e-01
-4.806273189439105309e-01 -7.065099839696767914e-01 -1.050776063900821233e-01 -5.188114085458275099e-02 -7.661557381134383171e-02 -2.656457255886892632e-01 6.246917152330574430e-01 -4.974075624689782704e-01 6.275595273495723214e-01 -4.764818021961682026e-01 4.916299043893961329e-01 -4.999524271226397920e-02 7.538831030367767472e-01 -1.657255657389335168e-02 7.347264444730787769e-01 6.954805047802541385e-01 8.686506031664118499e-01 4.666666694760539524e-01 1.922385415555996346e-01 9.992648683950324795e-01 -1.597830384906253343e-01 -6.075468718718446404e-01 4.348542538186159212e-02 5.649910917683408362e-01 -1.034121389771188865e-01 -1.303200112381317222e-01 1.128533715191762238e-01 2.562670990265238924e-01 5.731447849985056298e-01 -5.059254412210727470e-01 4.141193086893534270e-01 6.633886983522092884e-02 1.031001143825118316e+00 2.007610363262548325e-01 3.572200056814235913e-01 -3.689065324408367097e-01 5.067127069614930646e-01 2.900759889350170567e-02 5.320446695780663982e-01 5.883887709535708943e-01 1.947684824752173582e-01 -3.031554768061646699e-01 1.915362868952404929e-01 -5.781053338003683262e-01 7.556717076726181537e-01 5.419656955954001987e-01 3.839785486098909462e-01 3.517607178982484206e-01 -2.764520026510116635e-01 2.687758611977685841e-01 2.526387873521122596e-01 6.981105518853313319e-01 -7.018297189767532807e-01 7.508791834550566646e-01 4.902710961076366947e-01 -5.042914915615412941e-01 5.848000954424340536e-01 8.786165437865405270e-01 5.923352304182172290e-01 -4.647259049654843266e-01 6.952481341964469319e-01 8.556693792769431983e-01 -2.204882082830348089e-01 8.588822875275073931e-01 -4.040158251145647417e-01 3.301240455212443581e-01 2.630582102420878643e-01 3.301552579549414668e-02 -3.323682085802376895e-01 6.989960147644062038e-01 -6.249354168035404777e-01 -6.650630843887302968e-01 1.262975550407225145e-01 8.378866041202724935e-01 1.012237689530355311e-01 5.059806407014275642e-01 6.465779312379287269e-01 -7.079480937244782279e-02 1.532164476121536112e-01 -5.526991308292185101e-01 8.012175789079639676e-01 8.475265647300557204e-01 -4.082363629781876613e-01 1.574126442972776513e-02 -1.720081109315481083e-01 1.361946934697220724e-01 3.034310291977125318e-01 -2.531859607130186873e-01 -4.645209395221049364e-01 2.959555497844931771e-01 2.679629028825581960e-01 4.092388911149331121e-01 -3.600551827868221921e-01 -1.329312830211280272e-01 1.824184514931022072e-01 1.531431491758870889e-02 7.022967878454990931e-01 -7.120560168110524613e-01 3.150361099493397266e-01 2.800834372203145906e-01 -4.134169383098101891e-01 6.242061609014770696e-02 -4.465475322775678824e-01 3.487064762185633771e-01 6.781542314079754830e-01 -1.797164591313721305e-01 -3.053598388983175815e-01 -1.516084111781730026e-01 5.899160891926660266e-01 -6.122814985616009675e-01 4.850257007244921370e-01 3.111245264884389683e-01 -1.019960986257250901e-01 -4.793272058283957193e-01 -8.693987732245379574e-01 7.527221337436411641e-01 -7.867105027625005409e-01 1.508419040145645984e-01 -4.762803049577063463e-01 -4.405831663135025278e-01 6.658382806006257759e-01 -1.322841029066747220e-01 4.072182691098525376e-01 6.965724006221886144e-01 4.313643695960072688e-01 7.607810659041511214e-02 -4.716369295819020091e-01 4.335472937372821800e-01 -5.103195528804034264e-01 -4.301819375618555763e-01 5.412006957055186529e-01 2.750444111502289846e-01 -9.546419402213301986e-01 6.932210962747045180e-01 -2.588112245146778068e-01 1.341830546880827257e-01 5.690926809195715474e-01 4.646446158072536914e-02 3.190652146576324899e-01 -1.412327503240603244e-01 -2.750829673209892468e-01 -7.926349112044267509e-01 4.315215847819243722e-01 -1.453168999223998503e-01 -1.783214753883298753e-01 -2.570738855044709115e-01 9.340730496291399509e-02 8.810266649013714924e-01 7.732708725725034871e-02 6.180761401072282224e-01 -2.693863906314971635e-01 2.847134089045449401e-01 6.791316800711575397e-01 5.193425805501625803e-01 6.634643323980981000e-01 4.701355745927585789e-02 -5.519389770671332407e-01 -4.509569203692075368e-01 1.664355670266747522e-01 -2.540496782483699367e-01 4.085149109667173262e-01 -4.146992075815884582e-01 -2.992416040050062676e-01 -6.211857112436094397e-01 -2.628048613174870929e-01 -7.890999501713915620e-01 2.641571735239717222e-01 2.311507045594337895e-01 -3.804316946598385041e-01 5.891843521530812366e-03 -1.734408844663942739e-02 4.672875430550789688e-01 -2.615723362572430766e-01 -8.586382689347214769e-02 -6.325300182523209136e-01 5.638116373968611317e-01 -6.223094368563023560e-01 -8.266945957062190597e-01 -1.064598403085747630e-01 1.091696817371526074e-01 5.047708135903538063e-01 4.240338220162812588e-01 6.941730454307181164e-01 1.634052489532575661e-02 -6.409621007038729390e-01 5.948421516122820440e-01 -5.778440281251855382e-01 4.906239129579862968e-01 -3.006416617591510798e-01 -1.817577646569375760e-01 -9.467247226868541476e-02 -3.667811147459700688e-02
-3.700691395597828226e-01 2.611436574788784104e-01 -6.647308418498465432e-02 1.302814493270854634e-01 3.772602498656173475e-01 -1.297960106792608315e-01 1.805370173772806175e-01 -1.758896201363758516e-01 7.350155152277092485e-01 -2.684320613547612200e-01 -5.413161715754333941e-02 -2.923901967569081939e-01 2.959721871020635220e-01 2.097580403129384874e-01 4.329241868630862022e-01 -4.411847401209696429e-01 3.178963166846817678e-01 2.335219066961997103e-01 2.393113003810116157e-01 -1.869181368078326189e-01 5.441433430303136420e-01 6.603568101543783042e-01 4.334514403826408846e-01 3.275193397919563126e-02 2.995344005448789537e-01 -7.497477587541573341e-02 -3.506882287921094660e-02 2.055341042646044725e-01 4.983626498781056346e-01 2.157830952315988315e-01 2.939482882999930879e-01 -2.197208355041281314e-01 -3.645216206126958292e-01 6.883262745112733727e-01 4.310359012611036378e-01 6.891978955734581191e-01 4.949232675634439582e-01 4.415922017722678228e-01 3.868328639859108242e-01 3.567713797456263936e-01 5.129830268492289180e-01 3.500180607216938355e-01 1.613820145020113117e-01 -3.958624653863971887e-01 -2.851169525208214206e-01 1.611269056840898550e-02 -4.829289128271345155e-01 -2.379884730202075083e-01 6.666257604175235274e-01 3.390875858937424936e-01 -7.851070785656279194e-02 1.185632907657145907e-01 -7.694376959541932189e-03 3.741732214003961610e-01 1.804693280802690536e-01 -2.132414191187674002e-01 -3.119314979849381886e-01 -5.408019418680247714e-01 2.709860170449274741e-01 -3.456846360531046769e-01 5.171044172596234167e-01 -3.026941487423640553e-01 -3.799744327287839507e-01 3.920089869684327544e-02 -4.365744704400261189e-01 8.037050032408926681e-01 -3.402125143211856551e-01 3.921597881878047254e-02 -4.526379416263130451e-01 7.630442646854709854e-02 1.333367867070267554e-01 -4.509195298507610583e-01 -9.516884100647950151e-02 -4.075588909900014212e-01 1.586721122634134340e-01 -7.898618685850042898e-01 2.500398298990709200e-01 -3.434904892022902501e-01 6.923188888259472762e-01 -2.509189746436876062e-02 5.590314471657260587e-01 3.446392751536053178e-01 2.348168868461782965e-01 -6.475520799784106885e-02 3.949586152231581715e-01 6.813947949375881441e-02 -4.354814083444167871e-01 5.136186195382341779e-01 6.679967947109526072e-02 3.681747267481830788e-01 -6.412228312256481599e-01 5.371328299651779714e-01 5.038809414839173773e-01 -5.543066721797982321e-01 3.242883462216526458e-01 1.228055607469163979e-01 -8.599692469261879246e-01 -1.252159170866502247e-01 -3.575248850376221421e-01 -6.752445093267759324e-01 -1.022290493592446434e-02 -7.764326519221499412e-01 3.415671332750229716e-01 -5.736083757271527306e-01 3.753180508229122525e-01 3.489153506496344148e-01 -5.865129219933064020e-01 -6.895839210136944786e-01 3.558283495621878956e-01 -1.003950895372172740e-02 2.500480650660111270e-01 2.664172774094699103e-01 7.467296291104924544e-02 -1.700858439430478763e-01 2.246061626416988311e-01 -4.227690417399448952e-01 7.361637833160378230e-02 -2.690351189985452640e-01 -1.553672855415988985e-01 -8.807007044759918024e-02 -3.016441959543694068e-02 -6.668300245975810059e-01 1.358031244407857385e-01 -3.976990137033701300e-01 1.552660484097763416e-01 3.008532308004512879e-01 -7.846095283053484970e-02 6.555261960688373302e-01 -1.877304301193253450e-02 6.475000915442735705e-01 -5.395101463957185928e-01 2.259687845868043610e-01 -2.548327475006199605e-01 -4.069993368393856614e-01 -6.011302784423709911e-01 -8.997398437089706991e-02 1.679059898724158395e-02 -5.654693799839922708e-01 -9.652595456922010708e-01 -9.680493918585442170e-01 -5.517432876227490457e-01 2.032545535362750289e-01 1.287083576894006154e-01 -7.714584373864153966e-01 -3.175267487206866468e-01 -1.875311242675522794e-01 -1.724398056265474821e-01 -1.854573516679523526e-01 -5.803401564174743843e-01 -5.500022514580747979e-01 -9.791652056831026685e-02 7.582279551066170575e-02 -5.248424819104106076e-01 -3.347482818653927938e-01 -9.545659317337039373e-02 -8.864086128567588707e-02 -1.575493295556855411e-01 -3.702990788075024575e-01 1.589245710635094899e-01 -2.608790090532734363e-01 -4.002268802393049163e-01 3.438328326222571674e-01 3.411254317568437333e-01 -3.449001422102628278e-01 1.226506271949020094e-01 5.112152529184721406e-02 2.410622121029524223e-01 -7.938504785401042652e-01 -4.734470881566513883e-02 -5.773263827404137016e-01 3.176071187895271875e-01 -2.666752791894277941e-01 2.102730850917853833e-01 -2.535668271903082083e-01 5.005918168518087574e-01 -1.297584685878985233e-01 7.289843241361472215e-01 -7.852577270305410861e-01 -5.321987932926729448e-01 3.221259720240414182e-01 -4.691793477986622718e-01 -4.253955741302186677e-01 1.455774868875040970e-02 -4.397026079152736577e-01 -4.756330098024561526e-01 -5.432306552847826486e-01 -1.079728843135602023e+00 -5.628004971538483892e-01 -5.257927600794878309e-01 -2.454751010550538515e-01 -4.673568396489569676e-01 -2.469771959042635912e-01
2.749660091323205199e-02 -5.518845939675989243e-01 2.832578996548430483e-01 4.476184428673853355e-01 -4.304465041660753694e-02 6.655087070832556018e-01 -2.602291644515405955e-01 6.531346447229742225e-01 4.712742971934599234e-01 6.633479660119562249e-01 5.604889743899515997e-01 -2.940461533288051821e-01 3.877729337618474048e-01 6.827627931915137838e-01 -8.443335674269950367e-03 3.470394281715533658e-01 5.069377768333800383e-01 8.336042222458951434e-01 1.786080738795048015e-02 1.581787668614471065e-01 1.971576912655857994e-01 -2.917216092027349883e-01 2.312535211053718398e-01 -5.614873531026746134e-01 -3.420767956096326667e-01 -4.667376482519778880e-01 5.779127372297857557e-01 3.263830836614898812e-01 4.283878615092495123e-01 1.621006507181402267e-01 5.652175662048249949e-01 6.607210092252620015e-01 -2.614738817364299917e-01 -6.266881905462744207e-02 -1.158165359568259639e-01 -1.887385235238424608e-01 -2.310209170870652917e-01 6.023818520406416521e-01 -2.913050521839157248e-01 8.449188350496260325e-02 -1.979557386806038155e-01 7.346483039223566935e-01 -4.575476598756162971e-01 2.996232540917279641e-01 -3.229371712529001126e-01 5.143077112146332563e-01 6.236752797720820363e-01 3.730470280031751851e-01 -2.307012539097165749e-01 2.904089850186521160e-02 -7.321920258720223673e-01 2.092262423063784849e-01 -2.112658050808543797e-01 2.120100955395124998e-01 2.181354701841227706e-01 7.661383645510915219e-01 3.763695270204461263e-01 -4.703104081446801699e-01 -6.494359893069234779e-01 5.924145888964839068e-01 -1.213911722331990628e-01 1.241997644101526660e-01 -1.763215047125525070e-01 -2.598340477500295509e-01 -3.051181039138600726e-02 -3.080357426141916433e-01 3.999392468388001110e-01 -1.895167213867282041e-01 2.950865502989399869e-01 5.042438566805692579e-01 4.734264767494113582e-03 2.650995866640237231e-01 2.863605229232197291e-01 -2.280516250965772262e-01 5.188378954298819012e-01 -4.076126845814633803e-01 4.849760110899883347e-01 -2.850061486139726097e-01 -2.148710340978371713e-01 -4.625733918383016091e-02 -3.115056684240134488e-01 -2.024397910327984176e-02 -5.357108401415536930e-02 1.773126487703084037e-02 1.283255169146635677e-01 3.948081237376789843e-01 1.642459571238657212e-01 4.232519566866413951e-01 3.475239968550513092e-01 5.276739014172743270e-01 6.083274873755364354e-01 8.571378736766508410e-01 3.468528820966114701e-01 7.385215003729665995e-01 -8.724664041508065626e-01 6.858049947052224926e-01 1.345772447751735768e-01 2.207291530642454536e-01 -4.466472423744025089e-01 -2.953350483238436075e-01 4.902653255767792650e-01 5.081793724647551969e-01 -2.050504453142337480e-01 1.838296058777216524e-01 3.419903006115784794e-01 -1.396668310482163944e-01 -4.143115005257835826e-01 -8.757594282944602959e-02 7.938820787792766343e-02 6.704019263089899816e-01 1.008121613930068189e-01 -5.919076176934685574e-01 1.096563457411964537e-01 3.024159705834783551e-01 9.285449931205318197e-02 2.592817945575338068e-01 5.308989594301852799e-01 -5.721062516922887919e-01 -5.695286629728740779e-01 2.811145074048306824e-01 -7.103219391625547052e-01 -1.722178024243652648e-03 -3.364833792499170029e-01 7.340645849418678814e-01 -4.180590218067317676e-01 6.897231101207427217e-01 4.869435179867079300e-01 1.050685757814649318e-01 3.884285100202982677e-01 -2.723434404970356271e-01 8.229762974123915054e-02 -6.209504609236463635e-01 2.172218310623225124e-01 1.238564871193020278e-01 3.493171473262432492e-01 -3.779894112358963554e-01 3.200701092915106405e-01 -4.680173322798747981e-01 4.625310475487615092e-01 3.978726755470816112e-01 6.806667904418187698e-01 -1.032042153635223843e-02 -3.100825345320465387e-01 -3.371692109239786683e-01 8.992033706664434023e-01 -2.803424728238255170e-01 4.411843306499509398e-01 -2.073283119836522026e-01 3.636323099460786468e-02 -1.463268757715830981e-01 -5.284000390519010271e-01 7.725789899908931668e-02 2.628218851834747127e-01 -3.105441198980519180e-01 -1.203746806602608577e-01 -7.740813725282286173e-01 -5.079471768984796798e-01 -5.760304465377392297e-02 -2.134552198683020430e-01 3.542737476060637825e-01 -3.681997435623475812e-01 -3.663444777418526366e-01 -2.821649759102931032e-01 -1.958437520173035018e-01 1.374425891555413060e-01 -2.320051936259856507e-01 -8.458774567258393606e-01 2.948170504407666703e-01 2.587438937699360619e-01 4.473624266788919779e-01 -4.402261713673956689e-01 3.104703949650601813e-01 3.258884622710628287e-01 2.022115176625726707e-01 3.812541027551952233e-01 3.238054486480981820e-01 3.064970350892378681e-01 -1.019582144513241223e-01 3.625631927249460817e-01 2.574765243099878531e-01 -9.162839487068983324e-01 -3.525300487826560913e-01 2.693122631399526568e-01 -5.354217963958050053e-01 -3.742236466962020058e-01 -4.088647157652079978e-01 -9.046468647710442790e-01 2.327192819054954009e-01 5.224934826559392009e-01 -2.092284916553306118e-01 -1.312872628514549223e-01 -3.809031760530043331e-01
-5.396274260004925161e-01 -6.810901471111909800e-01 3.801192145841468251e-01 2.177233569840095750e-01 4.097433220021248768e-01 -5.004920281740501409e-01 2.181232687278288063e-01 -6.484718591074688510e-01 -3.499216728794473097e-01 -7.824377039913472665e-01 -2.334308187183295469e-01 -3.525596252395743480e-01 1.730001051562436998e-01 -5.738209288732999402e-01 -5.661635821076957953e-01 2.667055292086552010e-01 8.150277438896931514e-02 5.793345193712632346e-01 6.214907227179796712e-01 6.434438820107409862e-01 3.976149812141342998e-01 9.712977457683093230e-02 7.347977329424471016e-01 4.050514126754334310e-01 -3.712041507464013956e-01 1.354563853344838142e-01 2.415375847469253823e-01 -3.723862262834456982e-01 5.252213146423723167e-01 1.511312577505094512e-01 5.927594119438891473e-01 -5.657481997627620274e-01 4.168235399537542074e-01 -8.191983068872433771e-01 4.662501654153911046e-01 -5.406083419981350113e-01 -3.160273190815531819e-01 -8.211277945150696755e-01 9.639081044949786292e-02 6.279570941654019078e-01 7.120476474260312161e-01 4.741548650601082326e-01 9.492975959712687817e-02 3.781137439384303911e-01 -1.266864161748149920e-01 7.048889089072667424e-01 -3.717238119144914421e-01 3.025636545787552811e-01 -1.007360834492405065e-02 -4.193998984527910201e-01 4.949647699856676852e-01 6.829780340266270455e-01 2.726163463544425403e-01 -7.400360951073489124e-01 5.018118106281969082e-01 -2.948387837233056863e-01 1.031400199786455668e-01 -1.956687752441589601e-02 1.855748141774799242e-01 -4.573287536253211605e-01 1.937210286805843007e-01 6.709611042156296556e-02 -1.415371837405382249e-01 5.584532100945807098e-01 2.513386232021269096e-01 -5.462002447497146251e-01 -4.996218443777275531e-01 4.256908276303014715e-01 7.027133285042252986e-02 3.981564568780420754e-01 7.851972133923722508e-01 -4.475023534234663924e-01 -5.065367364581321308e-01 1.618113900947831460e-02 -7.664472169686453729e-02 -6.859288161434181630e-01 -3.334091166126768591e-01 -2.207965661232759169e-01 -4.285503326424744408e-01 2.948206228063364742e-01 4.269431192794835850e-01 4.905216553705556426e-01 -4.697961865642136248e-01 6.285432374449161363e-01 5.185387841865474190e-01 -1.074802163125880283e-01 5.369295210699337462e-02 -6.527989097086163151e-01 5.431417474273684265e-01 4.854941679427143830e-01 1.493949938106527500e-02 -6.076265594681018456e-01 -3.330978812535396183e-01 -3.681902315320635388e-01 3.912998779057528242e-01 -2.825541403943561056e-02 -1.529370891129372412e-01 -2.527494554725337461e-01 -3.577834130546364011e-01 -5.088159612035636015e-04 2.522716293601011128e-01 3.676154739342493150e-01 5.657721375775482953e-01 6.289589507234770727e-01 6.614385538960700917e-01 -2.036688679129041168e-01 1.555953476745483011e-01 5.776128885962941162e-01 -3.605965441000671956e-02 -7.586464188836733458e-01 -3.813640008639879175e-01 -4.635788741008110142e-02 -3.628389638942793316e-01 -4.674606277290602879e-02 -6.220001467693950792e-01 6.830291219903577016e-01 -2.176657274093090830e-02 5.350856401759371828e-01 2.648044257161383253e-01 3.920030730216934045e-01 -1.475864510862497647e-01 -5.002312189443129942e-01 -2.511152211065825843e-03 -2.144945926236781486e-01 -6.578925315096614268e-01 -5.240299952940977724e-01 2.582778503705974171e-01 4.209592027978912854e-01 -3.668319344757333123e-01 -1.876302401339936532e-01 -4.067117463929598165e-01 8.725683186422002191e-02 7.593257967627864424e-02 5.173994469266244289e-01 -1.843589021974849917e-01 -2.904380886646289461e-01 -1.789384174215045697e-01 6.293909792106676671e-01 -1.564355595350549744e-01 -5.213208946856050519e-01 4.273162186553665087e-01 -5.496209627574595302e-01 -4.807373054699271564e-01 9.139752756432069081e-01 4.365693863014906695e-01 -1.394128666485500156e-01 5.672648761531161668e-03 1.000425483317240044e-01 7.109537469064284299e-01 4.245732264218279317e-01 4.937434915499241406e-01 5.646603943411120374e-01 -5.520186694068019984e-01 -2.546841850722135203e-01 3.063170445987402624e-01 8.417467613845783792e-01 7.237930362314991539e-01 6.675701104293689792e-01 9.619336810515249914e-02 8.804730969816230990e-02 -6.746562258067099194e-01 6.242464967318188673e-01 -1.694520833255076103e-02 -7.351814792386756059e-01 -1.373529720696022027e-01 -1.930428677934752923e-01 7.688941003986848877e-02 5.034953273486862946e-01 -6.226940668345928298e-01 -3.551552706512418056e-01 1.574680619200902187e-01 -3.936875272801662606e-02 -4.823001359270066568e-01 2.174030915838190137e-01 6.447866920807642233e-01 -4.837038201125906829e-03 -2.777466527394837903e-01 -9.084546375982324729e-02 6.068643441155510132e-01 4.197427112197220644e-01 8.141456989235809072e-01 -4.030835924225164013e-01 -8.767303230619165333e-02 -2.697270806880542326e-01 -7.328485280836730675e-01 -3.766064089044065533e-01 5.838637186421243852e-01 1.827286474486098100e-01 3.960460868203368179e-01 2.228394730704180149e-01 -4.181553879441591848e-01 -2.688454918876335142e-01
-2.642266634553996907e-01 4.634795252851687808e-01 1.688779371468680512e-01 2.785692673173253975e-01 -4.965377837986962445e-02 -7.955683223892301426e-02 4.131275159680613540e-01 4.135491442274822904e-01 -6.787838840701384407e-03 -6.646336460958708336e-01 -4.463977040630150439e-01 -5.183274387513979731e-01 -7.464312580663777785e-01 -5.217520693816734001e-01 8.196768303226648067e-02 -3.923576235010842739e-01 4.587334283669863844e-01 -7.028211250691470680e-01 -9.398562721303491824e-03 4.296589881727544413e-02 4.043661169889257168e-01 5.910343053392169699e-01 -3.743770698483732673e-01 6.634538919158279313e-01 -5.012115127711072038e-01 -6.558413408244184728e-01 5.015013069281250013e-01 -1.915631281481555148e-01 -5.451062080223286754e-01 5.315316677959492919e-01 -5.165372895752523563e-01 -1.556839402105839598e-01 3.335344923064360589e-01 1.342272520814166425e-01 8.227882085271524815e-02 -5.101227337477896029e-01 4.209293754114975528e-01 4.530573394138653343e-01 -8.549240721030809675e-01 -4.853327055118108468e-01 -4.822083151157407488e-01 -1.877242357758455993e-01 2.788575069540089602e-01 6.845081600580744663e-01 -3.593790700462052290e-01 8.180667670865403307e-02 2.188024575723712117e-01 3.593441851826476574e-01 -3.727097674404590832e-01 -6.303474190667597288e-01 -2.036932805780385103e-01 -3.190981545359846128e-01 1.635366518153081317e-01 -5.964085333633827313e-01 -4.787466653974742185e-03 -1.140766067375280218e-01 3.900519644878414072e-01 6.487820489356542486e-02 2.983781175373065864e-01 5.547392787332035974e-02 -2.522628056354813686e-01 -5.919707017020368056e-01 5.415021497953951268e-01 -2.328631108473628031e-01 5.999680002670286783e-01 -6.047211664548942656e-01 2.781484831049498285e-01 1.940489574788035673e-02 -2.885470410391238194e-01 -3.605423539458079696e-01 5.693972661192165940e-01 3.838705335949391811e-02 -6.685813845135712974e-01 -4.902295757107841823e-01 -5.012095079203828796e-01 8.024242973913821020e-01 2.017267161011983279e-01 -4.516282317239944666e-01 8.187509251291940071e-01 -9.231437718148643307e-03 5.785802645854024040e-02 -1.870625466146924043e-01 2.404113718250290577e-01 6.214745455193361190e-01 -1.949519898485898572e-01 7.070112953513509879e-01 -4.848183249025140307e-01 -2.041153923722994479e-01 2.035490181697234835e-01 -7.401679712952477508e-02 3.011637351806153440e-01 -5.175492264880450222e-01 -7.050287858034934296e-02 7.331987430715152243e-01 -5.107847998796727351e-01 -5.563520246179528561e-01 1.809099745629755285e-01 6.567119261198341995e-01 -2.143988102100743698e-01 -4.566124140054506064e-02 4.933537707646166171e-01 1.024903852601563858e-01 4.241520247651573983e-01 4.031145047998180297e-01 -6.523519020069524776e-01 -2.508132804841841090e-01 7.186837753157763187e-01 -1.823692668134560824e-01 5.916893198862058223e-03 5.558239131094032670e-01 -3.638141214201322526e-01 3.173333849801308892e-02 -9.682900415057857368e-02 9.948100314358911123e-02 3.647041809223716124e-01 -7.929653801939369195e-01 -7.472737487602165718e-01 -4.484953397173490619e-01 -7.735949890894717740e-01 -2.111253738661194590e-01 3.156238899115390573e-01 2.078741049704812549e-01 -6.640708954751677329e-01 1.663050880365586626e-01 3.989209834554381939e-01 1.815939160522636875e-01 1.415616531306842230e-01 4.859760619303709617e-01 7.354918282093209081e-01 -2.123992364670918842e-01 -4.755461128962689132e-01 7.704278918887861316e-01 5.990094234362633996e-01 2.681846060350515648e-01 3.734730788403698570e-02 6.581706015855320890e-01 6.319025858641542648e-01 2.703882126220253368e-01 -6.208971539034819909e-01 3.776766331552012801e-01 -6.364864433622661188e-01 -6.050740907856317907e-01 3.105706185559145016e-01 2.712223163354670619e-01 -4.074998158345993216e-01 -4.140769955760612020e-01 -6.981416037738711333e-01 1.048072586770694425e-01 6.212222241138262158e-01 -2.268907435644968162e-01 5.874261483482849933e-01 1.688450629376091194e-01 8.250338641314781674e-01 4.365714829020753140e-02 6.588975243375372326e-02 -3.729730080132247494e-01 -4.047644587552328699e-01 -6.214350367980125966e-01 6.078770678494220814e-01 4.866118152362817195e-01 1.586754629639164360e-01 -2.295049081348390085e-01 -3.593426989026625440e-02 4.143535507138824681e-01 -1.291867555503979637e-01 3.602454969301238652e-01 -1.296290688600685859e-01 -7.682398832841081937e-01 1.806957242925088733e-02 2.512795834768068448e-01 5.233933678728982519e-01 1.189897182542524051e-01 3.757721760640884145e-01 -1.635688823470832498e-01 1.872151178096132795e-01 -3.341697946017355147e-01 2.216496244046156361e-01 7.831865997198035334e-01 4.344799651437978305e-01 -6.784149373685248730e-01 1.036179348076029932e-01 6.365406705098690665e-01 2.528039206250320969e-01 -4.954338376862801874e-02 2.669129432517605705e-01 -2.370524906917656840e-02 -3.868449546724333499e-01 -5.196193955312288226e-01 1.391238481188187825e-01 -3.924768627040534086e-01 -7.623959138098365118e-01 -1.793707630272577125e-01
-6.043902071258573372e-01 1.803154442225978482e-01 -4.580030873494571608e-01 -2.912375534475326044e-01 -1.001307591308471023e+00 3.458752598315150140e-01 4.131710571320209580e-01 -6.772895948674966249e-01 2.488074886840550282e-01 -1.732408681936622452e-01 3.201617959835723615e-01 -1.558658102728526229e-01 6.986537572240930638e-01 -2.892827965745413676e-01 -3.726404023776813124e-01 1.657013424019238290e-01 4.788770888680171645e-01 -1.479993573289645759e-01 -4.921365297701639774e-01 -2.529894247099129800e-01 3.498366055202274949e-01 7.606020991766055950e-01 2.468896957638466727e-01 -1.172711307360054522e-01 5.138295959729448636e-01 8.520018797567055491e-02 7.065599637801300847e-02 3.137765417977034232e-02 -5.782100560925182986e-01 -2.814543023848289915e-01 1.901156630193878011e-02 -2.997373632391819864e-01 3.016685686841030084e-02 -4.239042106902974894e-01 -1.132244840635083516e-01 -4.028067883503442803e-01 6.671858404919576990e-02 -3.671762403931848606e-01 -1.876113447707953574e-01 -2.346210797196008058e-01 7.214993581253230648e-01 -2.006645229764074390e-01 8.761702286481683200e-02 -2.285631454996092105e-01 -7.242153605437688657e-02 -3.776944415372067154e-01 -1.259452916721615912e-01 3.276114464543278954e-02 -3.267875804711646848e-01 1.264098362095465722e-01 -3.463993868541732635e-01 1.051108371173809508e-01 -4.943184471456164575e-01 6.260602308747513778e-01 -6.931138478494819344e-01 5.895338742060711457e-02 -2.196251012324085816e-01 -5.884338596096839319e-02 -8.297692835137494491e-03 1.810071755393935500e-02 6.917308176924963359e-01 6.246157048793489208e-01 -5.682877762215526873e-01 4.021881837115206526e-01 4.035921114531386689e-01 5.317778278145081083e-01 6.286919996230773133e-01 2.653760990165207612e-02 -3.123890511668704351e-01 -5.697363297895547962e-01 8.263019067257014738e-01 2.220844925039936746e-01 -1.417348530726750544e-01 4.044475213633648147e-01 7.886714764510384390e-02 1.771179708952827503e-01 -5.453112018740387951e-02 -1.997468696081496353e-01 6.678127706809501296e-01 -3.261135961188531551e-01 -8.268486318203892294e-02 6.856807459559142170e-01 5.998173873021399316e-02 6.351576243885134199e-01 -4.916669431953687441e-01 2.315351081247641329e-01 6.527875681213237691e-01 6.835095460053565164e-01 4.719173375714529883e-01 6.770605422199642287e-02 7.279564909381747162e-01 2.929175140101114017e-01 -6.586681864524379648e-02 -4.633405712350712746e-01 8.681829965310856878e-02 5.575915320749421644e-01 1.835835022409842421e-01 8.359256869438672632e-01 3.220433976602450898e-01 4.551567678754393498e-01 8.339285320253082834e-02 -2.604942316142204173e-01 -4.071825044049595665e-01 -5.600074991455049611e-01 6.727938061011233817e-01 -3.837078014329873832e-01 6.538694466600276645e-01 6.861609367506383839e-01 4.653827467141234964e-01 3.369960422491746210e-01 2.875298272317559078e-01 -3.564359518246952574e-02 -5.423667040884925239e-01 -2.696868545171316467e-01 -1.366142068330915837e-01 5.595997876998385495e-02 5.634438128795641321e-01 1.971332919162052111e-01 3.861042212390856099e-01 -1.306048363969690151e-01 4.502976145060335611e-01 2.227983708649038108e-01 -1.861442369893193116e-01 8.287165757272154654e-01 8.810665448897514462e-02 4.997629043664260085e-01 3.219637947411463363e-01 6.280093117444006667e-01 2.473273351279327292e-01 6.430222243710436159e-01 -1.339271148831907253e-03 8.770543501580169155e-01 -2.248530551903798191e-01 4.112786482919785977e-03 -9.280472994000590892e-02 -5.751586600754229894e-02 3.138761291744129878e-01 2.369165993315449081e-01 5.641783596021505698e-01 3.487074156393782931e-01 7.987874831725918501e-01 1.105539412717804031e-02 -9.261327464574826973e-02 9.875081276919572826e-01 5.146432463952496095e-01 5.621202466782394130e-02 6.680324064126140771e-01 5.287619249654335746e-02 -5.607772077959578549e-01 4.768625870751216217e-03 -1.563198822946793298e-01 2.606066951596952563e-01 -7.127925959042401283e-02 5.831147822642106515e-01 -1.956372936787223460e-02 2.504232149062132207e-01 -6.290852870668585117e-01 5.803639981156177852e-01 5.919885173155573499e-01 -8.372867239679046558e-02 5.872771604184583438e-01 6.045903698160859374e-01 4.089786228604698759e-01 6.447555969889685601e-01 7.013815878376999935e-01 3.737590786668625875e-01 -4.116705293695990253e-01 -8.958498696228484048e-02 -2.525414638669823408e-01 -1.943211092302187804e-01 3.608584138045864975e-01 -6.550321841335476902e-01 -2.902139271242761276e-01 -6.225736284387739516e-01 -5.619527496233907293e-02 1.544388941178071462e-01 4.881656116467726347e-01 1.639735541394916063e-01 4.480830488722357119e-01 6.653841655108917452e-01 4.715057994461500090e-01 -2.089963151074166747e-01 4.469423628201120713e-01 -1.194722396662006303e-01 6.478131103860711448e-01 6.214165448466441033e-01 2.863819983181554729e-01 -5.530624412730473782e-01 3.707184973151388396e-01 8.898040902586923373e-02 -3.513437943342234693e-01 -2.055644441740976311e-02
-5.047244376458560611e-01 -3.515104604907934860e-01 3.336631847824782504e-01 -7.000311884981015309e-01 1.875140490332778409e-01 4.331541385446502357e-01 -3.476429793043832039e-01 -5.580582186052478466e-01 4.217897974021353469e-01 3.865558619233311899e-01 3.858882345358197741e-01 -2.481953841129622418e-01 -3.392038590087624872e-01 5.400022316560123548e-01 -3.009894295244297524e-01 7.297604208860762887e-01 -1.396932165053130503e-01 -7.670312602684030701e-01 4.594441497226629534e-01 5.028803628399146630e-01 4.458848094475778567e-01 1.673059132911313418e-01 3.135122380553687083e-01 1.196412217012645662e-01 3.514302954814832458e-01 -5.340609358875191282e-01 -4.670590894089218792e-01 3.759069250444128651e-01 -7.061754755923503879e-01 -4.767415316561323668e-01 -2.562238364177807370e-01 -3.497311661120037773e-01 6.271519739574777930e-01 3.501636505093589924e-01 -5.443425800121539648e-01 -3.964883584713450593e-01 -1.687414345663010296e-02 2.792606502602586194e-02 6.108844421280865133e-02 2.500043260934569078e-01 -2.449418002265523198e-01 5.229554910421533309e-01 6.823525135678645270e-01 -3.905584578717145178e-02 6.469479553781012360e-01 6.681564153493335656e-01 -3.693295274657052429e-01 2.248000338289785627e-01 2.747815249190164177e-01 -4.513050303773547545e-01 -4.898878106267937071e-01 4.790171364296599843e-01 1.916030701175673590e-01 -3.352927926666161573e-01 -4.752230593651875501e-01 3.478652801978974196e-01 1.924667365632177773e-01 -2.275913432270871006e-01 -4.157927852821322601e-01 1.807128670737260800e-01 -2.936239613981936336e-01 -8.834223387596193966e-01 1.111043680550982404e-01 -2.001202069565103936e-01 1.266570435020714785e-02 8.083168202413356651e-01 3.238119315843395601e-02 -3.068966841605370588e-01 -3.489096805932045409e-01 -1.605165856760953080e-01 -7.321648415075576732e-02 -2.589365872025446991e-01 3.103633714565988064e-02 -4.155517252112337495e-02 2.436392418488574352e-01 -4.298437319739271678e-01 1.690345784422145337e-01 5.389077311199216291e-01 -6.001448896474691486e-01 8.621249689203906719e-02 -6.133790726712381458e-01 -1.024277889679217207e-01 -7.131752195002196704e-01 -5.527526556646876754e-01 6.959259286675656409e-01 8.298530647266724736e-02 -5.893919829280597211e-01 7.383180953559205228e-01 4.119843754401428804e-01 1.759974797965925264e-01 -3.880836381221337561e-01 3.697798287372474624e-01 2.508547073399687299e-01 3.232044563433789097e-01 1.045801427589547472e-01 -5.879226536439050577e-01 6.722669294278955654e-01 2.315207764761767484e-02 -9.285419354324024599e-02 -1.607209572084476457e-01 5.501716494654579348e-01 -1.367002722193957631e-01 -7.228386833375624043e-01 -4.856094842227765551e-01 -6.876807323991147858e-02 -4.260840729702849439e-01 -5.406413121032230817e-01 -8.632072038034046546e-01 -2.129740775106818140e-01 -1.212336559811778153e-01 -7.935152455951421588e-03 7.620220773907117051e-01 1.019287783740294717e-01 -5.739472953464572758e-01 -1.885945898155956535e-01 -7.764285703100114178e-02 -1.431296395626773243e-01 -5.556017487876076938e-02 3.137195894898656690e-01 1.846952655666748155e-01 -3.401695291290994794e-01 -2.829770358772642491e-01 -6.315523252163521839e-01 -3.038432117730059945e-01 -5.800826675475582173e-01 -4.133712844223735861e-01 -5.228833212196423164e-01 -7.329153458011971045e-01 3.381368229413685977e-01 4.189595164240068614e-01 2.073297425214443157e-01 -2.839750846509042637e-01 3.029451096185604986e-02 4.736422669762923587e-01 2.426588995105194713e-01 3.875941578552167810e-01 -1.713838803860667434e-02 5.664501396168878378e-01 -3.489871564755415712e-01 2.025182620192789440e-01 4.395178147450172212e-01 3.946111128872884996e-03 -4.820912365044505848e-02 -3.749162468307931095e-01 -3.988889367765393046e-01 1.650576630843094417e-01 -2.936538092331791860e-01 4.444095186848316947e-01 -3.532325600712603042e-01 -8.407366318233127078e-01 5.709621726125642116e-01 -3.307588787691214116e-01 -4.009285021418369510e-01 -5.178964164768212752e-01 9.491610513955153761e-02 -5.354741363882148386e-01 -3.662654056992314944e-01 3.144120918229433292e-01 1.307899557858394624e-01 4.671212989057650644e-02 5.694058238627600632e-01 5.118224218912246215e-01 6.893891171545193930e-02 -5.842742686186086498e-01 4.197017315381689762e-01 7.240908178104040749e-01 -6.172274153912664652e-01 -5.077118721229626486e-01 -5.860804001831690369e-02 2.619098791716570895e-01 2.397828190513950630e-01 -3.510463166001893121e-01 -7.522444803278323378e-02 -4.969844099330106846e-01 -2.701447916425776460e-02 5.713981075269929377e-01 1.083401506108754297e-01 -4.319635014790998429e-01 1.641662211363243695e-01 2.236305444090786465e-01 -3.575278218238953643e-01 -2.093942135781886316e-01 6.210597641510369471e-02 -6.133767037039716818e-01 4.420882707470953354e-01 1.233473258310539555e-01 -3.162954927771378100e-01 -3.617895927149611390e-01 2.784429168939672739e-01 5.126743037866684505e-01 1.570850082623949651e-01 -1.216574326529244576e+00
